{"learner":{"attributes":{"best_iteration":"499","best_ntree_limit":"500"},"feature_names":[],"feature_types":[],"gradient_booster":{"model":{"gbtree_model_param":{"num_parallel_tree":"1","num_trees":"1000","size_leaf_vector":"0"},"tree_info":[0,1,0,1,0,1,0,1,0,1,0,1,0,1,0,1,0,1,0,1,0,1,0,1,0,1,0,1,0,1,0,1,0,1,0,1,0,1,0,1,0,1,0,1,0,1,0,1,0,1,0,1,0,1,0,1,0,1,0,1,0,1,0,1,0,1,0,1,0,1,0,1,0,1,0,1,0,1,0,1,0,1,0,1,0,1,0,1,0,1,0,1,0,1,0,1,0,1,0,1,0,1,0,1,0,1,0,1,0,1,0,1,0,1,0,1,0,1,0,1,0,1,0,1,0,1,0,1,0,1,0,1,0,1,0,1,0,1,0,1,0,1,0,1,0,1,0,1,0,1,0,1,0,1,0,1,0,1,0,1,0,1,0,1,0,1,0,1,0,1,0,1,0,1,0,1,0,1,0,1,0,1,0,1,0,1,0,1,0,1,0,1,0,1,0,1,0,1,0,1,0,1,0,1,0,1,0,1,0,1,0,1,0,1,0,1,0,1,0,1,0,1,0,1,0,1,0,1,0,1,0,1,0,1,0,1,0,1,0,1,0,1,0,1,0,1,0,1,0,1,0,1,0,1,0,1,0,1,0,1,0,1,0,1,0,1,0,1,0,1,0,1,0,1,0,1,0,1,0,1,0,1,0,1,0,1,0,1,0,1,0,1,0,1,0,1,0,1,0,1,0,1,0,1,0,1,0,1,0,1,0,1,0,1,0,1,0,1,0,1,0,1,0,1,0,1,0,1,0,1,0,1,0,1,0,1,0,1,0,1,0,1,0,1,0,1,0,1,0,1,0,1,0,1,0,1,0,1,0,1,0,1,0,1,0,1,0,1,0,1,0,1,0,1,0,1,0,1,0,1,0,1,0,1,0,1,0,1,0,1,0,1,0,1,0,1,0,1,0,1,0,1,0,1,0,1,0,1,0,1,0,1,0,1,0,1,0,1,0,1,0,1,0,1,0,1,0,1,0,1,0,1,0,1,0,1,0,1,0,1,0,1,0,1,0,1,0,1,0,1,0,1,0,1,0,1,0,1,0,1,0,1,0,1,0,1,0,1,0,1,0,1,0,1,0,1,0,1,0,1,0,1,0,1,0,1,0,1,0,1,0,1,0,1,0,1,0,1,0,1,0,1,0,1,0,1,0,1,0,1,0,1,0,1,0,1,0,1,0,1,0,1,0,1,0,1,0,1,0,1,0,1,0,1,0,1,0,1,0,1,0,1,0,1,0,1,0,1,0,1,0,1,0,1,0,1,0,1,0,1,0,1,0,1,0,1,0,1,0,1,0,1,0,1,0,1,0,1,0,1,0,1,0,1,0,1,0,1,0,1,0,1,0,1,0,1,0,1,0,1,0,1,0,1,0,1,0,1,0,1,0,1,0,1,0,1,0,1,0,1,0,1,0,1,0,1,0,1,0,1,0,1,0,1,0,1,0,1,0,1,0,1,0,1,0,1,0,1,0,1,0,1,0,1,0,1,0,1,0,1,0,1,0,1,0,1,0,1,0,1,0,1,0,1,0,1,0,1,0,1,0,1,0,1,0,1,0,1,0,1,0,1,0,1,0,1,0,1,0,1,0,1,0,1,0,1,0,1,0,1,0,1,0,1,0,1,0,1,0,1,0,1,0,1,0,1,0,1,0,1,0,1,0,1,0,1,0,1,0,1,0,1,0,1,0,1,0,1,0,1,0,1,0,1,0,1,0,1,0,1,0,1,0,1,0,1,0,1,0,1,0,1,0,1,0,1,0,1,0,1,0,1,0,1,0,1,0,1,0,1,0,1,0,1,0,1,0,1,0,1,0,1,0,1,0,1,0,1,0,1,0,1,0,1,0,1,0,1,0,1,0,1,0,1,0,1,0,1,0,1,0,1,0,1,0,1,0,1,0,1,0,1,0,1,0,1,0,1,0,1,0,1,0,1,0,1,0,1,0,1,0,1,0,1,0,1,0,1,0,1,0,1,0,1,0,1,0,1,0,1,0,1,0,1,0,1,0,1,0,1,0,1,0,1,0,1,0,1,0,1,0,1,0,1,0,1,0,1,0,1,0,1,0,1,0,1,0,1,0,1,0,1,0,1,0,1,0,1,0,1,0,1,0,1,0,1,0,1,0,1,0,1,0,1,0,1,0,1,0,1,0,1,0,1,0,1,0,1,0,1,0,1,0,1,0,1,0,1,0,1,0,1,0,1,0,1,0,1,0,1,0,1,0,1,0,1,0,1,0,1,0,1,0,1,0,1,0,1,0,1],"trees":[{"base_weights":[-1.0986547E-1,3.9568346E-2,-3.560831E-1,-1.7575757E-1,2.1163167E-1,-1.5476191E-1,-5.529412E-1],"categories":[],"categories_nodes":[],"categories_segments":[],"categories_sizes":[],"default_left":[1,1,1,0,0,0,0],"id":0,"left_children":[1,3,5,-1,-1,-1,-1],"loss_changes":[3.2833656E1,2.0636824E1,1.3270313E1,0E0,0E0,0E0,0E0],"parents":[2147483647,0,0,1,1,2,2],"right_children":[2,4,6,-1,-1,-1,-1],"split_conditions":[2.5916667E0,2.2207142E1,7.792857E0,-1.7575757E-3,2.1163167E-3,-1.5476191E-3,-5.529412E-3],"split_indices":[29,58,55,0,0,0,0],"split_type":[0,0,0,0,0,0,0],"sum_hessian":[8.91E2,5.55E2,3.36E2,2.465E2,3.085E2,1.67E2,1.69E2],"tree_param":{"num_deleted":"0","num_feature":"61","num_nodes":"7","size_leaf_vector":"0"}},{"base_weights":[1.0986547E-1,-3.9568346E-2,3.560831E-1,1.7575757E-1,-2.1163167E-1,1.5476191E-1,5.529412E-1],"categories":[],"categories_nodes":[],"categories_segments":[],"categories_sizes":[],"default_left":[1,1,1,0,0,0,0],"id":1,"left_children":[1,3,5,-1,-1,-1,-1],"loss_changes":[3.2833656E1,2.0636824E1,1.3270313E1,0E0,0E0,0E0,0E0],"parents":[2147483647,0,0,1,1,2,2],"right_children":[2,4,6,-1,-1,-1,-1],"split_conditions":[2.5916667E0,2.2207142E1,7.792857E0,1.7575757E-3,-2.1163167E-3,1.5476191E-3,5.529412E-3],"split_indices":[29,58,55,0,0,0,0],"split_type":[0,0,0,0,0,0,0],"sum_hessian":[8.91E2,5.55E2,3.36E2,2.465E2,3.085E2,1.67E2,1.69E2],"tree_param":{"num_deleted":"0","num_feature":"61","num_nodes":"7","size_leaf_vector":"0"}},{"base_weights":[-1.08775295E-1,3.9173458E-2,-3.525491E-1,-1.7400762E-1,2.0952311E-1,-5.468813E-1,-1.5026547E-1],"categories":[],"categories_nodes":[],"categories_segments":[],"categories_sizes":[],"default_left":[1,1,1,0,0,0,0],"id":2,"left_children":[1,3,5,-1,-1,-1,-1],"loss_changes":[3.218443E1,2.0227701E1,1.3165146E1,0E0,0E0,0E0,0E0],"parents":[2147483647,0,0,1,1,2,2],"right_children":[2,4,6,-1,-1,-1,-1],"split_conditions":[2.5916667E0,2.2207142E1,9.411765E-1,-1.7400762E-3,2.095231E-3,-5.4688132E-3,-1.5026546E-3],"split_indices":[29,58,59,0,0,0,0],"split_type":[0,0,0,0,0,0,0],"sum_hessian":[8.909923E2,5.5499786E2,3.3599445E2,2.4649925E2,3.0849863E2,1.7049643E2,1.6549802E2],"tree_param":{"num_deleted":"0","num_feature":"61","num_nodes":"7","size_leaf_vector":"0"}},{"base_weights":[1.0877532E-1,-3.917342E-2,3.525491E-1,1.7400771E-1,-2.0952311E-1,5.4688126E-1,1.5026547E-1],"categories":[],"categories_nodes":[],"categories_segments":[],"categories_sizes":[],"default_left":[1,1,1,0,0,0,0],"id":3,"left_children":[1,3,5,-1,-1,-1,-1],"loss_changes":[3.2184425E1,2.022771E1,1.31651535E1,0E0,0E0,0E0,0E0],"parents":[2147483647,0,0,1,1,2,2],"right_children":[2,4,6,-1,-1,-1,-1],"split_conditions":[2.5916667E0,2.2207142E1,9.411765E-1,1.740077E-3,-2.095231E-3,5.4688123E-3,1.5026546E-3],"split_indices":[29,58,59,0,0,0,0],"split_type":[0,0,0,0,0,0,0],"sum_hessian":[8.909923E2,5.5499786E2,3.3599445E2,2.4649924E2,3.0849863E2,1.7049641E2,1.6549802E2],"tree_param":{"num_deleted":"0","num_feature":"61","num_nodes":"7","size_leaf_vector":"0"}},{"base_weights":[-1.0769755E-1,3.8782798E-2,-3.490596E-1,-1.7227618E-1,2.074374E-1,-1.5036401E-1,-5.433786E-1],"categories":[],"categories_nodes":[],"categories_segments":[],"categories_sizes":[],"default_left":[1,1,1,0,0,0,0],"id":4,"left_children":[1,3,5,-1,-1,-1,-1],"loss_changes":[3.1549E1,1.9826847E1,1.2929188E1,0E0,0E0,0E0,0E0],"parents":[2147483647,0,0,1,1,2,2],"right_children":[2,4,6,-1,-1,-1,-1],"split_conditions":[2.5916667E0,2.2207142E1,7.792857E0,-1.7227618E-3,2.074374E-3,-1.5036401E-3,-5.4337857E-3],"split_indices":[29,58,55,0,0,0,0],"split_type":[0,0,0,0,0,0,0],"sum_hessian":[8.9097125E2,5.549915E2,3.3597974E2,2.4649698E2,3.084945E2,1.6699614E2,1.689836E2],"tree_param":{"num_deleted":"0","num_feature":"61","num_nodes":"7","size_leaf_vector":"0"}},{"base_weights":[1.0769754E-1,-3.8782828E-2,3.4905967E-1,1.722762E-1,-2.074375E-1,1.5036407E-1,5.433786E-1],"categories":[],"categories_nodes":[],"categories_segments":[],"categories_sizes":[],"default_left":[1,1,1,0,0,0,0],"id":5,"left_children":[1,3,5,-1,-1,-1,-1],"loss_changes":[3.1549011E1,1.982686E1,1.2929188E1,0E0,0E0,0E0,0E0],"parents":[2147483647,0,0,1,1,2,2],"right_children":[2,4,6,-1,-1,-1,-1],"split_conditions":[2.5916667E0,2.2207142E1,7.792857E0,1.7227619E-3,-2.074375E-3,1.5036407E-3,5.4337857E-3],"split_indices":[29,58,55,0,0,0,0],"split_type":[0,0,0,0,0,0,0],"sum_hessian":[8.909712E2,5.549915E2,3.3597974E2,2.46497E2,3.084945E2,1.6699612E2,1.689836E2],"tree_param":{"num_deleted":"0","num_feature":"61","num_nodes":"7","size_leaf_vector":"0"}},{"base_weights":[-1.0663226E-1,3.8396373E-2,-3.456158E-1,-1.7056291E-1,2.0537427E-1,-5.374693E-1,-1.459517E-1],"categories":[],"categories_nodes":[],"categories_segments":[],"categories_sizes":[],"default_left":[1,1,1,0,0,0,0],"id":6,"left_children":[1,3,5,-1,-1,-1,-1],"loss_changes":[3.0927269E1,1.9434088E1,1.2829014E1,0E0,0E0,0E0,0E0],"parents":[2147483647,0,0,1,1,2,2],"right_children":[2,4,6,-1,-1,-1,-1],"split_conditions":[2.5916667E0,2.2207142E1,9.411765E-1,-1.705629E-3,2.0537428E-3,-5.3746933E-3,-1.459517E-3],"split_indices":[29,58,59,0,0,0,0],"split_type":[0,0,0,0,0,0,0],"sum_hessian":[8.909355E2,5.549811E2,3.3595438E2,2.464933E2,3.0848782E2,1.7046542E2,1.6548895E2],"tree_param":{"num_deleted":"0","num_feature":"61","num_nodes":"7","size_leaf_vector":"0"}},{"base_weights":[1.06632315E-1,-3.8396288E-2,3.456158E-1,1.70563E-1,-2.0537418E-1,5.374694E-1,1.4595169E-1],"categories":[],"categories_nodes":[],"categories_segments":[],"categories_sizes":[],"default_left":[1,1,1,0,0,0,0],"id":7,"left_children":[1,3,5,-1,-1,-1,-1],"loss_changes":[3.0927258E1,1.943409E1,1.2829021E1,0E0,0E0,0E0,0E0],"parents":[2147483647,0,0,1,1,2,2],"right_children":[2,4,6,-1,-1,-1,-1],"split_conditions":[2.5916667E0,2.2207142E1,9.411765E-1,1.70563E-3,-2.0537418E-3,5.374694E-3,1.4595168E-3],"split_indices":[29,58,59,0,0,0,0],"split_type":[0,0,0,0,0,0,0],"sum_hessian":[8.909355E2,5.5498114E2,3.3595438E2,2.4649329E2,3.0848782E2,1.7046542E2,1.6548895E2],"tree_param":{"num_deleted":"0","num_feature":"61","num_nodes":"7","size_leaf_vector":"0"}},{"base_weights":[-1.0557906E-1,3.801397E-2,-3.4221467E-1,-1.6886769E-1,2.0333318E-1,-1.4607684E-1,-5.3408724E-1],"categories":[],"categories_nodes":[],"categories_segments":[],"categories_sizes":[],"default_left":[1,1,1,0,0,0,0],"id":8,"left_children":[1,3,5,-1,-1,-1,-1],"loss_changes":[3.0318642E1,1.904924E1,1.2601467E1,0E0,0E0,0E0,0E0],"parents":[2147483647,0,0,1,1,2,2],"right_children":[2,4,6,-1,-1,-1,-1],"split_conditions":[2.5916667E0,2.2207142E1,7.792857E0,-1.6886769E-3,2.033332E-3,-1.4607684E-3,-5.3408723E-3],"split_indices":[29,58,55,0,0,0,0],"split_type":[0,0,0,0,0,0,0],"sum_hessian":[8.9088715E2,5.5496674E2,3.359204E2,2.4648817E2,3.0847855E2,1.6698486E2,1.6893555E2],"tree_param":{"num_deleted":"0","num_feature":"61","num_nodes":"7","size_leaf_vector":"0"}},{"base_weights":[1.0557901E-1,-3.8014036E-2,3.4221464E-1,1.6886769E-1,-2.033333E-1,1.4607684E-1,5.340872E-1],"categories":[],"categories_nodes":[],"categories_segments":[],"categories_sizes":[],"default_left":[1,1,1,0,0,0,0],"id":9,"left_children":[1,3,5,-1,-1,-1,-1],"loss_changes":[3.031865E1,1.904925E1,1.26014595E1,0E0,0E0,0E0,0E0],"parents":[2147483647,0,0,1,1,2,2],"right_children":[2,4,6,-1,-1,-1,-1],"split_conditions":[2.5916667E0,2.2207142E1,7.792857E0,1.6886769E-3,-2.033333E-3,1.4607684E-3,5.340872E-3],"split_indices":[29,58,55,0,0,0,0],"split_type":[0,0,0,0,0,0,0],"sum_hessian":[8.9088715E2,5.5496674E2,3.359204E2,2.4648817E2,3.0847855E2,1.6698486E2,1.6893556E2],"tree_param":{"num_deleted":"0","num_feature":"61","num_nodes":"7","size_leaf_vector":"0"}},{"base_weights":[-1.045379E-1,3.7635706E-2,-3.388573E-1,-1.6719022E-1,2.0131412E-1,-5.283213E-1,-1.417463E-1],"categories":[],"categories_nodes":[],"categories_segments":[],"categories_sizes":[],"default_left":[1,1,1,0,0,0,0],"id":10,"left_children":[1,3,5,-1,-1,-1,-1],"loss_changes":[2.972304E1,1.8672157E1,1.2505905E1,0E0,0E0,0E0,0E0],"parents":[2147483647,0,0,1,1,2,2],"right_children":[2,4,6,-1,-1,-1,-1],"split_conditions":[2.5916667E0,2.2207142E1,9.411765E-1,-1.6719023E-3,2.013141E-3,-5.283213E-3,-1.417463E-3],"split_indices":[29,58,59,0,0,0,0],"split_type":[0,0,0,0,0,0,0],"sum_hessian":[8.9082495E2,5.5494855E2,3.358764E2,2.4648172E2,3.084668E2,1.7040346E2,1.6547295E2],"tree_param":{"num_deleted":"0","num_feature":"61","num_nodes":"7","size_leaf_vector":"0"}},{"base_weights":[1.0453789E-1,-3.7635725E-2,3.3885726E-1,1.671902E-1,-2.0131412E-1,5.283213E-1,1.4174627E-1],"categories":[],"categories_nodes":[],"categories_segments":[],"categories_sizes":[],"default_left":[1,1,1,0,0,0,0],"id":11,"left_children":[1,3,5,-1,-1,-1,-1],"loss_changes":[2.9723038E1,1.8672155E1,1.2505913E1,0E0,0E0,0E0,0E0],"parents":[2147483647,0,0,1,1,2,2],"right_children":[2,4,6,-1,-1,-1,-1],"split_conditions":[2.5916667E0,2.2207142E1,9.411765E-1,1.6719019E-3,-2.013141E-3,5.283213E-3,1.4174626E-3],"split_indices":[29,58,59,0,0,0,0],"split_type":[0,0,0,0,0,0,0],"sum_hessian":[8.908249E2,5.5494855E2,3.358764E2,2.464817E2,3.084668E2,1.7040346E2,1.6547295E2],"tree_param":{"num_deleted":"0","num_feature":"61","num_nodes":"7","size_leaf_vector":"0"}},{"base_weights":[-1.03508376E-1,3.7261445E-2,-3.3554086E-1,-1.6553037E-1,1.9931668E-1,-1.418969E-1,-5.250537E-1],"categories":[],"categories_nodes":[],"categories_segments":[],"categories_sizes":[],"default_left":[1,1,1,0,0,0,0],"id":12,"left_children":[1,3,5,-1,-1,-1,-1],"loss_changes":[2.913992E1,1.8302671E1,1.2286274E1,0E0,0E0,0E0,0E0],"parents":[2147483647,0,0,1,1,2,2],"right_children":[2,4,6,-1,-1,-1,-1],"split_conditions":[2.5916667E0,2.2207142E1,7.792857E0,-1.6553036E-3,1.9931667E-3,-1.418969E-3,-5.250537E-3],"split_indices":[29,58,55,0,0,0,0],"split_type":[0,0,0,0,0,0,0],"sum_hessian":[8.9075085E2,5.549266E2,3.3582428E2,2.4647392E2,3.0845267E2,1.6696669E2,1.688576E2],"tree_param":{"num_deleted":"0","num_feature":"61","num_nodes":"7","size_leaf_vector":"0"}},{"base_weights":[1.0350833E-1,-3.7261497E-2,3.3554083E-1,1.6553025E-1,-1.9931668E-1,1.4189689E-1,5.250536E-1],"categories":[],"categories_nodes":[],"categories_segments":[],"categories_sizes":[],"default_left":[1,1,1,0,0,0,0],"id":13,"left_children":[1,3,5,-1,-1,-1,-1],"loss_changes":[2.9139915E1,1.830266E1,1.2286282E1,0E0,0E0,0E0,0E0],"parents":[2147483647,0,0,1,1,2,2],"right_children":[2,4,6,-1,-1,-1,-1],"split_conditions":[2.5916667E0,2.2207142E1,7.792857E0,1.6553025E-3,-1.9931667E-3,1.4189689E-3,5.250536E-3],"split_indices":[29,58,55,0,0,0,0],"split_type":[0,0,0,0,0,0,0],"sum_hessian":[8.9075085E2,5.549266E2,3.3582428E2,2.4647392E2,3.0845267E2,1.6696669E2,1.6885759E2],"tree_param":{"num_deleted":"0","num_feature":"61","num_nodes":"7","size_leaf_vector":"0"}},{"base_weights":[-1.0249054E-1,3.6891177E-2,-3.3226648E-1,-1.638877E-1,1.9734047E-1,-5.1942426E-1,-1.376459E-1],"categories":[],"categories_nodes":[],"categories_segments":[],"categories_sizes":[],"default_left":[1,1,1,0,0,0,0],"id":14,"left_children":[1,3,5,-1,-1,-1,-1],"loss_changes":[2.8569185E1,1.79406E1,1.21950035E1,0E0,0E0,0E0,0E0],"parents":[2147483647,0,0,1,1,2,2],"right_children":[2,4,6,-1,-1,-1,-1],"split_conditions":[2.5916667E0,2.2207142E1,9.411765E-1,-1.6388769E-3,1.9734048E-3,-5.1942426E-3,-1.376459E-3],"split_indices":[29,58,59,0,0,0,0],"split_type":[0,0,0,0,0,0,0],"sum_hessian":[8.9066376E2,5.549011E2,3.3576263E2,2.4646487E2,3.0843622E2,1.7031221E2,1.6545044E2],"tree_param":{"num_deleted":"0","num_feature":"61","num_nodes":"7","size_leaf_vector":"0"}},{"base_weights":[1.0249056E-1,-3.689114E-2,3.322665E-1,1.6388778E-1,-1.9734047E-1,5.1942426E-1,1.3764593E-1],"categories":[],"categories_nodes":[],"categories_segments":[],"categories_sizes":[],"default_left":[1,1,1,0,0,0,0],"id":15,"left_children":[1,3,5,-1,-1,-1,-1],"loss_changes":[2.8569183E1,1.7940607E1,1.2194996E1,0E0,0E0,0E0,0E0],"parents":[2147483647,0,0,1,1,2,2],"right_children":[2,4,6,-1,-1,-1,-1],"split_conditions":[2.5916667E0,2.2207142E1,9.411765E-1,1.6388778E-3,-1.9734048E-3,5.1942426E-3,1.3764593E-3],"split_indices":[29,58,59,0,0,0,0],"split_type":[0,0,0,0,0,0,0],"sum_hessian":[8.906637E2,5.5490106E2,3.3576263E2,2.4646486E2,3.0843622E2,1.7031221E2,1.6545044E2],"tree_param":{"num_deleted":"0","num_feature":"61","num_nodes":"7","size_leaf_vector":"0"}},{"base_weights":[-1.0148399E-1,3.6524788E-2,-3.290315E-1,-1.6226228E-1,1.9538535E-1,-1.3782102E-1,-5.162657E-1],"categories":[],"categories_nodes":[],"categories_segments":[],"categories_sizes":[],"default_left":[1,1,1,0,0,0,0],"id":16,"left_children":[1,3,5,-1,-1,-1,-1],"loss_changes":[2.801034E1,1.7585821E1,1.1982857E1,0E0,0E0,0E0,0E0],"parents":[2147483647,0,0,1,1,2,2],"right_children":[2,4,6,-1,-1,-1,-1],"split_conditions":[2.5916667E0,2.2207142E1,7.792857E0,-1.6226227E-3,1.9538535E-3,-1.3782101E-3,-5.162657E-3],"split_indices":[29,58,55,0,0,0,0],"split_type":[0,0,0,0,0,0,0],"sum_hessian":[8.905654E2,5.548721E2,3.356934E2,2.4645454E2,3.084175E2,1.6694206E2,1.6875133E2],"tree_param":{"num_deleted":"0","num_feature":"61","num_nodes":"7","size_leaf_vector":"0"}},{"base_weights":[1.0148398E-1,-3.6524788E-2,3.2903147E-1,1.6226228E-1,-1.9538535E-1,1.3782097E-1,5.162657E-1],"categories":[],"categories_nodes":[],"categories_segments":[],"categories_sizes":[],"default_left":[1,1,1,0,0,0,0],"id":17,"left_children":[1,3,5,-1,-1,-1,-1],"loss_changes":[2.8010334E1,1.7585821E1,1.1982857E1,0E0,0E0,0E0,0E0],"parents":[2147483647,0,0,1,1,2,2],"right_children":[2,4,6,-1,-1,-1,-1],"split_conditions":[2.5916667E0,2.2207142E1,7.792857E0,1.6226227E-3,-1.9538535E-3,1.3782097E-3,5.162657E-3],"split_indices":[29,58,55,0,0,0,0],"split_type":[0,0,0,0,0,0,0],"sum_hessian":[8.905654E2,5.548721E2,3.356934E2,2.4645454E2,3.084175E2,1.6694206E2,1.6875133E2],"tree_param":{"num_deleted":"0","num_feature":"61","num_nodes":"7","size_leaf_vector":"0"}},{"base_weights":[-1.0048876E-1,3.6162272E-2,-3.2583687E-1,-1.6065371E-1,1.9345094E-1,-5.107663E-1,-1.3364746E-1],"categories":[],"categories_nodes":[],"categories_segments":[],"categories_sizes":[],"default_left":[1,1,1,0,0,0,0],"id":18,"left_children":[1,3,5,-1,-1,-1,-1],"loss_changes":[2.7463287E1,1.7238167E1,1.1895538E1,0E0,0E0,0E0,0E0],"parents":[2147483647,0,0,1,1,2,2],"right_children":[2,4,6,-1,-1,-1,-1],"split_conditions":[2.5916667E0,2.2207142E1,9.411765E-1,-1.606537E-3,1.9345094E-3,-5.107663E-3,-1.3364746E-3],"split_indices":[29,58,59,0,0,0,0],"split_type":[0,0,0,0,0,0,0],"sum_hessian":[8.9045483E2,5.548397E2,3.356151E2,2.4644305E2,3.0839664E2,1.7019327E2,1.6542186E2],"tree_param":{"num_deleted":"0","num_feature":"61","num_nodes":"7","size_leaf_vector":"0"}},{"base_weights":[1.0048877E-1,-3.6162287E-2,3.258369E-1,1.606537E-1,-1.9345094E-1,5.107663E-1,1.3364755E-1],"categories":[],"categories_nodes":[],"categories_segments":[],"categories_sizes":[],"default_left":[1,1,1,0,0,0,0],"id":19,"left_children":[1,3,5,-1,-1,-1,-1],"loss_changes":[2.7463299E1,1.7238163E1,1.1895531E1,0E0,0E0,0E0,0E0],"parents":[2147483647,0,0,1,1,2,2],"right_children":[2,4,6,-1,-1,-1,-1],"split_conditions":[2.5916667E0,2.2207142E1,9.411765E-1,1.6065369E-3,-1.9345094E-3,5.107663E-3,1.3364755E-3],"split_indices":[29,58,59,0,0,0,0],"split_type":[0,0,0,0,0,0,0],"sum_hessian":[8.904548E2,5.5483966E2,3.356151E2,2.4644304E2,3.0839664E2,1.7019327E2,1.6542186E2],"tree_param":{"num_deleted":"0","num_feature":"61","num_nodes":"7","size_leaf_vector":"0"}},{"base_weights":[-9.950448E-2,3.5803556E-2,-3.2268012E-1,-1.5906185E-1,1.9153698E-1,-1.3384596E-1,-5.0771165E-1],"categories":[],"categories_nodes":[],"categories_segments":[],"categories_sizes":[],"default_left":[1,1,1,0,0,0,0],"id":20,"left_children":[1,3,5,-1,-1,-1,-1],"loss_changes":[2.6927565E1,1.6897482E1,1.1690491E1,0E0,0E0,0E0,0E0],"parents":[2147483647,0,0,1,1,2,2],"right_children":[2,4,6,-1,-1,-1,-1],"split_conditions":[2.5916667E0,2.2207142E1,7.792857E0,-1.5906184E-3,1.9153698E-3,-1.3384596E-3,-5.077116E-3],"split_indices":[29,58,55,0,0,0,0],"split_type":[0,0,0,0,0,0,0],"sum_hessian":[8.9033374E2,5.54804E2,3.3552972E2,2.4643036E2,3.0837363E2,1.6691142E2,1.686183E2],"tree_param":{"num_deleted":"0","num_feature":"61","num_nodes":"7","size_leaf_vector":"0"}},{"base_weights":[9.950446E-2,-3.5803556E-2,3.226801E-1,1.5906185E-1,-1.9153698E-1,1.3384598E-1,5.077116E-1],"categories":[],"categories_nodes":[],"categories_segments":[],"categories_sizes":[],"default_left":[1,1,1,0,0,0,0],"id":21,"left_children":[1,3,5,-1,-1,-1,-1],"loss_changes":[2.6927563E1,1.6897482E1,1.1690479E1,0E0,0E0,0E0,0E0],"parents":[2147483647,0,0,1,1,2,2],"right_children":[2,4,6,-1,-1,-1,-1],"split_conditions":[2.5916667E0,2.2207142E1,7.792857E0,1.5906184E-3,-1.9153698E-3,1.3384598E-3,5.0771157E-3],"split_indices":[29,58,55,0,0,0,0],"split_type":[0,0,0,0,0,0,0],"sum_hessian":[8.9033374E2,5.54804E2,3.3552972E2,2.4643036E2,3.0837363E2,1.6691142E2,1.686183E2],"tree_param":{"num_deleted":"0","num_feature":"61","num_nodes":"7","size_leaf_vector":"0"}},{"base_weights":[-9.853116E-2,3.544861E-2,-3.195622E-1,-1.5748648E-1,1.8964322E-1,-5.023363E-1,-1.297479E-1],"categories":[],"categories_nodes":[],"categories_segments":[],"categories_sizes":[],"default_left":[1,1,1,0,0,0,0],"id":22,"left_children":[1,3,5,-1,-1,-1,-1],"loss_changes":[2.6403072E1,1.656363E1,1.1606842E1,0E0,0E0,0E0,0E0],"parents":[2147483647,0,0,1,1,2,2],"right_children":[2,4,6,-1,-1,-1,-1],"split_conditions":[2.5916667E0,2.2207142E1,9.411765E-1,-1.5748648E-3,1.8964321E-3,-5.023363E-3,-1.2974789E-3],"split_indices":[29,58,59,0,0,0,0],"split_type":[0,0,0,0,0,0,0],"sum_hessian":[8.90201E2,5.547652E2,3.3543582E2,2.4641656E2,3.083486E2,1.7004819E2,1.6538765E2],"tree_param":{"num_deleted":"0","num_feature":"61","num_nodes":"7","size_leaf_vector":"0"}},{"base_weights":[9.853117E-2,-3.544856E-2,3.1956214E-1,1.574866E-1,-1.8964322E-1,5.0233626E-1,1.297479E-1],"categories":[],"categories_nodes":[],"categories_segments":[],"categories_sizes":[],"default_left":[1,1,1,0,0,0,0],"id":23,"left_children":[1,3,5,-1,-1,-1,-1],"loss_changes":[2.6403057E1,1.6563643E1,1.1606838E1,0E0,0E0,0E0,0E0],"parents":[2147483647,0,0,1,1,2,2],"right_children":[2,4,6,-1,-1,-1,-1],"split_conditions":[2.5916667E0,2.2207142E1,9.411765E-1,1.574866E-3,-1.8964321E-3,5.0233626E-3,1.2974789E-3],"split_indices":[29,58,59,0,0,0,0],"split_type":[0,0,0,0,0,0,0],"sum_hessian":[8.90201E2,5.547652E2,3.3543585E2,2.4641656E2,3.083486E2,1.7004819E2,1.6538765E2],"tree_param":{"num_deleted":"0","num_feature":"61","num_nodes":"7","size_leaf_vector":"0"}},{"base_weights":[-9.756842E-2,3.5097368E-2,-3.1648064E-1,-1.5592742E-1,1.877694E-1,-1.2996878E-1,-4.9938062E-1],"categories":[],"categories_nodes":[],"categories_segments":[],"categories_sizes":[],"default_left":[1,1,1,0,0,0,0],"id":24,"left_children":[1,3,5,-1,-1,-1,-1],"loss_changes":[2.5889374E1,1.6236471E1,1.14085045E1,0E0,0E0,0E0,0E0],"parents":[2147483647,0,0,1,1,2,2],"right_children":[2,4,6,-1,-1,-1,-1],"split_conditions":[2.5916667E0,2.2207142E1,7.792857E0,-1.5592742E-3,1.8776939E-3,-1.2996878E-3,-4.993806E-3],"split_indices":[29,58,55,0,0,0,0],"split_type":[0,0,0,0,0,0,0],"sum_hessian":[8.900585E2,5.5472327E2,3.3533524E2,2.4640166E2,3.083216E2,1.668752E2,1.6846004E2],"tree_param":{"num_deleted":"0","num_feature":"61","num_nodes":"7","size_leaf_vector":"0"}},{"base_weights":[9.7568415E-2,-3.5097368E-2,3.164806E-1,1.5592742E-1,-1.877694E-1,1.2996878E-1,4.9938056E-1],"categories":[],"categories_nodes":[],"categories_segments":[],"categories_sizes":[],"default_left":[1,1,1,0,0,0,0],"id":25,"left_children":[1,3,5,-1,-1,-1,-1],"loss_changes":[2.588937E1,1.6236471E1,1.1408501E1,0E0,0E0,0E0,0E0],"parents":[2147483647,0,0,1,1,2,2],"right_children":[2,4,6,-1,-1,-1,-1],"split_conditions":[2.5916667E0,2.2207142E1,7.792857E0,1.5592742E-3,-1.8776939E-3,1.2996878E-3,4.9938057E-3],"split_indices":[29,58,55,0,0,0,0],"split_type":[0,0,0,0,0,0,0],"sum_hessian":[8.900585E2,5.5472327E2,3.3533527E2,2.4640166E2,3.083216E2,1.668752E2,1.6846005E2],"tree_param":{"num_deleted":"0","num_feature":"61","num_nodes":"7","size_leaf_vector":"0"}},{"base_weights":[-9.6616335E-2,3.4749813E-2,-3.134365E-1,-1.5438448E-1,1.8591529E-1,-4.9412367E-1,-1.2594436E-1],"categories":[],"categories_nodes":[],"categories_segments":[],"categories_sizes":[],"default_left":[1,1,1,0,0,0,0],"id":26,"left_children":[1,3,5,-1,-1,-1,-1],"loss_changes":[2.538639E1,1.5915867E1,1.1328255E1,0E0,0E0,0E0,0E0],"parents":[2147483647,0,0,1,1,2,2],"right_children":[2,4,6,-1,-1,-1,-1],"split_conditions":[2.5916667E0,2.2207142E1,9.411765E-1,-1.5438447E-3,1.8591529E-3,-4.9412367E-3,-1.2594436E-3],"split_indices":[29,58,59,0,0,0,0],"split_type":[0,0,0,0,0,0,0],"sum_hessian":[8.89905E2,5.5467834E2,3.3522662E2,2.4638571E2,3.0829266E2,1.6987845E2,1.6534819E2],"tree_param":{"num_deleted":"0","num_feature":"61","num_nodes":"7","size_leaf_vector":"0"}},{"base_weights":[9.6616365E-2,-3.474978E-2,3.134365E-1,1.5438451E-1,-1.8591528E-1,4.941237E-1,1.2594433E-1],"categories":[],"categories_nodes":[],"categories_segments":[],"categories_sizes":[],"default_left":[1,1,1,0,0,0,0],"id":27,"left_children":[1,3,5,-1,-1,-1,-1],"loss_changes":[2.5386387E1,1.5915868E1,1.1328262E1,0E0,0E0,0E0,0E0],"parents":[2147483647,0,0,1,1,2,2],"right_children":[2,4,6,-1,-1,-1,-1],"split_conditions":[2.5916667E0,2.2207142E1,9.411765E-1,1.543845E-3,-1.8591527E-3,4.9412367E-3,1.2594432E-3],"split_indices":[29,58,59,0,0,0,0],"split_type":[0,0,0,0,0,0,0],"sum_hessian":[8.89905E2,5.5467834E2,3.3522665E2,2.4638573E2,3.0829263E2,1.6987845E2,1.6534819E2],"tree_param":{"num_deleted":"0","num_feature":"61","num_nodes":"7","size_leaf_vector":"0"}},{"base_weights":[-9.567456E-2,3.44058E-2,-3.104274E-1,-1.5285748E-1,1.840805E-1,-1.2618665E-1,-4.912625E-1],"categories":[],"categories_nodes":[],"categories_segments":[],"categories_sizes":[],"default_left":[1,1,1,0,0,0,0],"id":28,"left_children":[1,3,5,-1,-1,-1,-1],"loss_changes":[2.4893684E1,1.5601672E1,1.1136307E1,0E0,0E0,0E0,0E0],"parents":[2147483647,0,0,1,1,2,2],"right_children":[2,4,6,-1,-1,-1,-1],"split_conditions":[2.5916667E0,2.2207142E1,7.792857E0,-1.5285747E-3,1.8408049E-3,-1.2618665E-3,-4.912625E-3],"split_indices":[29,58,55,0,0,0,0],"split_type":[0,0,0,0,0,0,0],"sum_hessian":[8.897424E2,5.546306E2,3.3511176E2,2.4636874E2,3.0826187E2,1.6683379E2,1.6827798E2],"tree_param":{"num_deleted":"0","num_feature":"61","num_nodes":"7","size_leaf_vector":"0"}},{"base_weights":[9.567453E-2,-3.4405854E-2,3.1042743E-1,1.5285736E-1,-1.840805E-1,1.2618668E-1,4.9126247E-1],"categories":[],"categories_nodes":[],"categories_segments":[],"categories_sizes":[],"default_left":[1,1,1,0,0,0,0],"id":29,"left_children":[1,3,5,-1,-1,-1,-1],"loss_changes":[2.4893692E1,1.5601661E1,1.1136307E1,0E0,0E0,0E0,0E0],"parents":[2147483647,0,0,1,1,2,2],"right_children":[2,4,6,-1,-1,-1,-1],"split_conditions":[2.5916667E0,2.2207142E1,7.792857E0,1.5285736E-3,-1.8408049E-3,1.2618668E-3,4.9126246E-3],"split_indices":[29,58,55,0,0,0,0],"split_type":[0,0,0,0,0,0,0],"sum_hessian":[8.897424E2,5.546306E2,3.3511176E2,2.4636874E2,3.0826187E2,1.6683379E2,1.6827798E2],"tree_param":{"num_deleted":"0","num_feature":"61","num_nodes":"7","size_leaf_vector":"0"}},{"base_weights":[-9.4743066E-2,3.4065474E-2,-3.0745435E-1,-1.5134604E-1,1.8226494E-1,-4.8611867E-1,-1.2223402E-1],"categories":[],"categories_nodes":[],"categories_segments":[],"categories_sizes":[],"default_left":[1,1,1,0,0,0,0],"id":30,"left_children":[1,3,5,-1,-1,-1,-1],"loss_changes":[2.441121E1,1.5293752E1,1.1059227E1,0E0,0E0,0E0,0E0],"parents":[2147483647,0,0,1,1,2,2],"right_children":[2,4,6,-1,-1,-1,-1],"split_conditions":[2.5916667E0,2.2207142E1,9.411765E-1,-1.5134604E-3,1.8226494E-3,-4.8611867E-3,-1.2223402E-3],"split_indices":[29,58,59,0,0,0,0],"split_type":[0,0,0,0,0,0,0],"sum_hessian":[8.8956946E2,5.545801E2,3.3498932E2,2.463508E2,3.082293E2,1.6968546E2,1.6530388E2],"tree_param":{"num_deleted":"0","num_feature":"61","num_nodes":"7","size_leaf_vector":"0"}},{"base_weights":[9.474312E-2,-3.40654E-2,3.0745435E-1,1.5134616E-1,-1.8226492E-1,4.861187E-1,1.2223402E-1],"categories":[],"categories_nodes":[],"categories_segments":[],"categories_sizes":[],"default_left":[1,1,1,0,0,0,0],"id":31,"left_children":[1,3,5,-1,-1,-1,-1],"loss_changes":[2.4411201E1,1.5293761E1,1.1059225E1,0E0,0E0,0E0,0E0],"parents":[2147483647,0,0,1,1,2,2],"right_children":[2,4,6,-1,-1,-1,-1],"split_conditions":[2.5916667E0,2.2207142E1,9.411765E-1,1.5134616E-3,-1.8226492E-3,4.8611867E-3,1.2223402E-3],"split_indices":[29,58,59,0,0,0,0],"split_type":[0,0,0,0,0,0,0],"sum_hessian":[8.895694E2,5.545801E2,3.3498932E2,2.463508E2,3.0822928E2,1.6968546E2,1.6530388E2],"tree_param":{"num_deleted":"0","num_feature":"61","num_nodes":"7","size_leaf_vector":"0"}},{"base_weights":[-9.38216E-2,3.372855E-2,-3.0451503E-1,-1.498503E-1,1.8046822E-1,-1.6492726E-1,-5.392741E-1],"categories":[],"categories_nodes":[],"categories_segments":[],"categories_sizes":[],"default_left":[1,1,1,0,0,0,0],"id":32,"left_children":[1,3,5,-1,-1,-1,-1],"loss_changes":[2.3938538E1,1.4991992E1,1.0917053E1,0E0,0E0,0E0,0E0],"parents":[2147483647,0,0,1,1,2,2],"right_children":[2,4,6,-1,-1,-1,-1],"split_conditions":[2.5916667E0,2.2207142E1,8.069048E0,-1.4985029E-3,1.8046821E-3,-1.6492725E-3,-5.392741E-3],"split_indices":[29,58,55,0,0,0,0],"split_type":[0,0,0,0,0,0,0],"sum_hessian":[8.893879E2,5.5452686E2,3.3486102E2,2.463319E2,3.08195E2,2.1106453E2,1.23796486E2],"tree_param":{"num_deleted":"0","num_feature":"61","num_nodes":"7","size_leaf_vector":"0"}},{"base_weights":[9.382157E-2,-3.3728614E-2,3.0451506E-1,1.498503E-1,-1.8046834E-1,1.6492729E-1,5.392741E-1],"categories":[],"categories_nodes":[],"categories_segments":[],"categories_sizes":[],"default_left":[1,1,1,0,0,0,0],"id":33,"left_children":[1,3,5,-1,-1,-1,-1],"loss_changes":[2.3938553E1,1.49920025E1,1.0917055E1,0E0,0E0,0E0,0E0],"parents":[2147483647,0,0,1,1,2,2],"right_children":[2,4,6,-1,-1,-1,-1],"split_conditions":[2.5916667E0,2.2207142E1,8.069048E0,1.4985029E-3,-1.8046834E-3,1.6492729E-3,5.392741E-3],"split_indices":[29,58,55,0,0,0,0],"split_type":[0,0,0,0,0,0,0],"sum_hessian":[8.893879E2,5.5452686E2,3.3486102E2,2.463319E2,3.08195E2,2.1106453E2,1.2379649E2],"tree_param":{"num_deleted":"0","num_feature":"61","num_nodes":"7","size_leaf_vector":"0"}},{"base_weights":[-9.291069E-2,3.3395264E-2,-3.016092E-1,-1.483698E-1,1.7869037E-1,-4.7833005E-1,-1.1859389E-1],"categories":[],"categories_nodes":[],"categories_segments":[],"categories_sizes":[],"default_left":[1,1,1,0,0,0,0],"id":34,"left_children":[1,3,5,-1,-1,-1,-1],"loss_changes":[2.3475655E1,1.4696267E1,1.0801668E1,0E0,0E0,0E0,0E0],"parents":[2147483647,0,0,1,1,2,2],"right_children":[2,4,6,-1,-1,-1,-1],"split_conditions":[2.5916667E0,2.2207142E1,9.411765E-1,-1.483698E-3,1.7869037E-3,-4.7833E-3,-1.1859388E-3],"split_indices":[29,58,59,0,0,0,0],"split_type":[0,0,0,0,0,0,0],"sum_hessian":[8.8920135E2,5.5447107E2,3.3473026E2,2.4631206E2,3.0815903E2,1.6947266E2,1.652576E2],"tree_param":{"num_deleted":"0","num_feature":"61","num_nodes":"7","size_leaf_vector":"0"}},{"base_weights":[9.2910685E-2,-3.339528E-2,3.016092E-1,1.4836971E-1,-1.7869034E-1,4.7833002E-1,1.18593924E-1],"categories":[],"categories_nodes":[],"categories_segments":[],"categories_sizes":[],"default_left":[1,1,1,0,0,0,0],"id":35,"left_children":[1,3,5,-1,-1,-1,-1],"loss_changes":[2.3475658E1,1.4696257E1,1.0801664E1,0E0,0E0,0E0,0E0],"parents":[2147483647,0,0,1,1,2,2],"right_children":[2,4,6,-1,-1,-1,-1],"split_conditions":[2.5916667E0,2.2207142E1,9.411765E-1,1.4836971E-3,-1.7869034E-3,4.7833E-3,1.1859392E-3],"split_indices":[29,58,59,0,0,0,0],"split_type":[0,0,0,0,0,0,0],"sum_hessian":[8.892013E2,5.5447107E2,3.3473022E2,2.4631207E2,3.0815903E2,1.6947264E2,1.652576E2],"tree_param":{"num_deleted":"0","num_feature":"61","num_nodes":"7","size_leaf_vector":"0"}},{"base_weights":[-9.20089E-2,3.3065297E-2,-2.9873714E-1,-1.2950832E-1,1.9323353E-1,-1.6078001E-1,-5.310134E-1],"categories":[],"categories_nodes":[],"categories_segments":[],"categories_sizes":[],"default_left":[1,1,1,0,0,0,0],"id":36,"left_children":[1,3,5,-1,-1,-1,-1],"loss_changes":[2.3022102E1,1.448749E1,1.0668303E1,0E0,0E0,0E0,0E0],"parents":[2147483647,0,0,1,1,2,2],"right_children":[2,4,6,-1,-1,-1,-1],"split_conditions":[2.5916667E0,2.0343138E1,8.069048E0,-1.2950831E-3,1.9323353E-3,-1.6078001E-3,-5.310134E-3],"split_indices":[29,53,55,0,0,0,0],"split_type":[0,0,0,0,0,0,0],"sum_hessian":[8.8900214E2,5.544127E2,3.3458936E2,2.7523538E2,2.7917737E2,2.1097565E2,1.2361372E2],"tree_param":{"num_deleted":"0","num_feature":"61","num_nodes":"7","size_leaf_vector":"0"}},{"base_weights":[9.200887E-2,-3.3065382E-2,2.9873717E-1,1.2950823E-1,-1.9323362E-1,1.6078006E-1,5.310134E-1],"categories":[],"categories_nodes":[],"categories_segments":[],"categories_sizes":[],"default_left":[1,1,1,0,0,0,0],"id":37,"left_children":[1,3,5,-1,-1,-1,-1],"loss_changes":[2.3022118E1,1.4487491E1,1.0668304E1,0E0,0E0,0E0,0E0],"parents":[2147483647,0,0,1,1,2,2],"right_children":[2,4,6,-1,-1,-1,-1],"split_conditions":[2.5916667E0,2.0343138E1,8.069048E0,1.2950823E-3,-1.9323363E-3,1.6078005E-3,5.310134E-3],"split_indices":[29,53,55,0,0,0,0],"split_type":[0,0,0,0,0,0,0],"sum_hessian":[8.8900214E2,5.544127E2,3.3458936E2,2.7523538E2,2.7917737E2,2.1097565E2,1.2361372E2],"tree_param":{"num_deleted":"0","num_feature":"61","num_nodes":"7","size_leaf_vector":"0"}},{"base_weights":[-9.111419E-2,3.2737844E-2,-2.9589742E-1,-1.4631765E-1,1.7587887E-1,-4.707309E-1,-1.1504244E-1],"categories":[],"categories_nodes":[],"categories_segments":[],"categories_sizes":[],"default_left":[1,1,1,0,0,0,0],"id":38,"left_children":[1,3,5,-1,-1,-1,-1],"loss_changes":[2.2578184E1,1.4260218E1,1.0552496E1,0E0,0E0,0E0,0E0],"parents":[2147483647,0,0,1,1,2,2],"right_children":[2,4,6,-1,-1,-1,-1],"split_conditions":[2.5916667E0,2.2207142E1,9.411765E-1,-1.4631764E-3,1.7587886E-3,-4.707309E-3,-1.1504244E-3],"split_indices":[29,58,59,0,0,0,0],"split_type":[0,0,0,0,0,0,0],"sum_hessian":[8.8882605E2,5.5437964E2,3.3444638E2,2.462823E2,3.0809738E2,1.6923915E2,1.6520723E2],"tree_param":{"num_deleted":"0","num_feature":"61","num_nodes":"7","size_leaf_vector":"0"}},{"base_weights":[9.1114216E-2,-3.273783E-2,2.9589745E-1,1.4631765E-1,-1.7587885E-1,4.7073093E-1,1.1504252E-1],"categories":[],"categories_nodes":[],"categories_segments":[],"categories_sizes":[],"default_left":[1,1,1,0,0,0,0],"id":39,"left_children":[1,3,5,-1,-1,-1,-1],"loss_changes":[2.257819E1,1.4260216E1,1.055249E1,0E0,0E0,0E0,0E0],"parents":[2147483647,0,0,1,1,2,2],"right_children":[2,4,6,-1,-1,-1,-1],"split_conditions":[2.5916667E0,2.2207142E1,9.411765E-1,1.4631764E-3,-1.7587885E-3,4.7073094E-3,1.1504252E-3],"split_indices":[29,58,59,0,0,0,0],"split_type":[0,0,0,0,0,0,0],"sum_hessian":[8.8882605E2,5.543797E2,3.3444638E2,2.462823E2,3.0809738E2,1.6923915E2,1.6520723E2],"tree_param":{"num_deleted":"0","num_feature":"61","num_nodes":"7","size_leaf_vector":"0"}},{"base_weights":[-9.023143E-2,2.81128E-1,-1.5781534E-1,-1.4256316E-1,3.5659778E-1,-3.2272628E-1,1.2400623E-2],"categories":[],"categories_nodes":[],"categories_segments":[],"categories_sizes":[],"default_left":[1,1,1,0,0,0,0],"id":40,"left_children":[1,3,5,-1,-1,-1,-1],"loss_changes":[2.2371763E1,4.442169E0,2.1148895E1,0E0,0E0,0E0,0E0],"parents":[2147483647,0,0,1,1,2,2],"right_children":[2,4,6,-1,-1,-1,-1],"split_conditions":[-6.784091E0,-8.458334E0,1.5941176E0,-1.4256316E-3,3.5659778E-3,-3.2272628E-3,1.2400623E-4],"split_indices":[29,59,38,0,0,0,0],"split_type":[0,0,0,0,0,0,0],"sum_hessian":[8.886114E2,1.3633261E2,7.5227875E2,2.0478163E1,1.1585445E2,3.8163855E2,3.7064023E2],"tree_param":{"num_deleted":"0","num_feature":"61","num_nodes":"7","size_leaf_vector":"0"}},{"base_weights":[9.0231426E-2,-2.81128E-1,1.5781534E-1,1.4256321E-1,-3.5659778E-1,3.227263E-1,-1.2400658E-2],"categories":[],"categories_nodes":[],"categories_segments":[],"categories_sizes":[],"default_left":[1,1,1,0,0,0,0],"id":41,"left_children":[1,3,5,-1,-1,-1,-1],"loss_changes":[2.2371761E1,4.44217E0,2.1148901E1,0E0,0E0,0E0,0E0],"parents":[2147483647,0,0,1,1,2,2],"right_children":[2,4,6,-1,-1,-1,-1],"split_conditions":[-6.784091E0,-8.458334E0,1.5941176E0,1.425632E-3,-3.5659778E-3,3.227263E-3,-1.2400658E-4],"split_indices":[29,59,38,0,0,0,0],"split_type":[0,0,0,0,0,0,0],"sum_hessian":[8.886114E2,1.3633261E2,7.5227875E2,2.0478163E1,1.1585445E2,3.8163855E2,3.7064023E2],"tree_param":{"num_deleted":"0","num_feature":"61","num_nodes":"7","size_leaf_vector":"0"}},{"base_weights":[-8.9341864E-2,3.292491E-2,-2.9161322E-1,-1.2660125E-1,1.9009665E-1,-1.13650516E-1,-4.6689653E-1],"categories":[],"categories_nodes":[],"categories_segments":[],"categories_sizes":[],"default_left":[1,1,1,0,0,0,0],"id":42,"left_children":[1,3,5,-1,-1,-1,-1],"loss_changes":[2.2007797E1,1.3946739E1,1.0403479E1,0E0,0E0,0E0,0E0],"parents":[2147483647,0,0,1,1,2,2],"right_children":[2,4,6,-1,-1,-1,-1],"split_conditions":[2.5916667E0,2.0343138E1,7.792857E0,-1.2660124E-3,1.9009664E-3,-1.1365052E-3,-4.668965E-3],"split_indices":[29,53,55,0,0,0,0],"split_type":[0,0,0,0,0,0,0],"sum_hessian":[8.884965E2,5.542854E2,3.3421115E2,2.7517886E2,2.791065E2,1.66656E2,1.6755513E2],"tree_param":{"num_deleted":"0","num_feature":"61","num_nodes":"7","size_leaf_vector":"0"}},{"base_weights":[8.934189E-2,-3.2924876E-2,2.9161322E-1,1.266013E-1,-1.9009663E-1,1.1365052E-1,4.6689653E-1],"categories":[],"categories_nodes":[],"categories_segments":[],"categories_sizes":[],"default_left":[1,1,1,0,0,0,0],"id":43,"left_children":[1,3,5,-1,-1,-1,-1],"loss_changes":[2.2007792E1,1.3946743E1,1.0403479E1,0E0,0E0,0E0,0E0],"parents":[2147483647,0,0,1,1,2,2],"right_children":[2,4,6,-1,-1,-1,-1],"split_conditions":[2.5916667E0,2.0343138E1,7.792857E0,1.2660129E-3,-1.9009663E-3,1.1365052E-3,4.668965E-3],"split_indices":[29,53,55,0,0,0,0],"split_type":[0,0,0,0,0,0,0],"sum_hessian":[8.884965E2,5.542854E2,3.3421115E2,2.7517886E2,2.791065E2,1.66656E2,1.6755513E2],"tree_param":{"num_deleted":"0","num_feature":"61","num_nodes":"7","size_leaf_vector":"0"}},{"base_weights":[-8.847445E-2,2.7804482E-1,-1.5519346E-1,-1.4060453E-1,3.526164E-1,-3.179609E-1,1.2740858E-2],"categories":[],"categories_nodes":[],"categories_segments":[],"categories_sizes":[],"default_left":[1,1,1,0,0,0,0],"id":44,"left_children":[1,3,5,-1,-1,-1,-1],"loss_changes":[2.178986E1,4.3363285E0,2.0586374E1,0E0,0E0,0E0,0E0],"parents":[2147483647,0,0,1,1,2,2],"right_children":[2,4,6,-1,-1,-1,-1],"split_conditions":[-6.784091E0,-8.458334E0,1.5941176E0,-1.4060453E-3,3.526164E-3,-3.1796088E-3,1.2740858E-4],"split_indices":[29,59,38,0,0,0,0],"split_type":[0,0,0,0,0,0,0],"sum_hessian":[8.8829755E2,1.3631068E2,7.519869E2,2.0475348E1,1.15835335E2,3.814143E2,3.7057257E2],"tree_param":{"num_deleted":"0","num_feature":"61","num_nodes":"7","size_leaf_vector":"0"}},{"base_weights":[8.8474445E-2,-2.7804482E-1,1.5519345E-1,1.4060459E-1,-3.526164E-1,3.179609E-1,-1.2740856E-2],"categories":[],"categories_nodes":[],"categories_segments":[],"categories_sizes":[],"default_left":[1,1,1,0,0,0,0],"id":45,"left_children":[1,3,5,-1,-1,-1,-1],"loss_changes":[2.1789858E1,4.3363304E0,2.058637E1,0E0,0E0,0E0,0E0],"parents":[2147483647,0,0,1,1,2,2],"right_children":[2,4,6,-1,-1,-1,-1],"split_conditions":[-6.784091E0,-8.458334E0,1.5941176E0,1.4060459E-3,-3.526164E-3,3.1796088E-3,-1.2740855E-4],"split_indices":[29,59,38,0,0,0,0],"split_type":[0,0,0,0,0,0,0],"sum_hessian":[8.8829755E2,1.3631068E2,7.519869E2,2.0475346E1,1.15835335E2,3.8141428E2,3.7057257E2],"tree_param":{"num_deleted":"0","num_feature":"61","num_nodes":"7","size_leaf_vector":"0"}},{"base_weights":[-8.760358E-2,1.3500156E-1,-1.9589102E-1,-7.709854E-2,2.803385E-1,-3.7326938E-1,-3.0340446E-2],"categories":[],"categories_nodes":[],"categories_segments":[],"categories_sizes":[],"default_left":[1,1,1,0,0,0,0],"id":46,"left_children":[1,3,5,-1,-1,-1,-1],"loss_changes":[2.146017E1,9.009861E0,1.7566294E1,0E0,0E0,0E0,0E0],"parents":[2147483647,0,0,1,1,2,2],"right_children":[2,4,6,-1,-1,-1,-1],"split_conditions":[-2.7928572E0,1.7091967E4,2.2845238E1,-7.709854E-4,2.8033848E-3,-3.7326936E-3,-3.0340446E-4],"split_indices":[29,34,58,0,0,0,0],"split_type":[0,0,0,0,0,0,0],"sum_hessian":[8.881692E2,2.9058026E2,5.975889E2,1.18343315E2,1.7223695E2,2.8788318E2,3.0970575E2],"tree_param":{"num_deleted":"0","num_feature":"61","num_nodes":"7","size_leaf_vector":"0"}},{"base_weights":[8.760357E-2,-1.3500156E-1,1.9589101E-1,7.709857E-2,-2.8033853E-1,3.7326935E-1,3.0340422E-2],"categories":[],"categories_nodes":[],"categories_segments":[],"categories_sizes":[],"default_left":[1,1,1,0,0,0,0],"id":47,"left_children":[1,3,5,-1,-1,-1,-1],"loss_changes":[2.146017E1,9.009863E0,1.7566298E1,0E0,0E0,0E0,0E0],"parents":[2147483647,0,0,1,1,2,2],"right_children":[2,4,6,-1,-1,-1,-1],"split_conditions":[-2.7928572E0,1.7091967E4,2.2845238E1,7.709857E-4,-2.8033853E-3,3.7326934E-3,3.034042E-4],"split_indices":[29,34,58,0,0,0,0],"split_type":[0,0,0,0,0,0,0],"sum_hessian":[8.881692E2,2.9058026E2,5.975889E2,1.18343315E2,1.7223695E2,2.8788318E2,3.0970575E2],"tree_param":{"num_deleted":"0","num_feature":"61","num_nodes":"7","size_leaf_vector":"0"}},{"base_weights":[-8.674596E-2,3.334722E-2,-2.8559598E-1,-2.7297652E-1,1.1254296E-1,-4.5715097E-1,-1.085426E-1],"categories":[],"categories_nodes":[],"categories_segments":[],"categories_sizes":[],"default_left":[1,1,1,0,0,0,0],"id":48,"left_children":[1,3,5,-1,-1,-1,-1],"loss_changes":[2.1239464E1,1.3498645E1,1.0121134E1,0E0,0E0,0E0,0E0],"parents":[2147483647,0,0,1,1,2,2],"right_children":[2,4,6,-1,-1,-1,-1],"split_conditions":[2.5916667E0,1.8316666E1,9.411765E-1,-2.7297651E-3,1.1254295E-3,-4.5715095E-3,-1.085426E-3],"split_indices":[29,53,59,0,0,0,0],"split_type":[0,0,0,0,0,0,0],"sum_hessian":[8.880063E2,5.5416E2,3.3384628E2,1.13336235E2,4.4082376E2,1.6875243E2,1.6509384E2],"tree_param":{"num_deleted":"0","num_feature":"61","num_nodes":"7","size_leaf_vector":"0"}},{"base_weights":[8.6745955E-2,-3.3347223E-2,2.8559595E-1,2.7297652E-1,-1.1254296E-1,4.5715094E-1,1.0854262E-1],"categories":[],"categories_nodes":[],"categories_segments":[],"categories_sizes":[],"default_left":[1,1,1,0,0,0,0],"id":49,"left_children":[1,3,5,-1,-1,-1,-1],"loss_changes":[2.1239464E1,1.3498645E1,1.0121122E1,0E0,0E0,0E0,0E0],"parents":[2147483647,0,0,1,1,2,2],"right_children":[2,4,6,-1,-1,-1,-1],"split_conditions":[2.5916667E0,1.8316666E1,9.411765E-1,2.7297651E-3,-1.1254295E-3,4.571509E-3,1.0854262E-3],"split_indices":[29,53,59,0,0,0,0],"split_type":[0,0,0,0,0,0,0],"sum_hessian":[8.880063E2,5.5416E2,3.3384628E2,1.13336235E2,4.4082376E2,1.6875244E2,1.6509384E2],"tree_param":{"num_deleted":"0","num_feature":"61","num_nodes":"7","size_leaf_vector":"0"}},{"base_weights":[-8.590712E-2,2.7389073E-1,-1.5142663E-1,-1.3873301E-1,3.473988E-1,-3.115633E-1,1.3684106E-2],"categories":[],"categories_nodes":[],"categories_segments":[],"categories_sizes":[],"default_left":[1,1,1,0,0,0,0],"id":50,"left_children":[1,3,5,-1,-1,-1,-1],"loss_changes":[2.0993828E1,4.2118855E0,1.990124E1,0E0,0E0,0E0,0E0],"parents":[2147483647,0,0,1,1,2,2],"right_children":[2,4,6,-1,-1,-1,-1],"split_conditions":[-6.784091E0,-8.458334E0,1.5941176E0,-1.3873301E-3,3.4739878E-3,-3.115633E-3,1.3684106E-4],"split_indices":[29,59,38,0,0,0,0],"split_type":[0,0,0,0,0,0,0],"sum_hessian":[8.8779913E2,1.3627423E2,7.515249E2,2.0471874E1,1.1580235E2,3.8105875E2,3.704662E2],"tree_param":{"num_deleted":"0","num_feature":"61","num_nodes":"7","size_leaf_vector":"0"}},{"base_weights":[8.5907124E-2,-2.738907E-1,1.5142663E-1,1.3873304E-1,-3.4739876E-1,3.115633E-1,-1.368411E-2],"categories":[],"categories_nodes":[],"categories_segments":[],"categories_sizes":[],"default_left":[1,1,1,0,0,0,0],"id":51,"left_children":[1,3,5,-1,-1,-1,-1],"loss_changes":[2.0993824E1,4.2118855E0,1.990124E1,0E0,0E0,0E0,0E0],"parents":[2147483647,0,0,1,1,2,2],"right_children":[2,4,6,-1,-1,-1,-1],"split_conditions":[-6.784091E0,-8.458334E0,1.5941176E0,1.3873304E-3,-3.4739876E-3,3.115633E-3,-1.3684109E-4],"split_indices":[29,59,38,0,0,0,0],"split_type":[0,0,0,0,0,0,0],"sum_hessian":[8.8779913E2,1.3627423E2,7.515249E2,2.0471876E1,1.15802345E2,3.8105875E2,3.7046616E2],"tree_param":{"num_deleted":"0","num_feature":"61","num_nodes":"7","size_leaf_vector":"0"}},{"base_weights":[-8.506318E-2,3.3494174E-2,-2.8149906E-1,-1.2162429E-1,1.8631163E-1,-1.4811036E-1,-5.069744E-1],"categories":[],"categories_nodes":[],"categories_segments":[],"categories_sizes":[],"default_left":[1,1,1,0,0,0,0],"id":52,"left_children":[1,3,5,-1,-1,-1,-1],"loss_changes":[2.0705206E1,1.3180613E1,9.987646E0,0E0,0E0,0E0,0E0],"parents":[2147483647,0,0,1,1,2,2],"right_children":[2,4,6,-1,-1,-1,-1],"split_conditions":[2.5916667E0,2.0343138E1,8.069048E0,-1.2162429E-3,1.8631163E-3,-1.4811036E-3,-5.069744E-3],"split_indices":[29,53,55,0,0,0,0],"split_type":[0,0,0,0,0,0,0],"sum_hessian":[8.8765356E2,5.5407526E2,3.3357834E2,2.750688E2,2.7900644E2,2.1062927E2,1.22949066E2],"tree_param":{"num_deleted":"0","num_feature":"61","num_nodes":"7","size_leaf_vector":"0"}},{"base_weights":[8.5063174E-2,-3.3494186E-2,2.8149906E-1,1.21624306E-1,-1.8631168E-1,1.4811037E-1,5.0697434E-1],"categories":[],"categories_nodes":[],"categories_segments":[],"categories_sizes":[],"default_left":[1,1,1,0,0,0,0],"id":53,"left_children":[1,3,5,-1,-1,-1,-1],"loss_changes":[2.0705212E1,1.3180618E1,9.987638E0,0E0,0E0,0E0,0E0],"parents":[2147483647,0,0,1,1,2,2],"right_children":[2,4,6,-1,-1,-1,-1],"split_conditions":[2.5916667E0,2.0343138E1,8.069048E0,1.216243E-3,-1.8631167E-3,1.4811037E-3,5.0697434E-3],"split_indices":[29,53,55,0,0,0,0],"split_type":[0,0,0,0,0,0,0],"sum_hessian":[8.8765356E2,5.5407526E2,3.3357834E2,2.750688E2,2.7900644E2,2.1062927E2,1.22949066E2],"tree_param":{"num_deleted":"0","num_feature":"61","num_nodes":"7","size_leaf_vector":"0"}},{"base_weights":[-8.424047E-2,2.7089256E-1,-1.489251E-1,2.9938228E-3,3.828095E-1,-3.070037E-1,1.3979252E-2],"categories":[],"categories_nodes":[],"categories_segments":[],"categories_sizes":[],"default_left":[1,1,1,0,0,0,0],"id":54,"left_children":[1,3,5,-1,-1,-1,-1],"loss_changes":[2.044912E1,4.11372E0,1.9374474E1,0E0,0E0,0E0,0E0],"parents":[2147483647,0,0,1,1,2,2],"right_children":[2,4,6,-1,-1,-1,-1],"split_conditions":[-6.784091E0,-4.275E0,1.5941176E0,2.9938228E-5,3.8280948E-3,-3.070037E-3,1.3979252E-4],"split_indices":[29,59,38,0,0,0,0],"split_type":[0,0,0,0,0,0,0],"sum_hessian":[8.874333E2,1.3624269E2,7.511906E2,4.0447968E1,9.5794716E1,3.8079318E2,3.7039746E2],"tree_param":{"num_deleted":"0","num_feature":"61","num_nodes":"7","size_leaf_vector":"0"}},{"base_weights":[8.4240474E-2,-2.7089262E-1,1.4892511E-1,-2.99384E-3,-3.8280952E-1,3.0700374E-1,-1.3979234E-2],"categories":[],"categories_nodes":[],"categories_segments":[],"categories_sizes":[],"default_left":[1,1,1,0,0,0,0],"id":55,"left_children":[1,3,5,-1,-1,-1,-1],"loss_changes":[2.0449125E1,4.113721E0,1.9374474E1,0E0,0E0,0E0,0E0],"parents":[2147483647,0,0,1,1,2,2],"right_children":[2,4,6,-1,-1,-1,-1],"split_conditions":[-6.784091E0,-4.275E0,1.5941176E0,-2.99384E-5,-3.828095E-3,3.0700373E-3,-1.3979233E-4],"split_indices":[29,59,38,0,0,0,0],"split_type":[0,0,0,0,0,0,0],"sum_hessian":[8.874333E2,1.3624269E2,7.511906E2,4.0447968E1,9.5794716E1,3.8079318E2,3.7039746E2],"tree_param":{"num_deleted":"0","num_feature":"61","num_nodes":"7","size_leaf_vector":"0"}},{"base_weights":[-8.341211E-2,3.363686E-2,-2.7747473E-1,-2.6671463E-1,1.1126545E-1,-4.4664413E-1,-1.0324462E-1],"categories":[],"categories_nodes":[],"categories_segments":[],"categories_sizes":[],"default_left":[1,1,1,0,0,0,0],"id":56,"left_children":[1,3,5,-1,-1,-1,-1],"loss_changes":[2.018634E1,1.2969337E1,9.807238E0,0E0,0E0,0E0,0E0],"parents":[2147483647,0,0,1,1,2,2],"right_children":[2,4,6,-1,-1,-1,-1],"split_conditions":[2.5916667E0,1.8316666E1,9.411765E-1,-2.6671463E-3,1.1126545E-3,-4.466441E-3,-1.0324462E-3],"split_indices":[29,53,59,0,0,0,0],"split_type":[0,0,0,0,0,0,0],"sum_hessian":[8.8727454E2,5.539725E2,3.333021E2,1.1327321E2,4.4069925E2,1.6831372E2,1.6498839E2],"tree_param":{"num_deleted":"0","num_feature":"61","num_nodes":"7","size_leaf_vector":"0"}},{"base_weights":[8.34121E-2,-3.363686E-2,2.774747E-1,2.6671463E-1,-1.1126545E-1,4.4664413E-1,1.0324457E-1],"categories":[],"categories_nodes":[],"categories_segments":[],"categories_sizes":[],"default_left":[1,1,1,0,0,0,0],"id":57,"left_children":[1,3,5,-1,-1,-1,-1],"loss_changes":[2.0186337E1,1.2969338E1,9.807241E0,0E0,0E0,0E0,0E0],"parents":[2147483647,0,0,1,1,2,2],"right_children":[2,4,6,-1,-1,-1,-1],"split_conditions":[2.5916667E0,1.8316666E1,9.411765E-1,2.6671463E-3,-1.1126545E-3,4.466441E-3,1.0324457E-3],"split_indices":[29,53,59,0,0,0,0],"split_type":[0,0,0,0,0,0,0],"sum_hessian":[8.872746E2,5.539725E2,3.333021E2,1.1327321E2,4.4069925E2,1.6831372E2,1.6498839E2],"tree_param":{"num_deleted":"0","num_feature":"61","num_nodes":"7","size_leaf_vector":"0"}},{"base_weights":[-8.2607396E-2,2.6814032E-1,-1.4650707E-1,-1.360148E-1,3.4015995E-1,-3.0270252E-1,1.4371155E-2],"categories":[],"categories_nodes":[],"categories_segments":[],"categories_sizes":[],"default_left":[1,1,1,0,0,0,0],"id":58,"left_children":[1,3,5,-1,-1,-1,-1],"loss_changes":[1.9942818E1,4.0399647E0,1.8896963E1,0E0,0E0,0E0,0E0],"parents":[2147483647,0,0,1,1,2,2],"right_children":[2,4,6,-1,-1,-1,-1],"split_conditions":[-6.784091E0,-8.458334E0,1.5941176E0,-1.360148E-3,3.4015994E-3,-3.0270251E-3,1.4371154E-4],"split_indices":[29,59,38,0,0,0,0],"split_type":[0,0,0,0,0,0,0],"sum_hessian":[8.870486E2,1.36207E2,7.508416E2,2.0466404E1,1.157406E2,3.80518E2,3.703236E2],"tree_param":{"num_deleted":"0","num_feature":"61","num_nodes":"7","size_leaf_vector":"0"}},{"base_weights":[8.260738E-2,-2.6814035E-1,1.4650705E-1,1.3601485E-1,-3.4015998E-1,3.0270252E-1,-1.4371192E-2],"categories":[],"categories_nodes":[],"categories_segments":[],"categories_sizes":[],"default_left":[1,1,1,0,0,0,0],"id":59,"left_children":[1,3,5,-1,-1,-1,-1],"loss_changes":[1.9942822E1,4.0399666E0,1.8896965E1,0E0,0E0,0E0,0E0],"parents":[2147483647,0,0,1,1,2,2],"right_children":[2,4,6,-1,-1,-1,-1],"split_conditions":[-6.784091E0,-8.458334E0,1.5941176E0,1.3601484E-3,-3.4015998E-3,3.0270251E-3,-1.4371192E-4],"split_indices":[29,59,38,0,0,0,0],"split_type":[0,0,0,0,0,0,0],"sum_hessian":[8.8704865E2,1.36207E2,7.508416E2,2.0466402E1,1.157406E2,3.8051804E2,3.703236E2],"tree_param":{"num_deleted":"0","num_feature":"61","num_nodes":"7","size_leaf_vector":"0"}},{"base_weights":[-8.179795E-2,3.3759598E-2,-2.7352127E-1,-2.629843E-1,1.1043606E-1,-1.02078E-1,-4.431665E-1],"categories":[],"categories_nodes":[],"categories_segments":[],"categories_sizes":[],"default_left":[1,1,1,0,0,0,0],"id":60,"left_children":[1,3,5,-1,-1,-1,-1],"loss_changes":[1.968029E1,1.2654149E1,9.6693E0,0E0,0E0,0E0,0E0],"parents":[2147483647,0,0,1,1,2,2],"right_children":[2,4,6,-1,-1,-1,-1],"split_conditions":[2.5916667E0,1.8316666E1,7.792857E0,-2.629843E-3,1.1043606E-3,-1.02078E-3,-4.431665E-3],"split_indices":[29,53,55,0,0,0,0],"split_type":[0,0,0,0,0,0,0],"sum_hessian":[8.868804E2,5.538699E2,3.330105E2,1.13230225E2,4.4063962E2,1.6642416E2,1.6658635E2],"tree_param":{"num_deleted":"0","num_feature":"61","num_nodes":"7","size_leaf_vector":"0"}},{"base_weights":[8.179797E-2,-3.375959E-2,2.735213E-1,2.629843E-1,-1.1043605E-1,1.02078065E-1,4.4316652E-1],"categories":[],"categories_nodes":[],"categories_segments":[],"categories_sizes":[],"default_left":[1,1,1,0,0,0,0],"id":61,"left_children":[1,3,5,-1,-1,-1,-1],"loss_changes":[1.9680296E1,1.2654148E1,9.669302E0,0E0,0E0,0E0,0E0],"parents":[2147483647,0,0,1,1,2,2],"right_children":[2,4,6,-1,-1,-1,-1],"split_conditions":[2.5916667E0,1.8316666E1,7.792857E0,2.629843E-3,-1.1043604E-3,1.0207806E-3,4.431665E-3],"split_indices":[29,53,55,0,0,0,0],"split_type":[0,0,0,0,0,0,0],"sum_hessian":[8.868804E2,5.538698E2,3.330105E2,1.13230225E2,4.4063962E2,1.6642416E2,1.6658633E2],"tree_param":{"num_deleted":"0","num_feature":"61","num_nodes":"7","size_leaf_vector":"0"}},{"base_weights":[-8.100977E-2,1.3106409E-1,-1.8433318E-1,-7.5080305E-2,2.7234513E-1,-3.5514498E-1,-2.5328128E-2],"categories":[],"categories_nodes":[],"categories_segments":[],"categories_sizes":[],"default_left":[1,1,1,0,0,0,0],"id":62,"left_children":[1,3,5,-1,-1,-1,-1],"loss_changes":[1.947441E1,8.506536E0,1.6212826E1,0E0,0E0,0E0,0E0],"parents":[2147483647,0,0,1,1,2,2],"right_children":[2,4,6,-1,-1,-1,-1],"split_conditions":[-2.7928572E0,1.7091967E4,2.2845238E1,-7.5080304E-4,2.7234512E-3,-3.5514496E-3,-2.5328127E-4],"split_indices":[29,34,58,0,0,0,0],"split_type":[0,0,0,0,0,0,0],"sum_hessian":[8.86645E2,2.9037488E2,5.9627014E2,1.182719E2,1.72103E2,2.8686777E2,3.0940237E2],"tree_param":{"num_deleted":"0","num_feature":"61","num_nodes":"7","size_leaf_vector":"0"}},{"base_weights":[8.100978E-2,-1.3106409E-1,1.843332E-1,7.508028E-2,-2.723451E-1,3.55145E-1,2.5328143E-2],"categories":[],"categories_nodes":[],"categories_segments":[],"categories_sizes":[],"default_left":[1,1,1,0,0,0,0],"id":63,"left_children":[1,3,5,-1,-1,-1,-1],"loss_changes":[1.9474411E1,8.506533E0,1.621283E1,0E0,0E0,0E0,0E0],"parents":[2147483647,0,0,1,1,2,2],"right_children":[2,4,6,-1,-1,-1,-1],"split_conditions":[-2.7928572E0,1.7091967E4,2.2845238E1,7.508028E-4,-2.723451E-3,3.55145E-3,2.532814E-4],"split_indices":[29,34,58,0,0,0,0],"split_type":[0,0,0,0,0,0,0],"sum_hessian":[8.86645E2,2.9037488E2,5.9627014E2,1.182719E2,1.72103E2,2.8686777E2,3.0940237E2],"tree_param":{"num_deleted":"0","num_feature":"61","num_nodes":"7","size_leaf_vector":"0"}},{"base_weights":[-8.022034E-2,2.641478E-1,-1.429798E-1,-1.3422409E-1,3.3515388E-1,-2.9661927E-1,1.5128596E-2],"categories":[],"categories_nodes":[],"categories_segments":[],"categories_sizes":[],"default_left":[1,1,1,0,0,0,0],"id":64,"left_children":[1,3,5,-1,-1,-1,-1],"loss_changes":[1.92175E1,3.9245844E0,1.8254608E1,0E0,0E0,0E0,0E0],"parents":[2147483647,0,0,1,1,2,2],"right_children":[2,4,6,-1,-1,-1,-1],"split_conditions":[-6.784091E0,-8.458334E0,1.5941176E0,-1.3422408E-3,3.3515387E-3,-2.9661926E-3,1.5128596E-4],"split_indices":[29,59,38,0,0,0,0],"split_type":[0,0,0,0,0,0,0],"sum_hessian":[8.864428E2,1.3615211E2,7.5029065E2,2.0462004E1,1.1569012E2,3.8007877E2,3.702119E2],"tree_param":{"num_deleted":"0","num_feature":"61","num_nodes":"7","size_leaf_vector":"0"}},{"base_weights":[8.022033E-2,-2.6414776E-1,1.4297979E-1,1.3422406E-1,-3.3515385E-1,2.9661927E-1,-1.512862E-2],"categories":[],"categories_nodes":[],"categories_segments":[],"categories_sizes":[],"default_left":[1,1,1,0,0,0,0],"id":65,"left_children":[1,3,5,-1,-1,-1,-1],"loss_changes":[1.9217495E1,3.9245844E0,1.8254608E1,0E0,0E0,0E0,0E0],"parents":[2147483647,0,0,1,1,2,2],"right_children":[2,4,6,-1,-1,-1,-1],"split_conditions":[-6.784091E0,-8.458334E0,1.5941176E0,1.3422405E-3,-3.3515384E-3,2.9661926E-3,-1.5128619E-4],"split_indices":[29,59,38,0,0,0,0],"split_type":[0,0,0,0,0,0,0],"sum_hessian":[8.864428E2,1.3615211E2,7.5029065E2,2.0462004E1,1.1569012E2,3.8007877E2,3.702119E2],"tree_param":{"num_deleted":"0","num_feature":"61","num_nodes":"7","size_leaf_vector":"0"}},{"base_weights":[-7.943562E-2,3.4081586E-2,-2.6796487E-1,-2.5785404E-1,1.094875E-1,-4.3414882E-1,-9.728494E-2],"categories":[],"categories_nodes":[],"categories_segments":[],"categories_sizes":[],"default_left":[1,1,1,0,0,0,0],"id":66,"left_children":[1,3,5,-1,-1,-1,-1],"loss_changes":[1.8997662E1,1.2239015E1,9.419203E0,0E0,0E0,0E0,0E0],"parents":[2147483647,0,0,1,1,2,2],"right_children":[2,4,6,-1,-1,-1,-1],"split_conditions":[2.5916667E0,1.8316666E1,9.411765E-1,-2.5785405E-3,1.0948749E-3,-4.3414882E-3,-9.7284943E-4],"split_indices":[29,53,59,0,0,0,0],"split_type":[0,0,0,0,0,0,0],"sum_hessian":[8.862598E2,5.5369086E2,3.32569E2,1.1316202E2,4.405288E2,1.6772171E2,1.6484729E2],"tree_param":{"num_deleted":"0","num_feature":"61","num_nodes":"7","size_leaf_vector":"0"}},{"base_weights":[7.9435624E-2,-3.4081582E-2,2.679649E-1,2.5785404E-1,-1.0948749E-1,4.341488E-1,9.728499E-2],"categories":[],"categories_nodes":[],"categories_segments":[],"categories_sizes":[],"default_left":[1,1,1,0,0,0,0],"id":67,"left_children":[1,3,5,-1,-1,-1,-1],"loss_changes":[1.8997662E1,1.2239013E1,9.419199E0,0E0,0E0,0E0,0E0],"parents":[2147483647,0,0,1,1,2,2],"right_children":[2,4,6,-1,-1,-1,-1],"split_conditions":[2.5916667E0,1.8316666E1,9.411765E-1,2.5785405E-3,-1.0948748E-3,4.341488E-3,9.7284984E-4],"split_indices":[29,53,59,0,0,0,0],"split_type":[0,0,0,0,0,0,0],"sum_hessian":[8.862598E2,5.5369086E2,3.32569E2,1.1316202E2,4.405288E2,1.6772171E2,1.6484727E2],"tree_param":{"num_deleted":"0","num_feature":"61","num_nodes":"7","size_leaf_vector":"0"}},{"base_weights":[-7.8671366E-2,2.614527E-1,-1.4067064E-1,3.8424245E-1,2.8299598E-2,-2.9249826E-1,1.5477591E-2],"categories":[],"categories_nodes":[],"categories_segments":[],"categories_sizes":[],"default_left":[1,1,1,0,0,0,0],"id":68,"left_children":[1,3,5,-1,-1,-1,-1],"loss_changes":[1.8741602E1,3.9143963E0,1.7806648E1,0E0,0E0,0E0,0E0],"parents":[2147483647,0,0,1,1,2,2],"right_children":[2,4,6,-1,-1,-1,-1],"split_conditions":[-6.784091E0,9.0075755E-1,1.5941176E0,3.8424244E-3,2.8299598E-4,-2.9249825E-3,1.547759E-4],"split_indices":[29,37,38,0,0,0,0],"split_type":[0,0,0,0,0,0,0],"sum_hessian":[8.860122E2,1.3610915E2,7.499031E2,8.873105E1,4.73781E1,3.7976904E2,3.7013403E2],"tree_param":{"num_deleted":"0","num_feature":"61","num_nodes":"7","size_leaf_vector":"0"}},{"base_weights":[7.8671366E-2,-2.6145273E-1,1.4067066E-1,-3.8424248E-1,-2.8299628E-2,2.9249826E-1,-1.5477584E-2],"categories":[],"categories_nodes":[],"categories_segments":[],"categories_sizes":[],"default_left":[1,1,1,0,0,0,0],"id":69,"left_children":[1,3,5,-1,-1,-1,-1],"loss_changes":[1.8741606E1,3.9143991E0,1.7806644E1,0E0,0E0,0E0,0E0],"parents":[2147483647,0,0,1,1,2,2],"right_children":[2,4,6,-1,-1,-1,-1],"split_conditions":[-6.784091E0,9.0075755E-1,1.5941176E0,-3.8424246E-3,-2.8299628E-4,2.9249825E-3,-1.5477583E-4],"split_indices":[29,37,38,0,0,0,0],"split_type":[0,0,0,0,0,0,0],"sum_hessian":[8.860122E2,1.3610915E2,7.499031E2,8.873104E1,4.73781E1,3.7976907E2,3.7013403E2],"tree_param":{"num_deleted":"0","num_feature":"61","num_nodes":"7","size_leaf_vector":"0"}},{"base_weights":[-7.789935E-2,3.4177493E-2,-2.6417723E-1,-1.1413423E-1,1.8024853E-1,-1.3543992E-1,-4.8292765E-1],"categories":[],"categories_nodes":[],"categories_segments":[],"categories_sizes":[],"default_left":[1,1,1,0,0,0,0],"id":70,"left_children":[1,3,5,-1,-1,-1,-1],"loss_changes":[1.8523762E1,1.2034977E1,9.319412E0,0E0,0E0,0E0,0E0],"parents":[2147483647,0,0,1,1,2,2],"right_children":[2,4,6,-1,-1,-1,-1],"split_conditions":[2.5916667E0,2.0343138E1,8.069048E0,-1.1413422E-3,1.8024852E-3,-1.3543991E-3,-4.8292764E-3],"split_indices":[29,53,55,0,0,0,0],"split_type":[0,0,0,0,0,0,0],"sum_hessian":[8.858299E2,5.53578E2,3.322519E2,2.747907E2,2.7878726E2,2.1017845E2,1.2207345E2],"tree_param":{"num_deleted":"0","num_feature":"61","num_nodes":"7","size_leaf_vector":"0"}},{"base_weights":[7.789936E-2,-3.4177482E-2,2.641772E-1,1.1413423E-1,-1.8024851E-1,1.3543992E-1,4.8292765E-1],"categories":[],"categories_nodes":[],"categories_segments":[],"categories_sizes":[],"default_left":[1,1,1,0,0,0,0],"id":71,"left_children":[1,3,5,-1,-1,-1,-1],"loss_changes":[1.852376E1,1.2034975E1,9.319414E0,0E0,0E0,0E0,0E0],"parents":[2147483647,0,0,1,1,2,2],"right_children":[2,4,6,-1,-1,-1,-1],"split_conditions":[2.5916667E0,2.0343138E1,8.069048E0,1.1413422E-3,-1.8024851E-3,1.3543991E-3,4.8292764E-3],"split_indices":[29,53,55,0,0,0,0],"split_type":[0,0,0,0,0,0,0],"sum_hessian":[8.858299E2,5.53578E2,3.322519E2,2.747907E2,2.7878726E2,2.1017845E2,1.2207344E2],"tree_param":{"num_deleted":"0","num_feature":"61","num_nodes":"7","size_leaf_vector":"0"}},{"base_weights":[-7.714948E-2,1.2822162E-1,-1.7730966E-1,-7.413004E-2,2.6694205E-1,-3.438204E-1,-2.2622816E-2],"categories":[],"categories_nodes":[],"categories_segments":[],"categories_sizes":[],"default_left":[1,1,1,0,0,0,0],"id":72,"left_children":[1,3,5,-1,-1,-1,-1],"loss_changes":[1.8259527E1,8.194399E0,1.5352505E1,0E0,0E0,0E0,0E0],"parents":[2147483647,0,0,1,1,2,2],"right_children":[2,4,6,-1,-1,-1,-1],"split_conditions":[-2.7928572E0,1.7091967E4,2.2845238E1,-7.413004E-4,2.6694206E-3,-3.4382038E-3,-2.2622816E-4],"split_indices":[29,34,58,0,0,0,0],"split_type":[0,0,0,0,0,0,0],"sum_hessian":[8.855721E2,2.9021906E2,5.95353E2,1.1822694E2,1.7199213E2,2.8612964E2,3.0922336E2],"tree_param":{"num_deleted":"0","num_feature":"61","num_nodes":"7","size_leaf_vector":"0"}},{"base_weights":[7.714947E-2,-1.282216E-1,1.7730965E-1,7.4130036E-2,-2.6694205E-1,3.438204E-1,2.2622779E-2],"categories":[],"categories_nodes":[],"categories_segments":[],"categories_sizes":[],"default_left":[1,1,1,0,0,0,0],"id":73,"left_children":[1,3,5,-1,-1,-1,-1],"loss_changes":[1.8259525E1,8.194397E0,1.5352501E1,0E0,0E0,0E0,0E0],"parents":[2147483647,0,0,1,1,2,2],"right_children":[2,4,6,-1,-1,-1,-1],"split_conditions":[-2.7928572E0,1.7091967E4,2.2845238E1,7.4130035E-4,-2.6694206E-3,3.4382038E-3,2.2622778E-4],"split_indices":[29,34,58,0,0,0,0],"split_type":[0,0,0,0,0,0,0],"sum_hessian":[8.855721E2,2.9021906E2,5.95353E2,1.1822694E2,1.7199213E2,2.8612964E2,3.0922336E2],"tree_param":{"num_deleted":"0","num_feature":"61","num_nodes":"7","size_leaf_vector":"0"}},{"base_weights":[-7.6399624E-2,2.5737455E-1,-1.3726643E-1,3.7893125E-1,2.6660245E-2,-2.86562E-1,1.6127592E-2],"categories":[],"categories_nodes":[],"categories_segments":[],"categories_sizes":[],"default_left":[1,1,1,0,0,0,0],"id":74,"left_children":[1,3,5,-1,-1,-1,-1],"loss_changes":[1.804216E1,3.8335075E0,1.7187166E1,0E0,0E0,0E0,0E0],"parents":[2147483647,0,0,1,1,2,2],"right_children":[2,4,6,-1,-1,-1,-1],"split_conditions":[-6.784091E0,9.0075755E-1,1.5941176E0,3.7893124E-3,2.6660244E-4,-2.86562E-3,1.6127592E-4],"split_indices":[29,37,38,0,0,0,0],"split_type":[0,0,0,0,0,0,0],"sum_hessian":[8.853475E2,1.3605219E2,7.492953E2,8.868447E1,4.736771E1,3.792805E2,3.700148E2],"tree_param":{"num_deleted":"0","num_feature":"61","num_nodes":"7","size_leaf_vector":"0"}},{"base_weights":[7.639963E-2,-2.5737455E-1,1.3726644E-1,-3.7893125E-1,-2.6660254E-2,2.8656197E-1,-1.6127568E-2],"categories":[],"categories_nodes":[],"categories_segments":[],"categories_sizes":[],"default_left":[1,1,1,0,0,0,0],"id":75,"left_children":[1,3,5,-1,-1,-1,-1],"loss_changes":[1.8042158E1,3.8335075E0,1.7187164E1,0E0,0E0,0E0,0E0],"parents":[2147483647,0,0,1,1,2,2],"right_children":[2,4,6,-1,-1,-1,-1],"split_conditions":[-6.784091E0,9.0075755E-1,1.5941176E0,-3.7893124E-3,-2.6660252E-4,2.8656195E-3,-1.6127568E-4],"split_indices":[29,37,38,0,0,0,0],"split_type":[0,0,0,0,0,0,0],"sum_hessian":[8.853475E2,1.3605219E2,7.492953E2,8.868447E1,4.7367714E1,3.792805E2,3.700148E2],"tree_param":{"num_deleted":"0","num_feature":"61","num_nodes":"7","size_leaf_vector":"0"}},{"base_weights":[-7.565102E-2,3.4460265E-2,-2.5885612E-1,-2.5102574E-1,1.0816279E-1,-4.2221525E-1,-9.158197E-2],"categories":[],"categories_nodes":[],"categories_segments":[],"categories_sizes":[],"default_left":[1,1,1,0,0,0,0],"id":76,"left_children":[1,3,5,-1,-1,-1,-1],"loss_changes":[1.7885221E1,1.1691716E1,9.054792E0,0E0,0E0,0E0,0E0],"parents":[2147483647,0,0,1,1,2,2],"right_children":[2,4,6,-1,-1,-1,-1],"split_conditions":[2.5916667E0,1.8316666E1,9.411765E-1,-2.5102573E-3,1.0816279E-3,-4.2221523E-3,-9.1581966E-4],"split_indices":[29,53,59,0,0,0,0],"split_type":[0,0,0,0,0,0,0],"sum_hessian":[8.85152E2,5.5337213E2,3.3177988E2,1.1305372E2,4.403184E2,1.6708319E2,1.646967E2],"tree_param":{"num_deleted":"0","num_feature":"61","num_nodes":"7","size_leaf_vector":"0"}},{"base_weights":[7.565102E-2,-3.4460284E-2,2.5885615E-1,2.510257E-1,-1.08162805E-1,4.222153E-1,9.158197E-2],"categories":[],"categories_nodes":[],"categories_segments":[],"categories_sizes":[],"default_left":[1,1,1,0,0,0,0],"id":77,"left_children":[1,3,5,-1,-1,-1,-1],"loss_changes":[1.7885227E1,1.1691715E1,9.054798E0,0E0,0E0,0E0,0E0],"parents":[2147483647,0,0,1,1,2,2],"right_children":[2,4,6,-1,-1,-1,-1],"split_conditions":[2.5916667E0,1.8316666E1,9.411765E-1,2.510257E-3,-1.081628E-3,4.222153E-3,9.1581966E-4],"split_indices":[29,53,59,0,0,0,0],"split_type":[0,0,0,0,0,0,0],"sum_hessian":[8.85152E2,5.5337213E2,3.3177988E2,1.1305372E2,4.403184E2,1.6708318E2,1.646967E2],"tree_param":{"num_deleted":"0","num_feature":"61","num_nodes":"7","size_leaf_vector":"0"}},{"base_weights":[-7.4924886E-2,2.54748E-1,-1.3506058E-1,-1.3657328E-1,3.246097E-1,-2.82609E-1,1.6434992E-2],"categories":[],"categories_nodes":[],"categories_segments":[],"categories_sizes":[],"default_left":[1,1,1,0,0,0,0],"id":78,"left_children":[1,3,5,-1,-1,-1,-1],"loss_changes":[1.75972E1,3.790018E0,1.6766537E1,0E0,0E0,0E0,0E0],"parents":[2147483647,0,0,1,1,2,2],"right_children":[2,4,6,-1,-1,-1,-1],"split_conditions":[-6.784091E0,-8.458334E0,1.5941176E0,-1.3657329E-3,3.246097E-3,-2.8260897E-3,1.6434991E-4],"split_indices":[29,59,38,0,0,0,0],"split_type":[0,0,0,0,0,0,0],"sum_hessian":[8.8488654E2,1.3601201E2,7.488745E2,2.045895E1,1.1555306E2,3.789411E2,3.699334E2],"tree_param":{"num_deleted":"0","num_feature":"61","num_nodes":"7","size_leaf_vector":"0"}},{"base_weights":[7.492488E-2,-2.54748E-1,1.3506056E-1,1.3657328E-1,-3.2460967E-1,2.8260902E-1,-1.6435018E-2],"categories":[],"categories_nodes":[],"categories_segments":[],"categories_sizes":[],"default_left":[1,1,1,0,0,0,0],"id":79,"left_children":[1,3,5,-1,-1,-1,-1],"loss_changes":[1.7597197E1,3.790018E0,1.6766544E1,0E0,0E0,0E0,0E0],"parents":[2147483647,0,0,1,1,2,2],"right_children":[2,4,6,-1,-1,-1,-1],"split_conditions":[-6.784091E0,-8.458334E0,1.5941176E0,1.3657329E-3,-3.2460967E-3,2.8260902E-3,-1.6435017E-4],"split_indices":[29,59,38,0,0,0,0],"split_type":[0,0,0,0,0,0,0],"sum_hessian":[8.8488654E2,1.3601201E2,7.488745E2,2.045895E1,1.1555306E2,3.7894107E2,3.699334E2],"tree_param":{"num_deleted":"0","num_feature":"61","num_nodes":"7","size_leaf_vector":"0"}},{"base_weights":[-7.419459E-2,3.452491E-2,-2.5522432E-1,-2.4757162E-1,1.0732663E-1,-1.2904371E-1,-4.7034183E-1],"categories":[],"categories_nodes":[],"categories_segments":[],"categories_sizes":[],"default_left":[1,1,1,0,0,0,0],"id":80,"left_children":[1,3,5,-1,-1,-1,-1],"loss_changes":[1.7440157E1,1.1408906E1,8.962969E0,0E0,0E0,0E0,0E0],"parents":[2147483647,0,0,1,1,2,2],"right_children":[2,4,6,-1,-1,-1,-1],"split_conditions":[2.5916667E0,1.8316666E1,8.069048E0,-2.4757162E-3,1.0732663E-3,-1.2904371E-3,-4.7034184E-3],"split_indices":[29,53,55,0,0,0,0],"split_type":[0,0,0,0,0,0,0],"sum_hessian":[8.8467334E2,5.532325E2,3.314409E2,1.1299437E2,4.4023813E2,2.0991298E2,1.2152791E2],"tree_param":{"num_deleted":"0","num_feature":"61","num_nodes":"7","size_leaf_vector":"0"}},{"base_weights":[7.419458E-2,-3.4524933E-2,2.5522432E-1,2.4757159E-1,-1.0732664E-1,1.2904371E-1,4.7034186E-1],"categories":[],"categories_nodes":[],"categories_segments":[],"categories_sizes":[],"default_left":[1,1,1,0,0,0,0],"id":81,"left_children":[1,3,5,-1,-1,-1,-1],"loss_changes":[1.744016E1,1.1408903E1,8.962967E0,0E0,0E0,0E0,0E0],"parents":[2147483647,0,0,1,1,2,2],"right_children":[2,4,6,-1,-1,-1,-1],"split_conditions":[2.5916667E0,1.8316666E1,8.069048E0,2.4757157E-3,-1.0732664E-3,1.2904371E-3,4.7034184E-3],"split_indices":[29,53,55,0,0,0,0],"split_type":[0,0,0,0,0,0,0],"sum_hessian":[8.8467334E2,5.532325E2,3.314409E2,1.1299437E2,4.402381E2,2.0991298E2,1.21527916E2],"tree_param":{"num_deleted":"0","num_feature":"61","num_nodes":"7","size_leaf_vector":"0"}},{"base_weights":[-7.3483825E-2,2.5215143E-1,-1.3289496E-1,3.725862E-1,2.3708453E-2,-4.3512195E-1,-6.0382742E-2],"categories":[],"categories_nodes":[],"categories_segments":[],"categories_sizes":[],"default_left":[1,1,1,0,0,0,0],"id":82,"left_children":[1,3,5,-1,-1,-1,-1],"loss_changes":[1.716286E1,3.759263E0,1.6397923E1,0E0,0E0,0E0,0E0],"parents":[2147483647,0,0,1,1,2,2],"right_children":[2,4,6,-1,-1,-1,-1],"split_conditions":[-6.784091E0,9.0075755E-1,1.8316666E1,3.725862E-3,2.3708453E-4,-4.3512196E-3,-6.038274E-4],"split_indices":[29,37,53,0,0,0,0],"split_type":[0,0,0,0,0,0,0],"sum_hessian":[8.844044E2,1.3595953E2,7.484449E2,8.86123E1,4.734723E1,1.4385681E2,6.045881E2],"tree_param":{"num_deleted":"0","num_feature":"61","num_nodes":"7","size_leaf_vector":"0"}},{"base_weights":[7.348382E-2,-2.5215146E-1,1.3289495E-1,-3.725862E-1,-2.3708459E-2,4.3512192E-1,6.0382728E-2],"categories":[],"categories_nodes":[],"categories_segments":[],"categories_sizes":[],"default_left":[1,1,1,0,0,0,0],"id":83,"left_children":[1,3,5,-1,-1,-1,-1],"loss_changes":[1.7162863E1,3.759262E0,1.6397924E1,0E0,0E0,0E0,0E0],"parents":[2147483647,0,0,1,1,2,2],"right_children":[2,4,6,-1,-1,-1,-1],"split_conditions":[-6.784091E0,9.0075755E-1,1.8316666E1,-3.725862E-3,-2.3708459E-4,4.351219E-3,6.0382724E-4],"split_indices":[29,37,53,0,0,0,0],"split_type":[0,0,0,0,0,0,0],"sum_hessian":[8.8440436E2,1.3595953E2,7.484449E2,8.86123E1,4.734723E1,1.4385681E2,6.04588E2],"tree_param":{"num_deleted":"0","num_feature":"61","num_nodes":"7","size_leaf_vector":"0"}},{"base_weights":[-7.276629E-2,3.455098E-2,-2.5160265E-1,-6.076038E-2,2.4855858E-1,-4.1293946E-1,-8.682456E-2],"categories":[],"categories_nodes":[],"categories_segments":[],"categories_sizes":[],"default_left":[1,1,1,0,0,0,0],"id":84,"left_children":[1,3,5,-1,-1,-1,-1],"loss_changes":[1.6997864E1,1.1317403E1,8.793072E0,0E0,0E0,0E0,0E0],"parents":[2147483647,0,0,1,1,2,2],"right_children":[2,4,6,-1,-1,-1,-1],"split_conditions":[2.5916667E0,3.6458335E0,9.411765E-1,-6.0760375E-4,2.4855859E-3,-4.1293944E-3,-8.6824555E-4],"split_indices":[29,59,59,0,0,0,0],"split_type":[0,0,0,0,0,0,0],"sum_hessian":[8.842108E2,5.5310614E2,3.311047E2,3.8317136E2,1.6993478E2,1.6653836E2,1.6456636E2],"tree_param":{"num_deleted":"0","num_feature":"61","num_nodes":"7","size_leaf_vector":"0"}},{"base_weights":[7.276629E-2,-3.455098E-2,2.5160262E-1,6.076038E-2,-2.4855858E-1,4.1293943E-1,8.682455E-2],"categories":[],"categories_nodes":[],"categories_segments":[],"categories_sizes":[],"default_left":[1,1,1,0,0,0,0],"id":85,"left_children":[1,3,5,-1,-1,-1,-1],"loss_changes":[1.6997862E1,1.1317403E1,8.793077E0,0E0,0E0,0E0,0E0],"parents":[2147483647,0,0,1,1,2,2],"right_children":[2,4,6,-1,-1,-1,-1],"split_conditions":[2.5916667E0,3.6458335E0,9.411765E-1,6.0760375E-4,-2.4855859E-3,4.1293944E-3,8.682455E-4],"split_indices":[29,59,59,0,0,0,0],"split_type":[0,0,0,0,0,0,0],"sum_hessian":[8.842108E2,5.5310614E2,3.311047E2,3.8317136E2,1.6993477E2,1.6653835E2,1.6456636E2],"tree_param":{"num_deleted":"0","num_feature":"61","num_nodes":"7","size_leaf_vector":"0"}},{"base_weights":[-7.2064295E-2,1.24660686E-1,-1.6815412E-1,-7.325524E-2,2.6038542E-1,-3.2942805E-1,-1.8792303E-2],"categories":[],"categories_nodes":[],"categories_segments":[],"categories_sizes":[],"default_left":[1,1,1,0,0,0,0],"id":86,"left_children":[1,3,5,-1,-1,-1,-1],"loss_changes":[1.6749302E1,7.8353176E0,1.4325483E1,0E0,0E0,0E0,0E0],"parents":[2147483647,0,0,1,1,2,2],"right_children":[2,4,6,-1,-1,-1,-1],"split_conditions":[-2.7928572E0,1.7091967E4,2.2845238E1,-7.325524E-4,2.6038543E-3,-3.2942805E-3,-1.8792303E-4],"split_indices":[29,34,58,0,0,0,0],"split_type":[0,0,0,0,0,0,0],"sum_hessian":[8.839443E2,2.899767E2,5.939675E2,1.1814952E2,1.7182718E2,2.850155E2,3.0895203E2],"tree_param":{"num_deleted":"0","num_feature":"61","num_nodes":"7","size_leaf_vector":"0"}},{"base_weights":[7.206429E-2,-1.2466068E-1,1.681541E-1,7.325524E-2,-2.6038542E-1,3.2942802E-1,1.8792285E-2],"categories":[],"categories_nodes":[],"categories_segments":[],"categories_sizes":[],"default_left":[1,1,1,0,0,0,0],"id":87,"left_children":[1,3,5,-1,-1,-1,-1],"loss_changes":[1.67493E1,7.8353167E0,1.4325483E1,0E0,0E0,0E0,0E0],"parents":[2147483647,0,0,1,1,2,2],"right_children":[2,4,6,-1,-1,-1,-1],"split_conditions":[-2.7928572E0,1.7091967E4,2.2845238E1,7.325524E-4,-2.6038543E-3,3.29428E-3,1.8792284E-4],"split_indices":[29,34,58,0,0,0,0],"split_type":[0,0,0,0,0,0,0],"sum_hessian":[8.839443E2,2.899767E2,5.939675E2,1.1814952E2,1.718272E2,2.8501553E2,3.0895203E2],"tree_param":{"num_deleted":"0","num_feature":"61","num_nodes":"7","size_leaf_vector":"0"}},{"base_weights":[-7.136596E-2,2.4821708E-1,-1.2969567E-1,3.67509E-1,2.2057425E-2,-2.7416676E-1,1.839258E-2],"categories":[],"categories_nodes":[],"categories_segments":[],"categories_sizes":[],"default_left":[1,1,1,0,0,0,0],"id":88,"left_children":[1,3,5,-1,-1,-1,-1],"loss_changes":[1.6523945E1,3.6851368E0,1.602525E1,0E0,0E0,0E0,0E0],"parents":[2147483647,0,0,1,1,2,2],"right_children":[2,4,6,-1,-1,-1,-1],"split_conditions":[-6.784091E0,9.0075755E-1,1.5941176E0,3.67509E-3,2.2057425E-4,-2.7416677E-3,1.8392579E-4],"split_indices":[29,37,38,0,0,0,0],"split_type":[0,0,0,0,0,0,0],"sum_hessian":[8.836944E2,1.3589314E2,7.478013E2,8.855712E1,4.733603E1,3.7809253E2,3.697087E2],"tree_param":{"num_deleted":"0","num_feature":"61","num_nodes":"7","size_leaf_vector":"0"}},{"base_weights":[7.136596E-2,-2.4821708E-1,1.2969567E-1,-3.67509E-1,-2.2057429E-2,2.7416676E-1,-1.8392595E-2],"categories":[],"categories_nodes":[],"categories_segments":[],"categories_sizes":[],"default_left":[1,1,1,0,0,0,0],"id":89,"left_children":[1,3,5,-1,-1,-1,-1],"loss_changes":[1.6523947E1,3.6851368E0,1.602525E1,0E0,0E0,0E0,0E0],"parents":[2147483647,0,0,1,1,2,2],"right_children":[2,4,6,-1,-1,-1,-1],"split_conditions":[-6.784091E0,9.0075755E-1,1.5941176E0,-3.67509E-3,-2.2057428E-4,2.7416677E-3,-1.8392593E-4],"split_indices":[29,37,38,0,0,0,0],"split_type":[0,0,0,0,0,0,0],"sum_hessian":[8.836944E2,1.3589314E2,7.478013E2,8.855712E1,4.7336025E1,3.7809253E2,3.697087E2],"tree_param":{"num_deleted":"0","num_feature":"61","num_nodes":"7","size_leaf_vector":"0"}},{"base_weights":[-7.066864E-2,3.477455E-2,-2.4658707E-1,-1.6256145E-1,1.360584E-1,-8.479811E-2,-4.0816537E-1],"categories":[],"categories_nodes":[],"categories_segments":[],"categories_sizes":[],"default_left":[1,1,1,0,0,0,0],"id":90,"left_children":[1,3,5,-1,-1,-1,-1],"loss_changes":[1.6415033E1,1.1092579E1,8.633659E0,0E0,0E0,0E0,0E0],"parents":[2147483647,0,0,1,1,2,2],"right_children":[2,4,6,-1,-1,-1,-1],"split_conditions":[2.5916667E0,1.0944762E2,7.792857E0,-1.6256145E-3,1.360584E-3,-8.479811E-4,-4.0816534E-3],"split_indices":[29,15,55,0,0,0,0],"split_type":[0,0,0,0,0,0,0],"sum_hessian":[8.834738E2,5.5288446E2,3.3058932E2,1.873184E2,3.6556607E2,1.6594888E2,1.6464044E2],"tree_param":{"num_deleted":"0","num_feature":"61","num_nodes":"7","size_leaf_vector":"0"}},{"base_weights":[7.066864E-2,-3.4774557E-2,2.4658708E-1,1.6256143E-1,-1.360584E-1,8.479813E-2,4.081654E-1],"categories":[],"categories_nodes":[],"categories_segments":[],"categories_sizes":[],"default_left":[1,1,1,0,0,0,0],"id":91,"left_children":[1,3,5,-1,-1,-1,-1],"loss_changes":[1.6415037E1,1.1092578E1,8.633657E0,0E0,0E0,0E0,0E0],"parents":[2147483647,0,0,1,1,2,2],"right_children":[2,4,6,-1,-1,-1,-1],"split_conditions":[2.5916667E0,1.0944762E2,7.792857E0,1.6256142E-3,-1.360584E-3,8.4798125E-4,4.081654E-3],"split_indices":[29,15,55,0,0,0,0],"split_type":[0,0,0,0,0,0,0],"sum_hessian":[8.834738E2,5.5288446E2,3.3058932E2,1.873184E2,3.6556607E2,1.659489E2,1.6464044E2],"tree_param":{"num_deleted":"0","num_feature":"61","num_nodes":"7","size_leaf_vector":"0"}},{"base_weights":[-6.998753E-2,-1.8063611E-1,9.5180675E-2,-3.3801255E-1,-3.3651743E-2,-5.098994E-1,1.2973768E-1],"categories":[],"categories_nodes":[],"categories_segments":[],"categories_sizes":[],"default_left":[1,1,1,0,0,0,0],"id":92,"left_children":[1,3,5,-1,-1,-1,-1],"loss_changes":[1.617707E1,1.2245094E1,7.497043E0,0E0,0E0,0E0,0E0],"parents":[2147483647,0,0,1,1,2,2],"right_children":[2,4,6,-1,-1,-1,-1],"split_conditions":[2.4320513E1,1.1022619E2,2.6136363E-1,-3.3801254E-3,-3.3651743E-4,-5.098994E-3,1.2973767E-3],"split_indices":[58,15,48,0,0,0,0],"split_type":[0,0,0,0,0,0,0],"sum_hessian":[8.832311E2,5.2885187E2,3.543792E2,2.5476974E2,2.7408212E2,1.8402529E1,3.3597668E2],"tree_param":{"num_deleted":"0","num_feature":"61","num_nodes":"7","size_leaf_vector":"0"}},{"base_weights":[6.998752E-2,1.8063611E-1,-9.51807E-2,3.3801255E-1,3.3651765E-2,5.098993E-1,-1.2973769E-1],"categories":[],"categories_nodes":[],"categories_segments":[],"categories_sizes":[],"default_left":[1,1,1,0,0,0,0],"id":93,"left_children":[1,3,5,-1,-1,-1,-1],"loss_changes":[1.617707E1,1.22450905E1,7.4970427E0,0E0,0E0,0E0,0E0],"parents":[2147483647,0,0,1,1,2,2],"right_children":[2,4,6,-1,-1,-1,-1],"split_conditions":[2.4320513E1,1.1022619E2,2.6136363E-1,3.3801254E-3,3.3651764E-4,5.098993E-3,-1.2973768E-3],"split_indices":[58,15,48,0,0,0,0],"split_type":[0,0,0,0,0,0,0],"sum_hessian":[8.832311E2,5.2885187E2,3.543792E2,2.5476974E2,2.7408212E2,1.8402529E1,3.3597668E2],"tree_param":{"num_deleted":"0","num_feature":"61","num_nodes":"7","size_leaf_vector":"0"}},{"base_weights":[-6.931095E-2,3.493036E-2,-2.4338998E-1,-1.0608639E-1,1.737555E-1,-1.2097514E-1,-4.5316795E-1],"categories":[],"categories_nodes":[],"categories_segments":[],"categories_sizes":[],"default_left":[1,1,1,0,0,0,0],"id":94,"left_children":[1,3,5,-1,-1,-1,-1],"loss_changes":[1.6050602E1,1.0860236E1,8.451237E0,0E0,0E0,0E0,0E0],"parents":[2147483647,0,0,1,1,2,2],"right_children":[2,4,6,-1,-1,-1,-1],"split_conditions":[2.5916667E0,2.0343138E1,8.069048E0,-1.0608638E-3,1.7375549E-3,-1.2097514E-3,-4.531679E-3],"split_indices":[29,53,55,0,0,0,0],"split_type":[0,0,0,0,0,0,0],"sum_hessian":[8.83046E2,5.5281244E2,3.3023358E2,2.743585E2,2.7845392E2,2.0953639E2,1.2069719E2],"tree_param":{"num_deleted":"0","num_feature":"61","num_nodes":"7","size_leaf_vector":"0"}},{"base_weights":[6.931095E-2,-3.4930356E-2,2.4338998E-1,1.06086396E-1,-1.737555E-1,1.2097514E-1,4.5316795E-1],"categories":[],"categories_nodes":[],"categories_segments":[],"categories_sizes":[],"default_left":[1,1,1,0,0,0,0],"id":95,"left_children":[1,3,5,-1,-1,-1,-1],"loss_changes":[1.60506E1,1.0860236E1,8.451233E0,0E0,0E0,0E0,0E0],"parents":[2147483647,0,0,1,1,2,2],"right_children":[2,4,6,-1,-1,-1,-1],"split_conditions":[2.5916667E0,2.0343138E1,8.069048E0,1.060864E-3,-1.7375549E-3,1.2097514E-3,4.531679E-3],"split_indices":[29,53,55,0,0,0,0],"split_type":[0,0,0,0,0,0,0],"sum_hessian":[8.83046E2,5.5281244E2,3.3023358E2,2.743585E2,2.7845392E2,2.0953639E2,1.2069719E2],"tree_param":{"num_deleted":"0","num_feature":"61","num_nodes":"7","size_leaf_vector":"0"}},{"base_weights":[-6.8646945E-2,2.4523047E-1,-1.25977E-1,-1.3889506E-1,3.1395057E-1,-4.2100617E-1,-5.5408396E-2],"categories":[],"categories_nodes":[],"categories_segments":[],"categories_sizes":[],"default_left":[1,1,1,0,0,0,0],"id":96,"left_children":[1,3,5,-1,-1,-1,-1],"loss_changes":[1.5933651E1,3.655467E0,1.5548289E1,0E0,0E0,0E0,0E0],"parents":[2147483647,0,0,1,1,2,2],"right_children":[2,4,6,-1,-1,-1,-1],"split_conditions":[-6.784091E0,-8.458334E0,1.8316666E1,-1.3889506E-3,3.1395056E-3,-4.210062E-3,-5.5408396E-4],"split_indices":[29,59,53,0,0,0,0],"split_type":[0,0,0,0,0,0,0],"sum_hessian":[8.827513E2,1.3582776E2,7.469235E2,2.0457127E1,1.1537063E2,1.4321452E2,6.03709E2],"tree_param":{"num_deleted":"0","num_feature":"61","num_nodes":"7","size_leaf_vector":"0"}},{"base_weights":[6.8646945E-2,-2.4523047E-1,1.25977E-1,1.3889506E-1,-3.1395057E-1,4.2100617E-1,5.5408403E-2],"categories":[],"categories_nodes":[],"categories_segments":[],"categories_sizes":[],"default_left":[1,1,1,0,0,0,0],"id":97,"left_children":[1,3,5,-1,-1,-1,-1],"loss_changes":[1.5933651E1,3.655468E0,1.5548287E1,0E0,0E0,0E0,0E0],"parents":[2147483647,0,0,1,1,2,2],"right_children":[2,4,6,-1,-1,-1,-1],"split_conditions":[-6.784091E0,-8.458334E0,1.8316666E1,1.3889506E-3,-3.1395056E-3,4.210062E-3,5.54084E-4],"split_indices":[29,59,53,0,0,0,0],"split_type":[0,0,0,0,0,0,0],"sum_hessian":[8.827513E2,1.3582776E2,7.469235E2,2.0457127E1,1.1537063E2,1.4321452E2,6.03709E2],"tree_param":{"num_deleted":"0","num_feature":"61","num_nodes":"7","size_leaf_vector":"0"}},{"base_weights":[-6.798128E-2,3.4920588E-2,-2.39963E-1,-5.8037218E-2,2.4365057E-1,-3.9775532E-1,-7.955163E-2],"categories":[],"categories_nodes":[],"categories_segments":[],"categories_sizes":[],"default_left":[1,1,1,0,0,0,0],"id":98,"left_children":[1,3,5,-1,-1,-1,-1],"loss_changes":[1.5644402E1,1.0756761E1,8.343321E0,0E0,0E0,0E0,0E0],"parents":[2147483647,0,0,1,1,2,2],"right_children":[2,4,6,-1,-1,-1,-1],"split_conditions":[2.5916667E0,3.6458335E0,9.411765E-1,-5.803722E-4,2.4365056E-3,-3.977553E-3,-7.955163E-4],"split_indices":[29,59,59,0,0,0,0],"split_type":[0,0,0,0,0,0,0],"sum_hessian":[8.825289E2,5.5265533E2,3.298735E2,3.8286746E2,1.697879E2,1.655484E2,1.6432509E2],"tree_param":{"num_deleted":"0","num_feature":"61","num_nodes":"7","size_leaf_vector":"0"}},{"base_weights":[6.79813E-2,-3.492058E-2,2.3996302E-1,5.8037233E-2,-2.4365057E-1,3.9775532E-1,7.955168E-2],"categories":[],"categories_nodes":[],"categories_segments":[],"categories_sizes":[],"default_left":[1,1,1,0,0,0,0],"id":99,"left_children":[1,3,5,-1,-1,-1,-1],"loss_changes":[1.5644403E1,1.0756762E1,8.343321E0,0E0,0E0,0E0,0E0],"parents":[2147483647,0,0,1,1,2,2],"right_children":[2,4,6,-1,-1,-1,-1],"split_conditions":[2.5916667E0,3.6458335E0,9.411765E-1,5.803723E-4,-2.4365056E-3,3.977553E-3,7.955168E-4],"split_indices":[29,59,59,0,0,0,0],"split_type":[0,0,0,0,0,0,0],"sum_hessian":[8.825289E2,5.5265533E2,3.298735E2,3.8286746E2,1.697879E2,1.655484E2,1.6432509E2],"tree_param":{"num_deleted":"0","num_feature":"61","num_nodes":"7","size_leaf_vector":"0"}},{"base_weights":[-6.7326926E-2,2.4255045E-1,-1.2393735E-1,3.6067346E-1,1.877725E-2,-2.6506963E-1,2.044915E-2],"categories":[],"categories_nodes":[],"categories_segments":[],"categories_sizes":[],"default_left":[1,1,1,0,0,0,0],"id":100,"left_children":[1,3,5,-1,-1,-1,-1],"loss_changes":[1.5524185E1,3.6084528E0,1.523713E1,0E0,0E0,0E0,0E0],"parents":[2147483647,0,0,1,1,2,2],"right_children":[2,4,6,-1,-1,-1,-1],"split_conditions":[-6.784091E0,9.0075755E-1,1.5941176E0,3.6067346E-3,1.8777249E-4,-2.6506963E-3,2.044915E-4],"split_indices":[29,37,38,0,0,0,0],"split_type":[0,0,0,0,0,0,0],"sum_hessian":[8.82244E2,1.357706E2,7.464734E2,8.846229E1,4.730831E1,3.7706802E2,3.694054E2],"tree_param":{"num_deleted":"0","num_feature":"61","num_nodes":"7","size_leaf_vector":"0"}},{"base_weights":[6.732694E-2,-2.4255045E-1,1.2393737E-1,-3.6067346E-1,-1.8777255E-2,2.6506963E-1,-2.0449137E-2],"categories":[],"categories_nodes":[],"categories_segments":[],"categories_sizes":[],"default_left":[1,1,1,0,0,0,0],"id":101,"left_children":[1,3,5,-1,-1,-1,-1],"loss_changes":[1.5524183E1,3.6084528E0,1.5237132E1,0E0,0E0,0E0,0E0],"parents":[2147483647,0,0,1,1,2,2],"right_children":[2,4,6,-1,-1,-1,-1],"split_conditions":[-6.784091E0,9.0075755E-1,1.5941176E0,-3.6067346E-3,-1.8777254E-4,2.6506963E-3,-2.0449137E-4],"split_indices":[29,37,38,0,0,0,0],"split_type":[0,0,0,0,0,0,0],"sum_hessian":[8.82244E2,1.357706E2,7.464734E2,8.846229E1,4.7308315E1,3.7706802E2,3.694054E2],"tree_param":{"num_deleted":"0","num_feature":"61","num_nodes":"7","size_leaf_vector":"0"}},{"base_weights":[-6.6670194E-2,-2.1745503E-1,4.8091497E-2,3.738182E-2,-3.1101948E-1,2.474444E-1,-4.6845194E-2],"categories":[],"categories_nodes":[],"categories_segments":[],"categories_sizes":[],"default_left":[1,1,1,0,0,0,0],"id":102,"left_children":[1,3,5,-1,-1,-1,-1],"loss_changes":[1.5290315E1,9.114956E0,9.516481E0,0E0,0E0,0E0,0E0],"parents":[2147483647,0,0,1,1,2,2],"right_children":[2,4,6,-1,-1,-1,-1],"split_conditions":[1.4852941E0,8.9871794E-2,-2.7928572E0,3.7381818E-4,-3.1101948E-3,2.474444E-3,-4.6845194E-4],"split_indices":[38,3,29,0,0,0,0],"split_type":[0,0,0,0,0,0,0],"sum_hessian":[8.8200806E2,3.8079218E2,5.0121585E2,1.02424416E2,2.7836777E2,1.6117209E2,3.400438E2],"tree_param":{"num_deleted":"0","num_feature":"61","num_nodes":"7","size_leaf_vector":"0"}},{"base_weights":[6.6670194E-2,2.1745503E-1,-4.80915E-2,-3.738181E-2,3.110195E-1,-2.474444E-1,4.6845187E-2],"categories":[],"categories_nodes":[],"categories_segments":[],"categories_sizes":[],"default_left":[1,1,1,0,0,0,0],"id":103,"left_children":[1,3,5,-1,-1,-1,-1],"loss_changes":[1.5290317E1,9.114954E0,9.516481E0,0E0,0E0,0E0,0E0],"parents":[2147483647,0,0,1,1,2,2],"right_children":[2,4,6,-1,-1,-1,-1],"split_conditions":[1.4852941E0,8.9871794E-2,-2.7928572E0,-3.738181E-4,3.110195E-3,-2.474444E-3,4.6845185E-4],"split_indices":[38,3,29,0,0,0,0],"split_type":[0,0,0,0,0,0,0],"sum_hessian":[8.8200806E2,3.8079218E2,5.0121585E2,1.02424416E2,2.7836777E2,1.6117209E2,3.400438E2],"tree_param":{"num_deleted":"0","num_feature":"61","num_nodes":"7","size_leaf_vector":"0"}},{"base_weights":[-6.602319E-2,-1.7317764E-1,9.3683824E-2,-3.278128E-1,-2.8992882E-2,-5.066462E-1,1.2797879E-1],"categories":[],"categories_nodes":[],"categories_segments":[],"categories_sizes":[],"default_left":[1,1,1,0,0,0,0],"id":104,"left_children":[1,3,5,-1,-1,-1,-1],"loss_changes":[1.5123169E1,1.1777313E1,7.3759184E0,0E0,0E0,0E0,0E0],"parents":[2147483647,0,0,1,1,2,2],"right_children":[2,4,6,-1,-1,-1,-1],"split_conditions":[2.4320513E1,1.1022619E2,2.6136363E-1,-3.2781279E-3,-2.899288E-4,-5.066462E-3,1.2797879E-3],"split_indices":[58,15,48,0,0,0,0],"split_type":[0,0,0,0,0,0,0],"sum_hessian":[8.8175946E2,5.2765094E2,3.5410852E2,2.539844E2,2.7366656E2,1.8391626E1,3.357169E2],"tree_param":{"num_deleted":"0","num_feature":"61","num_nodes":"7","size_leaf_vector":"0"}},{"base_weights":[6.602318E-2,1.7317764E-1,-9.368386E-2,3.2781282E-1,2.8992884E-2,5.066462E-1,-1.2797882E-1],"categories":[],"categories_nodes":[],"categories_segments":[],"categories_sizes":[],"default_left":[1,1,1,0,0,0,0],"id":105,"left_children":[1,3,5,-1,-1,-1,-1],"loss_changes":[1.5123173E1,1.1777315E1,7.3759193E0,0E0,0E0,0E0,0E0],"parents":[2147483647,0,0,1,1,2,2],"right_children":[2,4,6,-1,-1,-1,-1],"split_conditions":[2.4320513E1,1.1022619E2,2.6136363E-1,3.278128E-3,2.8992884E-4,5.066462E-3,-1.2797881E-3],"split_indices":[58,15,48,0,0,0,0],"split_type":[0,0,0,0,0,0,0],"sum_hessian":[8.8175946E2,5.2765094E2,3.5410852E2,2.5398439E2,2.7366656E2,1.8391626E1,3.357169E2],"tree_param":{"num_deleted":"0","num_feature":"61","num_nodes":"7","size_leaf_vector":"0"}},{"base_weights":[-6.538633E-2,3.556632E-2,-2.343604E-1,-1.5655155E-1,1.3414508E-1,-1.7116319E-1,-6.3160306E-1],"categories":[],"categories_nodes":[],"categories_segments":[],"categories_sizes":[],"default_left":[1,1,1,0,0,0,0],"id":106,"left_children":[1,3,5,-1,-1,-1,-1],"loss_changes":[1.5063389E1,1.0500772E1,8.1816845E0,0E0,0E0,0E0,0E0],"parents":[2147483647,0,0,1,1,2,2],"right_children":[2,4,6,-1,-1,-1,-1],"split_conditions":[2.5916667E0,1.0944762E2,7.5E0,-1.5655155E-3,1.3414507E-3,-1.7116318E-3,-6.3160304E-3],"split_indices":[29,15,32,0,0,0,0],"split_type":[0,0,0,0,0,0,0],"sum_hessian":[8.8156067E2,5.52351E2,3.2920966E2,1.8710951E2,3.652415E2,2.852588E2,4.3950855E1],"tree_param":{"num_deleted":"0","num_feature":"61","num_nodes":"7","size_leaf_vector":"0"}},{"base_weights":[6.538635E-2,-3.556631E-2,2.3436041E-1,1.5655157E-1,-1.3414508E-1,1.711632E-1,6.316031E-1],"categories":[],"categories_nodes":[],"categories_segments":[],"categories_sizes":[],"default_left":[1,1,1,0,0,0,0],"id":107,"left_children":[1,3,5,-1,-1,-1,-1],"loss_changes":[1.5063391E1,1.0500773E1,8.181683E0,0E0,0E0,0E0,0E0],"parents":[2147483647,0,0,1,1,2,2],"right_children":[2,4,6,-1,-1,-1,-1],"split_conditions":[2.5916667E0,1.0944762E2,7.5E0,1.5655156E-3,-1.3414507E-3,1.711632E-3,6.316031E-3],"split_indices":[29,15,32,0,0,0,0],"split_type":[0,0,0,0,0,0,0],"sum_hessian":[8.8156067E2,5.52351E2,3.2920966E2,1.8710951E2,3.652415E2,2.852588E2,4.3950855E1],"tree_param":{"num_deleted":"0","num_feature":"61","num_nodes":"7","size_leaf_vector":"0"}},{"base_weights":[-6.475933E-2,2.3872316E-1,-1.2023193E-1,-1.4022516E-1,3.0662572E-1,-4.099529E-1,-5.112354E-2],"categories":[],"categories_nodes":[],"categories_segments":[],"categories_sizes":[],"default_left":[1,1,1,0,0,0,0],"id":108,"left_children":[1,3,5,-1,-1,-1,-1],"loss_changes":[1.48826685E1,3.560223E0,1.4928367E1,0E0,0E0,0E0,0E0],"parents":[2147483647,0,0,1,1,2,2],"right_children":[2,4,6,-1,-1,-1,-1],"split_conditions":[-6.784091E0,-8.458334E0,1.8316666E1,-1.4022515E-3,3.066257E-3,-4.099529E-3,-5.112354E-4],"split_indices":[29,59,53,0,0,0,0],"split_type":[0,0,0,0,0,0,0],"sum_hessian":[8.8132855E2,1.3568921E2,7.4563934E2,2.0457212E1,1.15231995E2,1.4265579E2,6.029835E2],"tree_param":{"num_deleted":"0","num_feature":"61","num_nodes":"7","size_leaf_vector":"0"}},{"base_weights":[6.475933E-2,-2.3872316E-1,1.2023193E-1,1.4022517E-1,-3.0662572E-1,4.099529E-1,5.1123537E-2],"categories":[],"categories_nodes":[],"categories_segments":[],"categories_sizes":[],"default_left":[1,1,1,0,0,0,0],"id":109,"left_children":[1,3,5,-1,-1,-1,-1],"loss_changes":[1.48826685E1,3.560224E0,1.4928367E1,0E0,0E0,0E0,0E0],"parents":[2147483647,0,0,1,1,2,2],"right_children":[2,4,6,-1,-1,-1,-1],"split_conditions":[-6.784091E0,-8.458334E0,1.8316666E1,1.4022517E-3,-3.066257E-3,4.099529E-3,5.112354E-4],"split_indices":[29,59,53,0,0,0,0],"split_type":[0,0,0,0,0,0,0],"sum_hessian":[8.8132855E2,1.3568921E2,7.4563934E2,2.0457212E1,1.1523199E2,1.4265579E2,6.029835E2],"tree_param":{"num_deleted":"0","num_feature":"61","num_nodes":"7","size_leaf_vector":"0"}},{"base_weights":[-6.41326E-2,-2.1226439E-1,4.8482656E-2,-9.18253E-2,-4.0454832E-1,-1.0908764E-1,1.6392465E-1],"categories":[],"categories_nodes":[],"categories_segments":[],"categories_sizes":[],"default_left":[1,1,1,0,0,0,0],"id":110,"left_children":[1,3,5,-1,-1,-1,-1],"loss_changes":[1.4725256E1,8.789869E0,9.148197E0,0E0,0E0,0E0,0E0],"parents":[2147483647,0,0,1,1,2,2],"right_children":[2,4,6,-1,-1,-1,-1],"split_conditions":[1.4852941E0,2.0333333E0,1.0811539E2,-9.18253E-4,-4.045483E-3,-1.0908764E-3,1.6392465E-3],"split_indices":[38,29,15,0,0,0,0],"split_type":[0,0,0,0,0,0,0],"sum_hessian":[8.8109174E2,3.8015665E2,5.009351E2,2.3465532E2,1.4550131E2,2.1184138E2,2.890937E2],"tree_param":{"num_deleted":"0","num_feature":"61","num_nodes":"7","size_leaf_vector":"0"}},{"base_weights":[6.4132586E-2,2.1226437E-1,-4.8482668E-2,9.182528E-2,4.0454832E-1,1.09087616E-1,-1.6392466E-1],"categories":[],"categories_nodes":[],"categories_segments":[],"categories_sizes":[],"default_left":[1,1,1,0,0,0,0],"id":111,"left_children":[1,3,5,-1,-1,-1,-1],"loss_changes":[1.4725256E1,8.789869E0,9.148196E0,0E0,0E0,0E0,0E0],"parents":[2147483647,0,0,1,1,2,2],"right_children":[2,4,6,-1,-1,-1,-1],"split_conditions":[1.4852941E0,2.0333333E0,1.0811539E2,9.1825274E-4,4.045483E-3,1.0908762E-3,-1.6392466E-3],"split_indices":[38,29,15,0,0,0,0],"split_type":[0,0,0,0,0,0,0],"sum_hessian":[8.8109174E2,3.8015665E2,5.009351E2,2.3465532E2,1.4550131E2,2.1184138E2,2.890937E2],"tree_param":{"num_deleted":"0","num_feature":"61","num_nodes":"7","size_leaf_vector":"0"}},{"base_weights":[-6.351515E-2,-1.6874182E-1,9.3141995E-2,-3.200228E-1,-2.7900752E-2,-5.0207865E-1,1.271519E-1],"categories":[],"categories_nodes":[],"categories_segments":[],"categories_sizes":[],"default_left":[1,1,1,0,0,0,0],"id":112,"left_children":[1,3,5,-1,-1,-1,-1],"loss_changes":[1.4552356E1,1.1238047E1,7.2496843E0,0E0,0E0,0E0,0E0],"parents":[2147483647,0,0,1,1,2,2],"right_children":[2,4,6,-1,-1,-1,-1],"split_conditions":[2.4320513E1,1.1022619E2,2.6136363E-1,-3.2002279E-3,-2.790075E-4,-5.0207865E-3,1.271519E-3],"split_indices":[58,15,48,0,0,0,0],"split_type":[0,0,0,0,0,0,0],"sum_hessian":[8.808362E2,5.2686414E2,3.5397205E2,2.5340413E2,2.7346002E2,1.8388319E1,3.3558374E2],"tree_param":{"num_deleted":"0","num_feature":"61","num_nodes":"7","size_leaf_vector":"0"}},{"base_weights":[6.351516E-2,1.6874182E-1,-9.314197E-2,3.200228E-1,2.7900744E-2,5.0207865E-1,-1.2715189E-1],"categories":[],"categories_nodes":[],"categories_segments":[],"categories_sizes":[],"default_left":[1,1,1,0,0,0,0],"id":113,"left_children":[1,3,5,-1,-1,-1,-1],"loss_changes":[1.4552353E1,1.1238049E1,7.2496843E0,0E0,0E0,0E0,0E0],"parents":[2147483647,0,0,1,1,2,2],"right_children":[2,4,6,-1,-1,-1,-1],"split_conditions":[2.4320513E1,1.1022619E2,2.6136363E-1,3.2002279E-3,2.7900745E-4,5.0207865E-3,-1.2715189E-3],"split_indices":[58,15,48,0,0,0,0],"split_type":[0,0,0,0,0,0,0],"sum_hessian":[8.808362E2,5.2686414E2,3.5397205E2,2.5340413E2,2.7346002E2,1.8388319E1,3.355837E2],"tree_param":{"num_deleted":"0","num_feature":"61","num_nodes":"7","size_leaf_vector":"0"}},{"base_weights":[-6.290343E-2,2.3653388E-1,-1.1765689E-1,3.533623E-1,1.5399497E-2,-4.034814E-1,-4.960464E-2],"categories":[],"categories_nodes":[],"categories_segments":[],"categories_sizes":[],"default_left":[1,1,1,0,0,0,0],"id":114,"left_children":[1,3,5,-1,-1,-1,-1],"loss_changes":[1.4482312E1,3.5241256E0,1.44905615E1,0E0,0E0,0E0,0E0],"parents":[2147483647,0,0,1,1,2,2],"right_children":[2,4,6,-1,-1,-1,-1],"split_conditions":[-6.784091E0,9.0075755E-1,1.8316666E1,3.533623E-3,1.5399497E-4,-4.034814E-3,-4.960464E-4],"split_indices":[29,37,53,0,0,0,0],"split_type":[0,0,0,0,0,0,0],"sum_hessian":[8.8062744E2,1.3562076E2,7.450067E2,8.834755E1,4.727321E1,1.4232059E2,6.026861E2],"tree_param":{"num_deleted":"0","num_feature":"61","num_nodes":"7","size_leaf_vector":"0"}},{"base_weights":[6.290341E-2,-2.3653388E-1,1.1765687E-1,-3.533623E-1,-1.5399503E-2,4.034814E-1,4.9604625E-2],"categories":[],"categories_nodes":[],"categories_segments":[],"categories_sizes":[],"default_left":[1,1,1,0,0,0,0],"id":115,"left_children":[1,3,5,-1,-1,-1,-1],"loss_changes":[1.4482311E1,3.5241256E0,1.4490563E1,0E0,0E0,0E0,0E0],"parents":[2147483647,0,0,1,1,2,2],"right_children":[2,4,6,-1,-1,-1,-1],"split_conditions":[-6.784091E0,9.0075755E-1,1.8316666E1,-3.533623E-3,-1.5399502E-4,4.034814E-3,4.960462E-4],"split_indices":[29,37,53,0,0,0,0],"split_type":[0,0,0,0,0,0,0],"sum_hessian":[8.8062744E2,1.3562076E2,7.450067E2,8.834755E1,4.727321E1,1.4232059E2,6.026861E2],"tree_param":{"num_deleted":"0","num_feature":"61","num_nodes":"7","size_leaf_vector":"0"}},{"base_weights":[-6.229222E-2,3.626064E-2,-2.2756098E-1,-5.4028194E-2,2.3897032E-1,-1.6527556E-1,-6.2060404E-1],"categories":[],"categories_nodes":[],"categories_segments":[],"categories_sizes":[],"default_left":[1,1,1,0,0,0,0],"id":116,"left_children":[1,3,5,-1,-1,-1,-1],"loss_changes":[1.4364125E1,1.0134214E1,7.9611645E0,0E0,0E0,0E0,0E0],"parents":[2147483647,0,0,1,1,2,2],"right_children":[2,4,6,-1,-1,-1,-1],"split_conditions":[2.5916667E0,3.6458335E0,7.5E0,-5.4028194E-4,2.3897032E-3,-1.6527555E-3,-6.2060403E-3],"split_indices":[29,59,32,0,0,0,0],"split_type":[0,0,0,0,0,0,0],"sum_hessian":[8.80393E2,5.5200354E2,3.2838943E2,3.8240857E2,1.6959497E2,2.846945E2,4.3694958E1],"tree_param":{"num_deleted":"0","num_feature":"61","num_nodes":"7","size_leaf_vector":"0"}},{"base_weights":[6.2292226E-2,-3.626063E-2,2.2756098E-1,5.4028194E-2,-2.3897031E-1,1.6527556E-1,6.2060404E-1],"categories":[],"categories_nodes":[],"categories_segments":[],"categories_sizes":[],"default_left":[1,1,1,0,0,0,0],"id":117,"left_children":[1,3,5,-1,-1,-1,-1],"loss_changes":[1.4364124E1,1.0134213E1,7.9611645E0,0E0,0E0,0E0,0E0],"parents":[2147483647,0,0,1,1,2,2],"right_children":[2,4,6,-1,-1,-1,-1],"split_conditions":[2.5916667E0,3.6458335E0,7.5E0,5.4028194E-4,-2.389703E-3,1.6527555E-3,6.2060403E-3],"split_indices":[29,59,32,0,0,0,0],"split_type":[0,0,0,0,0,0,0],"sum_hessian":[8.80393E2,5.5200354E2,3.2838943E2,3.8240857E2,1.6959497E2,2.846945E2,4.3694958E1],"tree_param":{"num_deleted":"0","num_feature":"61","num_nodes":"7","size_leaf_vector":"0"}},{"base_weights":[-6.16956E-2,-2.07078E-1,4.868549E-2,3.9733738E-2,-2.9801455E-1,2.4110214E-1,-4.2944256E-2],"categories":[],"categories_nodes":[],"categories_segments":[],"categories_sizes":[],"default_left":[1,1,1,0,0,0,0],"id":118,"left_children":[1,3,5,-1,-1,-1,-1],"loss_changes":[1.4149839E1,8.550961E0,8.855181E0,0E0,0E0,0E0,0E0],"parents":[2147483647,0,0,1,1,2,2],"right_children":[2,4,6,-1,-1,-1,-1],"split_conditions":[1.4852941E0,8.9871794E-2,-2.7928572E0,3.9733737E-4,-2.9801454E-3,2.4110214E-3,-4.2944256E-4],"split_indices":[38,3,29,0,0,0,0],"split_type":[0,0,0,0,0,0,0],"sum_hessian":[8.8012067E2,3.794599E2,5.006608E2,1.0231873E2,2.7714117E2,1.6098056E2,3.3968024E2],"tree_param":{"num_deleted":"0","num_feature":"61","num_nodes":"7","size_leaf_vector":"0"}},{"base_weights":[6.1695606E-2,2.0707801E-1,-4.8685495E-2,-3.973374E-2,2.9801458E-1,-2.4110214E-1,4.294425E-2],"categories":[],"categories_nodes":[],"categories_segments":[],"categories_sizes":[],"default_left":[1,1,1,0,0,0,0],"id":119,"left_children":[1,3,5,-1,-1,-1,-1],"loss_changes":[1.4149839E1,8.550964E0,8.855179E0,0E0,0E0,0E0,0E0],"parents":[2147483647,0,0,1,1,2,2],"right_children":[2,4,6,-1,-1,-1,-1],"split_conditions":[1.4852941E0,8.9871794E-2,-2.7928572E0,-3.973374E-4,2.9801459E-3,-2.4110214E-3,4.2944247E-4],"split_indices":[38,3,29,0,0,0,0],"split_type":[0,0,0,0,0,0,0],"sum_hessian":[8.8012067E2,3.794599E2,5.006608E2,1.0231873E2,2.7714114E2,1.6098056E2,3.3968024E2],"tree_param":{"num_deleted":"0","num_feature":"61","num_nodes":"7","size_leaf_vector":"0"}},{"base_weights":[-6.109804E-2,3.6033347E-2,-2.2413158E-1,-1.5126893E-1,1.3213389E-1,-1.06474586E-1,-4.2758197E-1],"categories":[],"categories_nodes":[],"categories_segments":[],"categories_sizes":[],"default_left":[1,1,1,0,0,0,0],"id":120,"left_children":[1,3,5,-1,-1,-1,-1],"loss_changes":[1.3957007E1,9.971263E0,7.8299046E0,0E0,0E0,0E0,0E0],"parents":[2147483647,0,0,1,1,2,2],"right_children":[2,4,6,-1,-1,-1,-1],"split_conditions":[2.5916667E0,1.0944762E2,8.069048E0,-1.5126893E-3,1.3213388E-3,-1.0647458E-3,-4.2758198E-3],"split_indices":[29,15,55,0,0,0,0],"split_type":[0,0,0,0,0,0,0],"sum_hessian":[8.798549E2,5.518532E2,3.2800165E2,1.8693613E2,3.649171E2,2.087837E2,1.1921795E2],"tree_param":{"num_deleted":"0","num_feature":"61","num_nodes":"7","size_leaf_vector":"0"}},{"base_weights":[6.109804E-2,-3.6033344E-2,2.2413157E-1,1.5126893E-1,-1.3213387E-1,1.0647457E-1,4.2758197E-1],"categories":[],"categories_nodes":[],"categories_segments":[],"categories_sizes":[],"default_left":[1,1,1,0,0,0,0],"id":121,"left_children":[1,3,5,-1,-1,-1,-1],"loss_changes":[1.39570055E1,9.971262E0,7.8299026E0,0E0,0E0,0E0,0E0],"parents":[2147483647,0,0,1,1,2,2],"right_children":[2,4,6,-1,-1,-1,-1],"split_conditions":[2.5916667E0,1.0944762E2,8.069048E0,1.5126893E-3,-1.3213387E-3,1.0647457E-3,4.2758198E-3],"split_indices":[29,15,55,0,0,0,0],"split_type":[0,0,0,0,0,0,0],"sum_hessian":[8.7985486E2,5.518532E2,3.2800165E2,1.8693613E2,3.649171E2,2.087837E2,1.1921795E2],"tree_param":{"num_deleted":"0","num_feature":"61","num_nodes":"7","size_leaf_vector":"0"}},{"base_weights":[-6.0512543E-2,-1.6339411E-1,9.2447005E-2,-3.1141704E-1,-2.5830831E-2,-4.9787194E-1,1.2618315E-1],"categories":[],"categories_nodes":[],"categories_segments":[],"categories_sizes":[],"default_left":[1,1,1,0,0,0,0],"id":122,"left_children":[1,3,5,-1,-1,-1,-1],"loss_changes":[1.3872588E1,1.0719642E1,7.12766E0,0E0,0E0,0E0,0E0],"parents":[2147483647,0,0,1,1,2,2],"right_children":[2,4,6,-1,-1,-1,-1],"split_conditions":[2.4320513E1,1.1022619E2,2.6136363E-1,-3.1141704E-3,-2.583083E-4,-4.978719E-3,1.2618315E-3],"split_indices":[58,15,48,0,0,0,0],"split_type":[0,0,0,0,0,0,0],"sum_hessian":[8.795829E2,5.2583484E2,3.5374805E2,2.5267924E2,2.7315558E2,1.837972E1,3.3536832E2],"tree_param":{"num_deleted":"0","num_feature":"61","num_nodes":"7","size_leaf_vector":"0"}},{"base_weights":[6.0512546E-2,1.633941E-1,-9.244698E-2,3.11417E-1,2.5830822E-2,4.9787197E-1,-1.2618312E-1],"categories":[],"categories_nodes":[],"categories_segments":[],"categories_sizes":[],"default_left":[1,1,1,0,0,0,0],"id":123,"left_children":[1,3,5,-1,-1,-1,-1],"loss_changes":[1.3872584E1,1.071964E1,7.1276603E0,0E0,0E0,0E0,0E0],"parents":[2147483647,0,0,1,1,2,2],"right_children":[2,4,6,-1,-1,-1,-1],"split_conditions":[2.4320513E1,1.1022619E2,2.6136363E-1,3.1141702E-3,2.5830822E-4,4.9787196E-3,-1.2618311E-3],"split_indices":[58,15,48,0,0,0,0],"split_type":[0,0,0,0,0,0,0],"sum_hessian":[8.795829E2,5.2583484E2,3.5374805E2,2.5267924E2,2.7315558E2,1.837972E1,3.3536832E2],"tree_param":{"num_deleted":"0","num_feature":"61","num_nodes":"7","size_leaf_vector":"0"}},{"base_weights":[-5.9930686E-2,2.3244222E-1,-1.1343454E-1,-4.6165323E-1,2.6773506E-1,-3.9470702E-1,-4.6642445E-2],"categories":[],"categories_nodes":[],"categories_segments":[],"categories_sizes":[],"default_left":[1,1,1,0,0,0,0],"id":124,"left_children":[1,3,5,-1,-1,-1,-1],"loss_changes":[1.3797974E1,3.4676795E0,1.3974965E1,0E0,0E0,0E0,0E0],"parents":[2147483647,0,0,1,1,2,2],"right_children":[2,4,6,-1,-1,-1,-1],"split_conditions":[-6.784091E0,2.0225E2,1.8316666E1,-4.616532E-3,2.6773505E-3,-3.9470703E-3,-4.6642445E-4],"split_indices":[29,14,53,0,0,0,0],"split_type":[0,0,0,0,0,0,0],"sum_hessian":[8.793643E2,1.3551198E2,7.4385236E2,5.97246E0,1.2953952E2,1.4179996E2,6.0205237E2],"tree_param":{"num_deleted":"0","num_feature":"61","num_nodes":"7","size_leaf_vector":"0"}},{"base_weights":[5.993068E-2,-2.3244222E-1,1.1343453E-1,4.6165323E-1,-2.6773506E-1,3.9470702E-1,4.6642438E-2],"categories":[],"categories_nodes":[],"categories_segments":[],"categories_sizes":[],"default_left":[1,1,1,0,0,0,0],"id":125,"left_children":[1,3,5,-1,-1,-1,-1],"loss_changes":[1.3797974E1,3.467679E0,1.3974966E1,0E0,0E0,0E0,0E0],"parents":[2147483647,0,0,1,1,2,2],"right_children":[2,4,6,-1,-1,-1,-1],"split_conditions":[-6.784091E0,2.0225E2,1.8316666E1,4.616532E-3,-2.6773505E-3,3.9470703E-3,4.6642436E-4],"split_indices":[29,14,53,0,0,0,0],"split_type":[0,0,0,0,0,0,0],"sum_hessian":[8.793643E2,1.3551198E2,7.4385236E2,5.97246E0,1.2953952E2,1.4179996E2,6.0205237E2],"tree_param":{"num_deleted":"0","num_feature":"61","num_nodes":"7","size_leaf_vector":"0"}},{"base_weights":[-5.9355132E-2,-2.0213977E-1,4.8916873E-2,3.976627E-2,-2.9144517E-1,-1.0336319E-1,1.604318E-1],"categories":[],"categories_nodes":[],"categories_segments":[],"categories_sizes":[],"default_left":[1,1,1,0,0,0,0],"id":126,"left_children":[1,3,5,-1,-1,-1,-1],"loss_changes":[1.3616234E1,8.215776E0,8.530466E0,0E0,0E0,0E0,0E0],"parents":[2147483647,0,0,1,1,2,2],"right_children":[2,4,6,-1,-1,