{"learner":{"attributes":{"best_iteration":"499","best_ntree_limit":"500"},"feature_names":[],"feature_types":[],"gradient_booster":{"model":{"gbtree_model_param":{"num_parallel_tree":"1","num_trees":"1000","size_leaf_vector":"0"},"tree_info":[0,1,0,1,0,1,0,1,0,1,0,1,0,1,0,1,0,1,0,1,0,1,0,1,0,1,0,1,0,1,0,1,0,1,0,1,0,1,0,1,0,1,0,1,0,1,0,1,0,1,0,1,0,1,0,1,0,1,0,1,0,1,0,1,0,1,0,1,0,1,0,1,0,1,0,1,0,1,0,1,0,1,0,1,0,1,0,1,0,1,0,1,0,1,0,1,0,1,0,1,0,1,0,1,0,1,0,1,0,1,0,1,0,1,0,1,0,1,0,1,0,1,0,1,0,1,0,1,0,1,0,1,0,1,0,1,0,1,0,1,0,1,0,1,0,1,0,1,0,1,0,1,0,1,0,1,0,1,0,1,0,1,0,1,0,1,0,1,0,1,0,1,0,1,0,1,0,1,0,1,0,1,0,1,0,1,0,1,0,1,0,1,0,1,0,1,0,1,0,1,0,1,0,1,0,1,0,1,0,1,0,1,0,1,0,1,0,1,0,1,0,1,0,1,0,1,0,1,0,1,0,1,0,1,0,1,0,1,0,1,0,1,0,1,0,1,0,1,0,1,0,1,0,1,0,1,0,1,0,1,0,1,0,1,0,1,0,1,0,1,0,1,0,1,0,1,0,1,0,1,0,1,0,1,0,1,0,1,0,1,0,1,0,1,0,1,0,1,0,1,0,1,0,1,0,1,0,1,0,1,0,1,0,1,0,1,0,1,0,1,0,1,0,1,0,1,0,1,0,1,0,1,0,1,0,1,0,1,0,1,0,1,0,1,0,1,0,1,0,1,0,1,0,1,0,1,0,1,0,1,0,1,0,1,0,1,0,1,0,1,0,1,0,1,0,1,0,1,0,1,0,1,0,1,0,1,0,1,0,1,0,1,0,1,0,1,0,1,0,1,0,1,0,1,0,1,0,1,0,1,0,1,0,1,0,1,0,1,0,1,0,1,0,1,0,1,0,1,0,1,0,1,0,1,0,1,0,1,0,1,0,1,0,1,0,1,0,1,0,1,0,1,0,1,0,1,0,1,0,1,0,1,0,1,0,1,0,1,0,1,0,1,0,1,0,1,0,1,0,1,0,1,0,1,0,1,0,1,0,1,0,1,0,1,0,1,0,1,0,1,0,1,0,1,0,1,0,1,0,1,0,1,0,1,0,1,0,1,0,1,0,1,0,1,0,1,0,1,0,1,0,1,0,1,0,1,0,1,0,1,0,1,0,1,0,1,0,1,0,1,0,1,0,1,0,1,0,1,0,1,0,1,0,1,0,1,0,1,0,1,0,1,0,1,0,1,0,1,0,1,0,1,0,1,0,1,0,1,0,1,0,1,0,1,0,1,0,1,0,1,0,1,0,1,0,1,0,1,0,1,0,1,0,1,0,1,0,1,0,1,0,1,0,1,0,1,0,1,0,1,0,1,0,1,0,1,0,1,0,1,0,1,0,1,0,1,0,1,0,1,0,1,0,1,0,1,0,1,0,1,0,1,0,1,0,1,0,1,0,1,0,1,0,1,0,1,0,1,0,1,0,1,0,1,0,1,0,1,0,1,0,1,0,1,0,1,0,1,0,1,0,1,0,1,0,1,0,1,0,1,0,1,0,1,0,1,0,1,0,1,0,1,0,1,0,1,0,1,0,1,0,1,0,1,0,1,0,1,0,1,0,1,0,1,0,1,0,1,0,1,0,1,0,1,0,1,0,1,0,1,0,1,0,1,0,1,0,1,0,1,0,1,0,1,0,1,0,1,0,1,0,1,0,1,0,1,0,1,0,1,0,1,0,1,0,1,0,1,0,1,0,1,0,1,0,1,0,1,0,1,0,1,0,1,0,1,0,1,0,1,0,1,0,1,0,1,0,1,0,1,0,1,0,1,0,1,0,1,0,1,0,1,0,1,0,1,0,1,0,1,0,1,0,1,0,1,0,1,0,1,0,1,0,1,0,1,0,1,0,1,0,1,0,1,0,1,0,1,0,1,0,1,0,1,0,1,0,1,0,1,0,1,0,1,0,1,0,1,0,1,0,1,0,1,0,1,0,1,0,1,0,1,0,1,0,1,0,1,0,1,0,1,0,1,0,1,0,1,0,1,0,1,0,1,0,1,0,1,0,1,0,1,0,1,0,1,0,1,0,1,0,1,0,1,0,1,0,1,0,1,0,1,0,1,0,1,0,1,0,1,0,1,0,1,0,1,0,1,0,1,0,1,0,1,0,1,0,1,0,1,0,1,0,1,0,1,0,1,0,1],"trees":[{"base_weights":[-1.087444E-1,-2.6596758E-1,1.1533243E-1,8.645534E-3,-4.005682E-1,2.6293105E-1,-1.3454546E-1,-1.1666667E-1,2.8440368E-1,4.7368422E-1,-4.235808E-1,1.2703583E-1,5.220126E-1,-5.925926E-1,-2.2421524E-2,-3.5E-1,1.14754096E-1,-4.2857143E-1,4.4444445E-1,-3.3333334E-1,7.3333335E-1,-1.5873017E-2,-4.6325877E-1,-6.923077E-1,1.6216215E-1,-2.173913E-1,6.376812E-1,-0E0,-8E-1,-3.5135135E-1,1.3907285E-1],"categories":[],"categories_nodes":[],"categories_segments":[],"categories_sizes":[],"default_left":[1,1,1,1,1,1,1,1,1,1,1,1,1,1,1,0,0,0,0,0,0,0,0,0,0,0,0,0,0,0,0],"id":0,"left_children":[1,3,5,7,9,11,13,15,17,19,21,23,25,27,29,-1,-1,-1,-1,-1,-1,-1,-1,-1,-1,-1,-1,-1,-1,-1,-1],"loss_changes":[3.1455898E1,1.9390606E1,1.3626257E1,6.028622E0,7.2824707E0,8.101927E0,7.0484447E0,6.519945E0,6.409204E0,2.2350879E0,5.5494537E0,4.530078E0,6.9379272E0,3.3185186E0,5.9717784E0,0E0,0E0,0E0,0E0,0E0,0E0,0E0,0E0,0E0,0E0,0E0,0E0,0E0,0E0,0E0,0E0],"parents":[2147483647,0,0,1,1,2,2,3,3,4,4,5,5,6,6,7,7,8,8,9,9,10,10,11,11,12,12,13,13,14,14],"right_children":[2,4,6,8,10,12,14,16,18,20,22,24,26,28,30,-1,-1,-1,-1,-1,-1,-1,-1,-1,-1,-1,-1,-1,-1,-1,-1],"split_conditions":[2.4179144E1,-2.7928572E0,2.3875E0,1.1602564E0,5.5857143E0,5.6899037E0,7.081169E0,1.7085904E4,9.3095237E-1,2.26125E2,3.798077E-1,2.25E-1,3.6666667E-1,8.0691963E-1,1.0847917E2,-3.4999999E-3,1.147541E-3,-4.285714E-3,4.4444446E-3,-3.3333334E-3,7.333333E-3,-1.5873017E-4,-4.6325875E-3,-6.923077E-3,1.6216215E-3,-2.173913E-3,6.376812E-3,-0E0,-8E-3,-3.5135134E-3,1.3907285E-3],"split_indices":[58,29,29,11,57,26,27,34,38,42,18,48,48,7,13,0,0,0,0,0,0,0,0,0,0,0,0,0,0,0,0],"split_type":[0,0,0,0,0,0,0,0,0,0,0,0,0,0,0,0,0,0,0,0,0,0,0,0,0,0,0,0,0,0,0],"sum_hessian":[8.91E2,5.235E2,3.675E2,1.725E2,3.51E2,2.31E2,1.365E2,1.19E2,5.35E1,8.5E0,3.425E2,1.525E2,7.85E1,2.6E1,1.105E2,5.9E1,6E1,9.5E0,4.4E1,2E0,6.5E0,3.05E1,3.12E2,5.5E0,1.47E2,1.05E1,6.8E1,7E0,1.9E1,3.6E1,7.45E1],"tree_param":{"num_deleted":"0","num_feature":"61","num_nodes":"31","size_leaf_vector":"0"}},{"base_weights":[1.087444E-1,2.6596758E-1,-1.1533243E-1,-8.645534E-3,4.005682E-1,-2.6293105E-1,1.3454546E-1,1.1666667E-1,-2.8440368E-1,-4.7368422E-1,4.235808E-1,-1.2703583E-1,-5.220126E-1,5.925926E-1,2.2421524E-2,3.5E-1,-1.14754096E-1,4.2857143E-1,-4.4444445E-1,3.3333334E-1,-7.3333335E-1,1.5873017E-2,4.6325877E-1,6.923077E-1,-1.6216215E-1,2.173913E-1,-6.376812E-1,-0E0,8E-1,3.5135135E-1,-1.3907285E-1],"categories":[],"categories_nodes":[],"categories_segments":[],"categories_sizes":[],"default_left":[1,1,1,1,1,1,1,1,1,1,1,1,1,1,1,0,0,0,0,0,0,0,0,0,0,0,0,0,0,0,0],"id":1,"left_children":[1,3,5,7,9,11,13,15,17,19,21,23,25,27,29,-1,-1,-1,-1,-1,-1,-1,-1,-1,-1,-1,-1,-1,-1,-1,-1],"loss_changes":[3.1455898E1,1.9390606E1,1.3626257E1,6.028622E0,7.2824707E0,8.101927E0,7.0484447E0,6.519945E0,6.409204E0,2.2350879E0,5.5494537E0,4.530078E0,6.9379272E0,3.3185186E0,5.9717784E0,0E0,0E0,0E0,0E0,0E0,0E0,0E0,0E0,0E0,0E0,0E0,0E0,0E0,0E0,0E0,0E0],"parents":[2147483647,0,0,1,1,2,2,3,3,4,4,5,5,6,6,7,7,8,8,9,9,10,10,11,11,12,12,13,13,14,14],"right_children":[2,4,6,8,10,12,14,16,18,20,22,24,26,28,30,-1,-1,-1,-1,-1,-1,-1,-1,-1,-1,-1,-1,-1,-1,-1,-1],"split_conditions":[2.4179144E1,-2.7928572E0,2.3875E0,1.1602564E0,5.5857143E0,5.6899037E0,7.081169E0,1.7085904E4,9.3095237E-1,2.26125E2,3.798077E-1,2.25E-1,3.6666667E-1,8.0691963E-1,1.0847917E2,3.4999999E-3,-1.147541E-3,4.285714E-3,-4.4444446E-3,3.3333334E-3,-7.333333E-3,1.5873017E-4,4.6325875E-3,6.923077E-3,-1.6216215E-3,2.173913E-3,-6.376812E-3,-0E0,8E-3,3.5135134E-3,-1.3907285E-3],"split_indices":[58,29,29,11,57,26,27,34,38,42,18,48,48,7,13,0,0,0,0,0,0,0,0,0,0,0,0,0,0,0,0],"split_type":[0,0,0,0,0,0,0,0,0,0,0,0,0,0,0,0,0,0,0,0,0,0,0,0,0,0,0,0,0,0,0],"sum_hessian":[8.91E2,5.235E2,3.675E2,1.725E2,3.51E2,2.31E2,1.365E2,1.19E2,5.35E1,8.5E0,3.425E2,1.525E2,7.85E1,2.6E1,1.105E2,5.9E1,6E1,9.5E0,4.4E1,2E0,6.5E0,3.05E1,3.12E2,5.5E0,1.47E2,1.05E1,6.8E1,7E0,1.9E1,3.6E1,7.45E1],"tree_param":{"num_deleted":"0","num_feature":"61","num_nodes":"31","size_leaf_vector":"0"}},{"base_weights":[-1.076746E-1,-2.6331812E-1,1.141503E-1,2.822084E-3,-3.994655E-1,2.603009E-1,-1.3327537E-1,-1.6749196E-1,1.7987667E-1,4.693869E-1,-4.2266923E-1,1.2573148E-1,5.1686364E-1,-5.869896E-1,-2.2216436E-2,-3.5322943E-1,1.8890163E-1,2.9730406E-1,-2.2127669E-1,-3.328937E-1,7.2772086E-1,-3.210443E-2,-4.6054634E-1,-6.8647766E-1,1.6055194E-1,-2.1540737E-1,6.314221E-1,-0E0,-7.924484E-1,-3.4793693E-1,1.3770083E-1],"categories":[],"categories_nodes":[],"categories_segments":[],"categories_sizes":[],"default_left":[1,1,1,1,1,1,1,1,1,1,1,1,1,1,1,0,0,0,0,0,0,0,0,0,0,0,0,0,0,0,0],"id":2,"left_children":[1,3,5,7,9,11,13,15,17,19,21,23,25,27,29,-1,-1,-1,-1,-1,-1,-1,-1,-1,-1,-1,-1,-1,-1,-1,-1],"loss_changes":[3.0826408E1,1.9005692E1,1.3359982E1,5.4127154E0,7.1939926E0,7.944813E0,6.9153585E0,6.1235414E0,4.2111187E0,2.2111118E0,4.9927025E0,4.4514055E0,6.8048573E0,3.256113E0,5.8557296E0,0E0,0E0,0E0,0E0,0E0,0E0,0E0,0E0,0E0,0E0,0E0,0E0,0E0,0E0,0E0,0E0],"parents":[2147483647,0,0,1,1,2,2,3,3,4,4,5,5,6,6,7,7,8,8,9,9,10,10,11,11,12,12,13,13,14,14],"right_children":[2,4,6,8,10,12,14,16,18,20,22,24,26,28,30,-1,-1,-1,-1,-1,-1,-1,-1,-1,-1,-1,-1,-1,-1,-1,-1],"split_conditions":[2.4179144E1,-2.5857143E0,2.3875E0,1.7153375E4,5.5857143E0,5.6899037E0,7.081169E0,-2.4807692E0,1.1483517E0,1.925E1,3.798077E-1,2.25E-1,3.6666667E-1,8.0691963E-1,1.0847917E2,-3.5322942E-3,1.8890162E-3,2.9730406E-3,-2.2127668E-3,-3.3289369E-3,7.2772084E-3,-3.210443E-4,-4.6054632E-3,-6.8647764E-3,1.6055193E-3,-2.1540737E-3,6.314221E-3,-0E0,-7.924484E-3,-3.4793692E-3,1.3770083E-3],"split_indices":[58,29,29,34,57,26,27,59,49,53,18,48,48,7,13,0,0,0,0,0,0,0,0,0,0,0,0,0,0,0,0],"split_type":[0,0,0,0,0,0,0,0,0,0,0,0,0,0,0,0,0,0,0,0,0,0,0,0,0,0,0,0,0,0,0],"sum_hessian":[8.909858E2,5.234911E2,3.6749475E2,1.7749806E2,3.45993E2,2.3099654E2,1.364982E2,9.0498695E1,8.699936E1,8.499628E0,3.3749338E2,1.5249934E2,7.8497185E1,2.5998783E1,1.1049941E2,5.9499115E1,3.099958E1,6.749949E1,1.9499874E1,1.9999565E0,6.499672E0,3E1,3.0749338E2,5.4997363E0,1.4699962E2,1.049995E1,6.799724E1,7E0,1.8998783E1,3.5999557E1,7.4499855E1],"tree_param":{"num_deleted":"0","num_feature":"61","num_nodes":"31","size_leaf_vector":"0"}},{"base_weights":[1.07674584E-1,2.633181E-1,-1.141503E-1,-2.8220639E-3,3.994654E-1,-2.603009E-1,1.332754E-1,1.6749196E-1,-1.7987664E-1,-4.6938685E-1,4.2266914E-1,-1.2573148E-1,-5.168637E-1,5.8698946E-1,2.2216486E-2,3.5322943E-1,-1.8890162E-1,-2.9730403E-1,2.2127672E-1,3.328937E-1,-7.277208E-1,3.2104515E-2,4.6054626E-1,6.8647766E-1,-1.6055194E-1,2.1540737E-1,-6.3142216E-1,-0E0,7.924483E-1,3.4793702E-1,-1.3770081E-1],"categories":[],"categories_nodes":[],"categories_segments":[],"categories_sizes":[],"default_left":[1,1,1,1,1,1,1,1,1,1,1,1,1,1,1,0,0,0,0,0,0,0,0,0,0,0,0,0,0,0,0],"id":3,"left_children":[1,3,5,7,9,11,13,15,17,19,21,23,25,27,29,-1,-1,-1,-1,-1,-1,-1,-1,-1,-1,-1,-1,-1,-1,-1,-1],"loss_changes":[3.08264E1,1.9005688E1,1.3359983E1,5.4127145E0,7.193981E0,7.944812E0,6.9153547E0,6.123541E0,4.211119E0,2.2111115E0,4.9927025E0,4.4514055E0,6.804863E0,3.256112E0,5.855731E0,0E0,0E0,0E0,0E0,0E0,0E0,0E0,0E0,0E0,0E0,0E0,0E0,0E0,0E0,0E0,0E0],"parents":[2147483647,0,0,1,1,2,2,3,3,4,4,5,5,6,6,7,7,8,8,9,9,10,10,11,11,12,12,13,13,14,14],"right_children":[2,4,6,8,10,12,14,16,18,20,22,24,26,28,30,-1,-1,-1,-1,-1,-1,-1,-1,-1,-1,-1,-1,-1,-1,-1,-1],"split_conditions":[2.4179144E1,-2.5857143E0,2.3875E0,1.7153375E4,5.5857143E0,5.6899037E0,7.081169E0,-2.4807692E0,1.1483517E0,1.925E1,3.798077E-1,2.25E-1,3.6666667E-1,8.0691963E-1,1.0847917E2,3.5322942E-3,-1.8890161E-3,-2.9730403E-3,2.212767E-3,3.3289369E-3,-7.277208E-3,3.2104514E-4,4.6054623E-3,6.8647764E-3,-1.6055193E-3,2.1540737E-3,-6.3142213E-3,-0E0,7.924482E-3,3.4793701E-3,-1.377008E-3],"split_indices":[58,29,29,34,57,26,27,59,49,53,18,48,48,7,13,0,0,0,0,0,0,0,0,0,0,0,0,0,0,0,0],"split_type":[0,0,0,0,0,0,0,0,0,0,0,0,0,0,0,0,0,0,0,0,0,0,0,0,0,0,0,0,0,0,0],"sum_hessian":[8.9098584E2,5.234911E2,3.6749472E2,1.7749805E2,3.4599304E2,2.3099654E2,1.364982E2,9.0498695E1,8.699936E1,8.499629E0,3.374934E2,1.5249934E2,7.849719E1,2.5998783E1,1.1049941E2,5.9499115E1,3.099958E1,6.749948E1,1.9499872E1,1.9999565E0,6.4996724E0,3E1,3.074934E2,5.4997363E0,1.4699962E2,1.049995E1,6.799724E1,7E0,1.8998783E1,3.5999557E1,7.4499855E1],"tree_param":{"num_deleted":"0","num_feature":"61","num_nodes":"31","size_leaf_vector":"0"}},{"base_weights":[-1.06617115E-1,-2.6070026E-1,1.1298343E-1,5.6032296E-3,-3.9406547E-1,2.5770468E-1,-1.3202077E-1,-1.1357333E-1,2.6985976E-1,4.6515745E-1,-4.1684547E-1,1.2444145E-1,5.1180136E-1,-5.814912E-1,-2.2013472E-2,-3.4446663E-1,1.1916192E-1,-4.2297226E-1,4.2381164E-1,-3.3067787E-1,7.215067E-1,-1.5460809E-2,-4.562265E-1,-6.8075126E-1,1.589585E-1,-2.1344331E-1,6.25274E-1,-0E0,-7.8506213E-1,-3.445639E-1,1.3634285E-1],"categories":[],"categories_nodes":[],"categories_segments":[],"categories_sizes":[],"default_left":[1,1,1,1,1,1,1,1,1,1,1,1,1,1,1,0,0,0,0,0,0,0,0,0,0,0,0,0,0,0,0],"id":4,"left_children":[1,3,5,7,9,11,13,15,17,19,21,23,25,27,29,-1,-1,-1,-1,-1,-1,-1,-1,-1,-1,-1,-1,-1,-1,-1,-1],"loss_changes":[3.0210026E1,1.8628994E1,1.3099302E1,5.573299E0,7.034153E0,7.79177E0,6.785537E0,6.5968094E0,6.045508E0,2.1764202E0,5.382698E0,4.374345E0,6.6750298E0,3.195547E0,5.742046E0,0E0,0E0,0E0,0E0,0E0,0E0,0E0,0E0,0E0,0E0,0E0,0E0,0E0,0E0,0E0,0E0],"parents":[2147483647,0,0,1,1,2,2,3,3,4,4,5,5,6,6,7,7,8,8,9,9,10,10,11,11,12,12,13,13,14,14],"right_children":[2,4,6,8,10,12,14,16,18,20,22,24,26,28,30,-1,-1,-1,-1,-1,-1,-1,-1,-1,-1,-1,-1,-1,-1,-1,-1],"split_conditions":[2.4179144E1,-2.6904762E0,2.3875E0,1.1602564E0,5.5857143E0,5.6899037E0,7.081169E0,1.7085904E4,9.3095237E-1,1.925E1,3.798077E-1,2.25E-1,3.6666667E-1,8.0691963E-1,1.0847917E2,-3.4446663E-3,1.1916192E-3,-4.2297225E-3,4.2381166E-3,-3.3067786E-3,7.215067E-3,-1.5460809E-4,-4.562265E-3,-6.8075126E-3,1.5895849E-3,-2.134433E-3,6.25274E-3,-0E0,-7.850621E-3,-3.445639E-3,1.3634285E-3],"split_indices":[58,29,29,11,57,26,27,34,38,53,18,48,48,7,13,0,0,0,0,0,0,0,0,0,0,0,0,0,0,0,0],"split_type":[0,0,0,0,0,0,0,0,0,0,0,0,0,0,0,0,0,0,0,0,0,0,0,0,0,0,0,0,0,0,0],"sum_hessian":[8.909466E2,5.2346747E2,3.6747913E2,1.7499522E2,3.4847226E2,2.3098627E2,1.3649284E2,1.20997154E2,5.3998066E1,8.498637E0,3.3997363E2,1.5249742E2,7.848885E1,2.5995182E1,1.10497665E2,6.049794E1,6.0499218E1,9.499571E0,4.4498497E1,1.9999253E0,6.4987116E0,3.0499987E1,3.0947363E2,5.498955E0,1.4699847E2,1.04998045E1,6.798905E1,7E0,1.8995182E1,3.599824E1,7.449943E1],"tree_param":{"num_deleted":"0","num_feature":"61","num_nodes":"31","size_leaf_vector":"0"}},{"base_weights":[1.06617145E-1,2.607003E-1,-1.1298339E-1,-5.603227E-3,3.940655E-1,-2.5770465E-1,1.3202083E-1,1.1357334E-1,-2.6985976E-1,-4.651575E-1,4.168455E-1,-1.2444146E-1,-5.1180136E-1,5.814912E-1,2.2013567E-2,3.4446666E-1,-1.1916191E-1,4.2297223E-1,-4.2381164E-1,3.306779E-1,-7.215068E-1,1.5460838E-2,4.562265E-1,6.807512E-1,-1.589585E-1,2.134434E-1,-6.25274E-1,-0E0,7.8506213E-1,3.4456402E-1,-1.3634276E-1],"categories":[],"categories_nodes":[],"categories_segments":[],"categories_sizes":[],"default_left":[1,1,1,1,1,1,1,1,1,1,1,1,1,1,1,0,0,0,0,0,0,0,0,0,0,0,0,0,0,0,0],"id":5,"left_children":[1,3,5,7,9,11,13,15,17,19,21,23,25,27,29,-1,-1,-1,-1,-1,-1,-1,-1,-1,-1,-1,-1,-1,-1,-1,-1],"loss_changes":[3.0210018E1,1.8628998E1,1.3099305E1,5.5732994E0,7.034157E0,7.791768E0,6.785534E0,6.5968103E0,6.0455084E0,2.176421E0,5.3826942E0,4.374345E0,6.6750298E0,3.195547E0,5.7420464E0,0E0,0E0,0E0,0E0,0E0,0E0,0E0,0E0,0E0,0E0,0E0,0E0,0E0,0E0,0E0,0E0],"parents":[2147483647,0,0,1,1,2,2,3,3,4,4,5,5,6,6,7,7,8,8,9,9,10,10,11,11,12,12,13,13,14,14],"right_children":[2,4,6,8,10,12,14,16,18,20,22,24,26,28,30,-1,-1,-1,-1,-1,-1,-1,-1,-1,-1,-1,-1,-1,-1,-1,-1],"split_conditions":[2.4179144E1,-2.6904762E0,2.3875E0,1.1602564E0,5.5857143E0,5.6899037E0,7.081169E0,1.7085904E4,9.3095237E-1,1.925E1,3.798077E-1,2.25E-1,3.6666667E-1,8.0691963E-1,1.0847917E2,3.4446665E-3,-1.1916191E-3,4.229722E-3,-4.2381166E-3,3.3067788E-3,-7.2150677E-3,1.5460837E-4,4.562265E-3,6.8075117E-3,-1.5895849E-3,2.134434E-3,-6.25274E-3,-0E0,7.850621E-3,3.4456402E-3,-1.3634276E-3],"split_indices":[58,29,29,11,57,26,27,34,38,53,18,48,48,7,13,0,0,0,0,0,0,0,0,0,0,0,0,0,0,0,0],"split_type":[0,0,0,0,0,0,0,0,0,0,0,0,0,0,0,0,0,0,0,0,0,0,0,0,0,0,0,0,0,0,0],"sum_hessian":[8.9094666E2,5.234675E2,3.6747913E2,1.7499522E2,3.484723E2,2.3098627E2,1.3649286E2,1.2099716E2,5.399807E1,8.498637E0,3.3997363E2,1.5249742E2,7.8488846E1,2.5995182E1,1.1049767E2,6.049794E1,6.0499218E1,9.499572E0,4.4498497E1,1.9999254E0,6.4987116E0,3.0499989E1,3.0947366E2,5.498955E0,1.4699847E2,1.0499804E1,6.7989044E1,7E0,1.8995182E1,3.599824E1,7.4499435E1],"tree_param":{"num_deleted":"0","num_feature":"61","num_nodes":"31","size_leaf_vector":"0"}},{"base_weights":[-1.05574705E-1,-2.5811931E-1,1.1183138E-1,1.2007675E-1,-3.502724E-1,2.551415E-1,-1.3078141E-1,1.9693194E-1,-7.6205796E-1,-1.6971454E-1,-4.5025375E-1,1.2501656E-1,5.105211E-1,-5.760942E-1,-2.1812703E-2,1.8531004E-2,4.9376556E-1,-1.9779171E-1,-8.547048E-1,-7.022962E-2,-5.6373143E-1,-5.963626E-1,-2.9642653E-1,-3.4993372E-3,3.4602994E-1,-2.11499E-1,6.260048E-1,-0E0,-7.778355E-1,-3.4123155E-1,1.3499863E-1],"categories":[],"categories_nodes":[],"categories_segments":[],"categories_sizes":[],"default_left":[1,1,1,1,1,1,1,1,1,1,1,1,1,1,1,0,0,0,0,0,0,0,0,0,0,0,0,0,0,0,0],"id":6,"left_children":[1,3,5,7,9,11,13,15,17,19,21,23,25,27,29,-1,-1,-1,-1,-1,-1,-1,-1,-1,-1,-1,-1,-1,-1,-1,-1],"loss_changes":[2.9607292E1,1.8319344E1,1.2844076E1,7.166544E0,7.5405083E0,7.6448107E0,6.6588693E0,5.0742207E0,2.7527666E-1,5.917752E0,5.9130936E0,4.4036107E0,6.634136E0,3.1367455E0,5.630673E0,0E0,0E0,0E0,0E0,0E0,0E0,0E0,0E0,0E0,0E0,0E0,0E0,0E0,0E0,0E0,0E0],"parents":[2147483647,0,0,1,1,2,2,3,3,4,4,5,5,6,6,7,7,8,8,9,9,10,10,11,11,12,12,13,13,14,14],"right_children":[2,4,6,8,10,12,14,16,18,20,22,24,26,28,30,-1,-1,-1,-1,-1,-1,-1,-1,-1,-1,-1,-1,-1,-1,-1,-1],"split_conditions":[2.4179144E1,-5.6396103E0,2.3875E0,1.3038461E0,3.5E0,5.707143E0,7.081169E0,1.1547619E0,5.590909E0,2.9136364E1,1.1035898E2,6.5E0,3.6666667E-1,8.0691963E-1,1.0847917E2,1.8531004E-4,4.9376553E-3,-1.977917E-3,-8.547048E-3,-7.022962E-4,-5.637314E-3,-5.963626E-3,-2.9642652E-3,-3.4993373E-5,3.4602992E-3,-2.11499E-3,6.260048E-3,-0E0,-7.778355E-3,-3.4123154E-3,1.3499863E-3],"split_indices":[58,29,29,39,32,26,27,11,22,28,15,31,48,7,13,0,0,0,0,0,0,0,0,0,0,0,0,0,0,0,0],"split_type":[0,0,0,0,0,0,0,0,0,0,0,0,0,0,0,0,0,0,0,0,0,0,0,0,0,0,0,0,0,0,0],"sum_hessian":[8.908801E2,5.2342664E2,3.674535E2,1.02492905E2,4.2093372E2,2.3096942E2,1.3648407E2,9.499344E1,7.499461E0,1.509779E2,2.699558E2,1.5399373E2,7.697571E1,2.5989264E1,1.10494804E2,5.9996925E1,3.4996517E1,1.4998019E0,5.9996595E0,1.21483025E2,2.9494886E1,1.369759E2,1.329799E2,9.7995186E1,5.5998535E1,1.0499562E1,6.647614E1,7E0,1.8989264E1,3.599608E1,7.449873E1],"tree_param":{"num_deleted":"0","num_feature":"61","num_nodes":"31","size_leaf_vector":"0"}},{"base_weights":[1.0557468E-1,2.5811934E-1,-1.11831464E-1,-1.2007674E-1,3.5027242E-1,-2.5514156E-1,1.3078134E-1,-1.9693191E-1,7.62058E-1,1.6971457E-1,4.5025375E-1,-1.2501667E-1,-5.105211E-1,5.7609415E-1,2.1812608E-2,-1.8530969E-2,-4.9376556E-1,1.977917E-1,8.547048E-1,7.022964E-2,5.6373143E-1,5.963626E-1,2.9642656E-1,3.499227E-3,-3.4603006E-1,2.1149898E-1,-6.260048E-1,-0E0,7.7783537E-1,3.4123144E-1,-1.3499872E-1],"categories":[],"categories_nodes":[],"categories_segments":[],"categories_sizes":[],"default_left":[1,1,1,1,1,1,1,1,1,1,1,1,1,1,1,0,0,0,0,0,0,0,0,0,0,0,0,0,0,0,0],"id":7,"left_children":[1,3,5,7,9,11,13,15,17,19,21,23,25,27,29,-1,-1,-1,-1,-1,-1,-1,-1,-1,-1,-1,-1,-1,-1,-1,-1],"loss_changes":[2.9607304E1,1.831934E1,1.2844078E1,7.1665435E0,7.540512E0,7.644809E0,6.6588717E0,5.074221E0,2.7527666E-1,5.917752E0,5.9130936E0,4.403611E0,6.6341324E0,3.1367455E0,5.6306725E0,0E0,0E0,0E0,0E0,0E0,0E0,0E0,0E0,0E0,0E0,0E0,0E0,0E0,0E0,0E0,0E0],"parents":[2147483647,0,0,1,1,2,2,3,3,4,4,5,5,6,6,7,7,8,8,9,9,10,10,11,11,12,12,13,13,14,14],"right_children":[2,4,6,8,10,12,14,16,18,20,22,24,26,28,30,-1,-1,-1,-1,-1,-1,-1,-1,-1,-1,-1,-1,-1,-1,-1,-1],"split_conditions":[2.4179144E1,-5.6396103E0,2.3875E0,1.3038461E0,3.5E0,5.707143E0,7.081169E0,1.1547619E0,5.590909E0,2.9136364E1,1.1035898E2,6.5E0,3.6666667E-1,8.0691963E-1,1.0847917E2,-1.8530968E-4,-4.9376553E-3,1.9779168E-3,8.547048E-3,7.022964E-4,5.637314E-3,5.963626E-3,2.9642656E-3,3.499227E-5,-3.4603004E-3,2.1149898E-3,-6.260048E-3,-0E0,7.7783535E-3,3.4123142E-3,-1.3499872E-3],"split_indices":[58,29,29,39,32,26,27,11,22,28,15,31,48,7,13,0,0,0,0,0,0,0,0,0,0,0,0,0,0,0,0],"split_type":[0,0,0,0,0,0,0,0,0,0,0,0,0,0,0,0,0,0,0,0,0,0,0,0,0,0,0,0,0,0,0],"sum_hessian":[8.908801E2,5.2342664E2,3.674535E2,1.02492905E2,4.2093372E2,2.3096942E2,1.3648407E2,9.499344E1,7.499461E0,1.5097792E2,2.699558E2,1.5399373E2,7.69757E1,2.5989264E1,1.10494804E2,5.9996925E1,3.4996517E1,1.499802E0,5.9996595E0,1.21483025E2,2.9494886E1,1.369759E2,1.329799E2,9.7995186E1,5.5998535E1,1.0499561E1,6.647614E1,7E0,1.8989264E1,3.599608E1,7.4498726E1],"tree_param":{"num_deleted":"0","num_feature":"61","num_nodes":"31","size_leaf_vector":"0"}},{"base_weights":[-1.0455377E-1,-2.5301886E-1,1.14525504E-1,1.2581834E-1,-3.4593073E-1,2.6004937E-1,-1.324684E-1,2.009927E-1,-7.5574386E-1,-3.7766343E-1,1.9143805E-1,-3.8314942E-1,3.088849E-1,-5.707953E-1,-2.2238078E-2,2.5709677E-2,4.956674E-1,-1.9512343E-1,-8.4798723E-1,5.3793725E-2,-4.2261723E-1,-7.0633173E-1,3.2557213E-1,-7.663624E-1,6.7664914E-2,1.7591065E-1,5.9110266E-1,-0E0,-7.707627E-1,-3.4771073E-1,1.3745466E-1],"categories":[],"categories_nodes":[],"categories_segments":[],"categories_sizes":[],"default_left":[1,1,1,1,1,1,1,1,1,1,1,1,1,1,1,0,0,0,0,0,0,0,0,0,0,0,0,0,0,0,0],"id":8,"left_children":[1,3,5,7,9,11,13,15,17,19,21,23,25,27,29,-1,-1,-1,-1,-1,-1,-1,-1,-1,-1,-1,-1,-1,-1,-1,-1],"loss_changes":[2.9035425E1,1.8764942E1,1.300723E1,7.1427073E0,7.360283E0,7.262748E0,6.4845896E0,5.048568E0,2.7403545E-1,7.8566055E0,3.1796608E0,2.9018435E0,7.8500957E0,3.0796347E0,5.686687E0,0E0,0E0,0E0,0E0,0E0,0E0,0E0,0E0,0E0,0E0,0E0,0E0,0E0,0E0,0E0,0E0],"parents":[2147483647,0,0,1,1,2,2,3,3,4,4,5,5,6,6,7,7,8,8,9,9,10,10,11,11,12,12,13,13,14,14],"right_children":[2,4,6,8,10,12,14,16,18,20,22,24,26,28,30,-1,-1,-1,-1,-1,-1,-1,-1,-1,-1,-1,-1,-1,-1,-1,-1],"split_conditions":[2.4320513E1,-5.6396103E0,2.3875E0,1.3038461E0,2.9925E2,3.1666666E-1,7.081169E0,1.1547619E0,1.4965045E4,3.693182E-1,1.2916667E0,7.1714287E0,5.707143E0,8.0691963E-1,1.0847917E2,2.5709678E-4,4.956674E-3,-1.9512343E-3,-8.479872E-3,5.379372E-4,-4.2261723E-3,-7.063317E-3,3.2557212E-3,-7.663624E-3,6.766491E-4,1.7591065E-3,5.9110266E-3,-0E0,-7.7076266E-3,-3.4771073E-3,1.3745466E-3],"split_indices":[58,29,29,39,42,48,27,11,4,18,35,55,26,7,13,0,0,0,0,0,0,0,0,0,0,0,0,0,0,0,0],"split_type":[0,0,0,0,0,0,0,0,0,0,0,0,0,0,0,0,0,0,0,0,0,0,0,0,0,0,0,0,0,0,0],"sum_hessian":[8.9080304E2,5.3088165E2,3.5992145E2,1.0448839E2,4.2639325E2,2.2644923E2,1.3347221E2,9.698969E1,7.498698E0,4.0289847E2,2.3494778E1,1.5497E1,2.1095222E2,2.5981096E1,1.0749111E2,6.149658E1,3.5493114E1,1.4996572E0,5.999041E0,3.7998642E1,3.648998E2,2.4995089E0,2.0995268E1,7.998205E0,7.498795E0,1.444936E2,6.645862E1,7E0,1.8981096E1,3.499329E1,7.2497826E1],"tree_param":{"num_deleted":"0","num_feature":"61","num_nodes":"31","size_leaf_vector":"0"}},{"base_weights":[1.0455378E-1,2.5301886E-1,-1.1452551E-1,-1.2581833E-1,3.4593076E-1,-2.6004937E-1,1.3246839E-1,-2.0099269E-1,7.557438E-1,3.7766346E-1,-1.91438E-1,3.831494E-1,-3.088849E-1,5.707953E-1,2.2238066E-2,-2.5709629E-2,-4.9566746E-1,1.951234E-1,8.479872E-1,-5.3793713E-2,4.2261723E-1,7.0633173E-1,-3.2557207E-1,7.663624E-1,-6.766495E-2,-1.7591065E-1,-5.9110266E-1,-0E0,7.707627E-1,3.477107E-1,-1.3745466E-1],"categories":[],"categories_nodes":[],"categories_segments":[],"categories_sizes":[],"default_left":[1,1,1,1,1,1,1,1,1,1,1,1,1,1,1,0,0,0,0,0,0,0,0,0,0,0,0,0,0,0,0],"id":9,"left_children":[1,3,5,7,9,11,13,15,17,19,21,23,25,27,29,-1,-1,-1,-1,-1,-1,-1,-1,-1,-1,-1,-1,-1,-1,-1,-1],"loss_changes":[2.903543E1,1.8764946E1,1.3007229E1,7.142707E0,7.360283E0,7.262748E0,6.4845877E0,5.0485706E0,2.7403498E-1,7.8566017E0,3.1796603E0,2.9018438E0,7.8500957E0,3.0796337E0,5.686686E0,0E0,0E0,0E0,0E0,0E0,0E0,0E0,0E0,0E0,0E0,0E0,0E0,0E0,0E0,0E0,0E0],"parents":[2147483647,0,0,1,1,2,2,3,3,4,4,5,5,6,6,7,7,8,8,9,9,10,10,11,11,12,12,13,13,14,14],"right_children":[2,4,6,8,10,12,14,16,18,20,22,24,26,28,30,-1,-1,-1,-1,-1,-1,-1,-1,-1,-1,-1,-1,-1,-1,-1,-1],"split_conditions":[2.4320513E1,-5.6396103E0,2.3875E0,1.3038461E0,2.9925E2,3.1666666E-1,7.081169E0,1.1547619E0,1.4965045E4,3.693182E-1,1.2916667E0,7.1714287E0,5.707143E0,8.0691963E-1,1.0847917E2,-2.5709628E-4,-4.9566743E-3,1.951234E-3,8.479872E-3,-5.379371E-4,4.2261723E-3,7.063317E-3,-3.2557207E-3,7.663624E-3,-6.766495E-4,-1.7591065E-3,-5.9110266E-3,-0E0,7.7076266E-3,3.4771068E-3,-1.3745466E-3],"split_indices":[58,29,29,39,42,48,27,11,4,18,35,55,26,7,13,0,0,0,0,0,0,0,0,0,0,0,0,0,0,0,0],"split_type":[0,0,0,0,0,0,0,0,0,0,0,0,0,0,0,0,0,0,0,0,0,0,0,0,0,0,0,0,0,0,0],"sum_hessian":[8.908031E2,5.3088165E2,3.5992142E2,1.0448839E2,4.2639325E2,2.2644923E2,1.334722E2,9.698969E1,7.4986987E0,4.0289847E2,2.3494778E1,1.5497E1,2.1095222E2,2.5981096E1,1.0749111E2,6.149658E1,3.5493114E1,1.4996572E0,5.9990416E0,3.799864E1,3.6489984E2,2.4995089E0,2.099527E1,7.998205E0,7.498795E0,1.444936E2,6.645862E1,7E0,1.8981096E1,3.4993286E1,7.2497826E1],"tree_param":{"num_deleted":"0","num_feature":"61","num_nodes":"31","size_leaf_vector":"0"}},{"base_weights":[-1.0354448E-1,-2.5312385E-1,1.0963835E-1,3.708472E-3,-3.8454768E-1,2.5016177E-1,-1.2825492E-1,-1.625703E-1,1.7654619E-1,4.6447593E-1,-4.0724236E-1,1.2054409E-1,4.9746728E-1,-5.6559145E-1,-2.1303628E-2,-3.465721E-1,1.9037269E-1,-3.3600348E-1,2.6586244E-1,-3.2529604E-1,7.184887E-1,-4.6839738E-1,-1.7235021E-1,-6.713092E-1,1.5448986E-1,-2.0796666E-1,6.079192E-1,-0E0,-7.6383847E-1,-3.345712E-1,1.324624E-1],"categories":[],"categories_nodes":[],"categories_segments":[],"categories_sizes":[],"default_left":[1,1,1,1,1,1,1,1,1,1,1,1,1,1,1,0,0,0,0,0,0,0,0,0,0,0,0,0,0,0,0],"id":10,"left_children":[1,3,5,7,9,11,13,15,17,19,21,23,25,27,29,-1,-1,-1,-1,-1,-1,-1,-1,-1,-1,-1,-1,-1,-1,-1,-1],"loss_changes":[2.8462149E1,1.7699432E1,1.2346789E1,5.1578894E0,6.872406E0,7.374302E0,6.417301E0,6.0070953E0,4.1174307E0,2.1389875E0,4.779682E0,4.229451E0,6.315651E0,3.0241442E0,5.414576E0,0E0,0E0,0E0,0E0,0E0,0E0,0E0,0E0,0E0,0E0,0E0,0E0,0E0,0E0,0E0,0E0],"parents":[2147483647,0,0,1,1,2,2,3,3,4,4,5,5,6,6,7,7,8,8,9,9,10,10,11,11,12,12,13,13,14,14],"right_children":[2,4,6,8,10,12,14,16,18,20,22,24,26,28,30,-1,-1,-1,-1,-1,-1,-1,-1,-1,-1,-1,-1,-1,-1,-1,-1],"split_conditions":[2.4179144E1,-2.5857143E0,2.3875E0,1.7153375E4,5.5857143E0,5.6899037E0,7.081169E0,-2.4807692E0,2.2053125E2,2.26125E2,2.1600378E-1,2.25E-1,3.6666667E-1,8.0691963E-1,1.0847917E2,-3.465721E-3,1.9037268E-3,-3.3600347E-3,2.6586242E-3,-3.2529603E-3,7.184887E-3,-4.6839737E-3,-1.7235021E-3,-6.7130914E-3,1.5448986E-3,-2.0796666E-3,6.079192E-3,-0E0,-7.6383846E-3,-3.345712E-3,1.3246239E-3],"split_indices":[58,29,29,34,57,26,27,59,14,42,33,48,48,7,13,0,0,0,0,0,0,0,0,0,0,0,0,0,0,0,0],"split_type":[0,0,0,0,0,0,0,0,0,0,0,0,0,0,0,0,0,0,0,0,0,0,0,0,0,0,0,0,0,0,0],"sum_hessian":[8.9070264E2,5.2332513E2,3.6737753E2,1.7747333E2,3.458518E2,2.3092104E2,1.364565E2,9.0483215E1,8.6990105E1,8.49726E0,3.3735455E2,1.5248703E2,7.843401E1,2.5970743E1,1.10485756E2,5.948803E1,3.099519E1,1.2499368E1,7.449074E1,1.9995781E0,6.4976816E0,2.6687784E2,7.047671E1,5.4964037E0,1.4699062E2,1.0498619E1,6.7935394E1,7E0,1.8970743E1,3.5989166E1,7.449659E1],"tree_param":{"num_deleted":"0","num_feature":"61","num_nodes":"31","size_leaf_vector":"0"}},{"base_weights":[1.0354448E-1,2.5312385E-1,-1.09638356E-1,-3.708494E-3,3.845477E-1,-2.501618E-1,1.2825494E-1,1.625703E-1,-1.7654625E-1,-4.6447593E-1,4.072424E-1,-1.205441E-1,-4.974673E-1,5.6559145E-1,2.130364E-2,3.4657213E-1,-1.9037272E-1,3.3600342E-1,-2.658625E-1,3.2529607E-1,-7.184887E-1,4.6839744E-1,1.7235021E-1,6.713092E-1,-1.5448986E-1,2.0796664E-1,-6.079193E-1,-0E0,7.6383847E-1,3.345712E-1,-1.324624E-1],"categories":[],"categories_nodes":[],"categories_segments":[],"categories_sizes":[],"default_left":[1,1,1,1,1,1,1,1,1,1,1,1,1,1,1,0,0,0,0,0,0,0,0,0,0,0,0,0,0,0,0],"id":11,"left_children":[1,3,5,7,9,11,13,15,17,19,21,23,25,27,29,-1,-1,-1,-1,-1,-1,-1,-1,-1,-1,-1,-1,-1,-1,-1,-1],"loss_changes":[2.8462149E1,1.769944E1,1.234679E1,5.1578903E0,6.87241E0,7.374301E0,6.4173E0,6.0070972E0,4.117431E0,2.1389875E0,4.7796745E0,4.229451E0,6.315651E0,3.0241442E0,5.4145775E0,0E0,0E0,0E0,0E0,0E0,0E0,0E0,0E0,0E0,0E0,0E0,0E0,0E0,0E0,0E0,0E0],"parents":[2147483647,0,0,1,1,2,2,3,3,4,4,5,5,6,6,7,7,8,8,9,9,10,10,11,11,12,12,13,13,14,14],"right_children":[2,4,6,8,10,12,14,16,18,20,22,24,26,28,30,-1,-1,-1,-1,-1,-1,-1,-1,-1,-1,-1,-1,-1,-1,-1,-1],"split_conditions":[2.4179144E1,-2.5857143E0,2.3875E0,1.7153375E4,5.5857143E0,5.6899037E0,7.081169E0,-2.4807692E0,2.2053125E2,2.26125E2,2.1600378E-1,2.25E-1,3.6666667E-1,8.0691963E-1,1.0847917E2,3.4657212E-3,-1.9037272E-3,3.3600342E-3,-2.658625E-3,3.2529607E-3,-7.184887E-3,4.683974E-3,1.7235021E-3,6.7130914E-3,-1.5448986E-3,2.0796664E-3,-6.0791927E-3,-0E0,7.6383846E-3,3.345712E-3,-1.3246239E-3],"split_indices":[58,29,29,34,57,26,27,59,14,42,33,48,48,7,13,0,0,0,0,0,0,0,0,0,0,0,0,0,0,0,0],"split_type":[0,0,0,0,0,0,0,0,0,0,0,0,0,0,0,0,0,0,0,0,0,0,0,0,0,0,0,0,0,0,0],"sum_hessian":[8.9070264E2,5.2332513E2,3.6737753E2,1.7747333E2,3.458518E2,2.3092105E2,1.364565E2,9.048322E1,8.69901E1,8.49726E0,3.3735452E2,1.5248703E2,7.843402E1,2.5970743E1,1.10485756E2,5.948803E1,3.099519E1,1.2499368E1,7.449073E1,1.9995781E0,6.4976816E0,2.6687784E2,7.047671E1,5.4964037E0,1.4699062E2,1.0498619E1,6.79354E1,7E0,1.8970743E1,3.5989166E1,7.449659E1],"tree_param":{"num_deleted":"0","num_feature":"61","num_nodes":"31","size_leaf_vector":"0"}},{"base_weights":[-1.0254085E-1,-2.4810818E-1,1.12266615E-1,1.2418374E-1,-3.394319E-1,2.550173E-1,-1.3001598E-1,1.987483E-1,-7.5024104E-1,-3.7076488E-1,1.9099192E-1,-3.7667862E-1,3.0298048E-1,-5.6047964E-1,-2.1843502E-2,2.5230445E-2,4.9050424E-1,-8.424391E-1,-1.9190632E-1,5.57433E-2,-4.1522253E-1,-6.9896793E-1,3.238787E-1,-7.5642663E-1,6.957195E-2,1.725921E-1,5.7989234E-1,-0E0,-7.5705767E-1,-3.4115636E-1,1.347972E-1],"categories":[],"categories_nodes":[],"categories_segments":[],"categories_sizes":[],"default_left":[1,1,1,1,1,1,1,1,1,1,1,1,1,1,1,0,0,0,0,0,0,0,0,0,0,0,0,0,0,0,0],"id":12,"left_children":[1,3,5,7,9,11,13,15,17,19,21,23,25,27,29,-1,-1,-1,-1,-1,-1,-1,-1,-1,-1,-1,-1,-1,-1,-1,-1],"loss_changes":[2.7906591E1,1.8121239E1,1.2512714E1,7.0263586E0,7.1720123E0,7.0035706E0,6.2477922E0,4.9478703E0,2.757373E-1,7.679489E0,3.1229002E0,2.8474827E0,7.550644E0,2.9702082E0,5.471883E0,0E0,0E0,0E0,0E0,0E0,0E0,0E0,0E0,0E0,0E0,0E0,0E0,0E0,0E0,0E0,0E0],"parents":[2147483647,0,0,1,1,2,2,3,3,4,4,5,5,6,6,7,7,8,8,9,9,10,10,11,11,12,12,13,13,14,14],"right_children":[2,4,6,8,10,12,14,16,18,20,22,24,26,28,30,-1,-1,-1,-1,-1,-1,-1,-1,-1,-1,-1,-1,-1,-1,-1,-1],"split_conditions":[2.4320513E1,-5.6396103E0,2.3875E0,1.3038461E0,2.9925E2,3.1666666E-1,7.081169E0,1.1547619E0,2.4083333E0,3.693182E-1,1.2916667E0,7.1714287E0,5.707143E0,8.0691963E-1,1.0847917E2,2.5230445E-4,4.9050422E-3,-8.424391E-3,-1.9190632E-3,5.57433E-4,-4.1522253E-3,-6.9896793E-3,3.238787E-3,-7.564266E-3,6.957195E-4,1.7259209E-3,5.7989233E-3,-0E0,-7.5705764E-3,-3.4115636E-3,1.347972E-3],"split_indices":[58,29,29,39,42,48,27,11,20,18,35,55,26,7,13,0,0,0,0,0,0,0,0,0,0,0,0,0,0,0,0],"split_type":[0,0,0,0,0,0,0,0,0,0,0,0,0,0,0,0,0,0,0,0,0,0,0,0,0,0,0,0,0,0,0],"sum_hessian":[8.9057886E2,5.307521E2,3.5982675E2,1.04477486E2,4.262746E2,2.2638828E2,1.3343846E2,9.6980415E1,7.497073E0,4.027826E2,2.3491999E1,1.5492453E1,2.1089583E2,2.5958271E1,1.07480194E2,6.1494106E1,3.5486305E1,5.99781E0,1.4992633E0,3.7997417E1,3.647852E2,2.49861E0,2.099339E1,7.994371E0,7.498081E0,1.444857E2,6.6410126E1,7E0,1.8958271E1,3.4985046E1,7.249515E1],"tree_param":{"num_deleted":"0","num_feature":"61","num_nodes":"31","size_leaf_vector":"0"}},{"base_weights":[1.0254084E-1,2.4810818E-1,-1.1226664E-1,-1.2418371E-1,3.394319E-1,-2.5501737E-1,1.3001601E-1,-1.9874828E-1,7.5024104E-1,3.7076488E-1,-1.9099191E-1,3.766786E-1,-3.0298054E-1,5.604797E-1,2.1843527E-2,-2.5230397E-2,-4.9050424E-1,8.424391E-1,1.919063E-1,-5.5743296E-2,4.1522253E-1,6.98968E-1,-3.2387868E-1,7.5642663E-1,-6.957198E-2,-1.7259216E-1,-5.798924E-1,-0E0,7.570577E-1,3.4115636E-1,-1.3479717E-1],"categories":[],"categories_nodes":[],"categories_segments":[],"categories_sizes":[],"default_left":[1,1,1,1,1,1,1,1,1,1,1,1,1,1,1,0,0,0,0,0,0,0,0,0,0,0,0,0,0,0,0],"id":13,"left_children":[1,3,5,7,9,11,13,15,17,19,21,23,25,27,29,-1,-1,-1,-1,-1,-1,-1,-1,-1,-1,-1,-1,-1,-1,-1,-1],"loss_changes":[2.790659E1,1.8121239E1,1.2512718E1,7.0263586E0,7.1720123E0,7.0035696E0,6.247794E0,4.947871E0,2.757373E-1,7.679489E0,3.1229005E0,2.847483E0,7.550646E0,2.9702082E0,5.4718823E0,0E0,0E0,0E0,0E0,0E0,0E0,0E0,0E0,0E0,0E0,0E0,0E0,0E0,0E0,0E0,0E0],"parents":[2147483647,0,0,1,1,2,2,3,3,4,4,5,5,6,6,7,7,8,8,9,9,10,10,11,11,12,12,13,13,14,14],"right_children":[2,4,6,8,10,12,14,16,18,20,22,24,26,28,30,-1,-1,-1,-1,-1,-1,-1,-1,-1,-1,-1,-1,-1,-1,-1,-1],"split_conditions":[2.4320513E1,-5.6396103E0,2.3875E0,1.3038461E0,2.9925E2,3.1666666E-1,7.081169E0,1.1547619E0,2.4083333E0,3.693182E-1,1.2916667E0,7.1714287E0,5.707143E0,8.0691963E-1,1.0847917E2,-2.5230396E-4,-4.9050422E-3,8.424391E-3,1.919063E-3,-5.5743294E-4,4.1522253E-3,6.9896798E-3,-3.2387867E-3,7.564266E-3,-6.957198E-4,-1.7259216E-3,-5.798924E-3,-0E0,7.5705773E-3,3.4115636E-3,-1.3479717E-3],"split_indices":[58,29,29,39,42,48,27,11,20,18,35,55,26,7,13,0,0,0,0,0,0,0,0,0,0,0,0,0,0,0,0],"split_type":[0,0,0,0,0,0,0,0,0,0,0,0,0,0,0,0,0,0,0,0,0,0,0,0,0,0,0,0,0,0,0],"sum_hessian":[8.905788E2,5.307521E2,3.5982672E2,1.04477486E2,4.262746E2,2.2638826E2,1.3343846E2,9.6980415E1,7.497073E0,4.027826E2,2.3491999E1,1.5492453E1,2.1089581E2,2.5958271E1,1.0748019E2,6.149411E1,3.5486305E1,5.99781E0,1.4992633E0,3.7997417E1,3.647852E2,2.49861E0,2.099339E1,7.994371E0,7.498081E0,1.4448569E2,6.6410126E1,7E0,1.8958271E1,3.4985046E1,7.249514E1],"tree_param":{"num_deleted":"0","num_feature":"61","num_nodes":"31","size_leaf_vector":"0"}},{"base_weights":[-1.01556E-1,3.5513766E-2,-3.263686E-1,-1.8620403E-1,2.0818055E-1,-1.3122673E-1,-4.9696115E-1,-4.244267E-1,-5.5793643E-2,1.07367024E-1,4.1240624E-1,-7.5605166E-1,-7.277098E-2,-3.4463137E-1,-6.594641E-1,5.7129186E-1,-5.0627774E-1,-2.643016E-1,1.8892759E-1,8.947182E-1,7.184722E-2,-2.3938073E-1,5.2636415E-1,-8.929505E-1,2.0293774E-1,-2.691425E-1,1.2589504E-1,-4.257091E-1,8.225709E-2,-6.877913E-1,3.5342154E-1],"categories":[],"categories_nodes":[],"categories_segments":[],"categories_sizes":[],"default_left":[1,1,1,1,1,1,1,1,1,1,1,1,1,1,1,0,0,0,0,0,0,0,0,0,0,0,0,0,0,0,0],"id":14,"left_children":[1,3,5,7,9,11,13,15,17,19,21,23,25,27,29,-1,-1,-1,-1,-1,-1,-1,-1,-1,-1,-1,-1,-1,-1,-1,-1],"loss_changes":[2.748119E1,2.1274109E1,1.1178276E1,7.537283E0,6.385806E0,5.748617E0,4.2247314E0,7.2940407E0,8.13405E0,5.8211765E0,7.766424E0,1.9518929E0,5.7456517E0,3.320489E0,2.708435E0,0E0,0E0,0E0,0E0,0E0,0E0,0E0,0E0,0E0,0E0,0E0,0E0,0E0,0E0,0E0,0E0],"parents":[2147483647,0,0,1,1,2,2,3,3,4,4,5,5,6,6,7,7,8,8,9,9,10,10,11,11,12,12,13,13,14,14],"right_children":[2,4,6,8,10,12,14,16,18,20,22,24,26,28,30,-1,-1,-1,-1,-1,-1,-1,-1,-1,-1,-1,-1,-1,-1,-1,-1],"split_conditions":[2.4772727E0,2.2207142E1,7.707143E0,1.0903968E2,5.707143E0,1.7321429E0,9.5E0,4.1964283E0,1.7155385E4,2.2535713E1,3.875E-1,1.5783334E2,1.9372549E0,3.5E0,2.4222221E0,5.7129185E-3,-5.062777E-3,-2.643016E-3,1.8892759E-3,8.947182E-3,7.1847223E-4,-2.3938073E-3,5.2636415E-3,-8.929505E-3,2.0293773E-3,-2.691425E-3,1.2589503E-3,-4.257091E-3,8.225709E-4,-6.8779127E-3,3.5342153E-3],"split_indices":[29,58,55,15,26,20,30,56,34,58,48,43,21,31,6,0,0,0,0,0,0,0,0,0,0,0,0,0,0,0,0],"split_type":[0,0,0,0,0,0,0,0,0,0,0,0,0,0,0,0,0,0,0,0,0,0,0,0,0,0,0,0,0,0,0],"sum_hessian":[8.904358E2,5.536896E2,3.3674625E2,2.4237828E2,3.1131128E2,1.5789659E2,1.7884966E2,8.494797E1,1.5743031E2,2.0944635E2,1.0186492E2,1.2487354E1,1.4540923E2,9.392522E1,8.492443E1,5.9983478E0,7.894962E1,8.496134E1,7.246897E1,7.9967494E0,2.014496E2,1.4995709E1,8.686921E1,1.098769E1,1.4996647E0,7.29485E1,7.246073E1,7.8935905E1,1.4989308E1,8.2926216E1,1.9982216E0],"tree_param":{"num_deleted":"0","num_feature":"61","num_nodes":"31","size_leaf_vector":"0"}},{"base_weights":[1.0155599E-1,-3.5513785E-2,3.263686E-1,1.8620402E-1,-2.0818058E-1,1.3122675E-1,4.9696115E-1,4.244267E-1,5.579362E-2,-1.0736707E-1,-4.1240624E-1,7.5605166E-1,7.277099E-2,3.4463137E-1,6.5946406E-1,-5.7129186E-1,5.0627774E-1,2.6430157E-1,-1.8892759E-1,-8.947182E-1,-7.1847275E-2,2.3938076E-1,-5.2636415E-1,8.929505E-1,-2.0293772E-1,2.691425E-1,-1.2589502E-1,4.257091E-1,-8.22571E-2,6.877912E-1,-3.534216E-1],"categories":[],"categories_nodes":[],"categories_segments":[],"categories_sizes":[],"default_left":[1,1,1,1,1,1,1,1,1,1,1,1,1,1,1,0,0,0,0,0,0,0,0,0,0,0,0,0,0,0,0],"id":15,"left_children":[1,3,5,7,9,11,13,15,17,19,21,23,25,27,29,-1,-1,-1,-1,-1,-1,-1,-1,-1,-1,-1,-1,-1,-1,-1,-1],"loss_changes":[2.7481195E1,2.127411E1,1.1178272E1,7.537284E0,6.385807E0,5.748618E0,4.2247353E0,7.2940407E0,8.134049E0,5.8211756E0,7.766424E0,1.9518929E0,5.7456517E0,3.320487E0,2.7084427E0,0E0,0E0,0E0,0E0,0E0,0E0,0E0,0E0,0E0,0E0,0E0,0E0,0E0,0E0,0E0,0E0],"parents":[2147483647,0,0,1,1,2,2,3,3,4,4,5,5,6,6,7,7,8,8,9,9,10,10,11,11,12,12,13,13,14,14],"right_children":[2,4,6,8,10,12,14,16,18,20,22,24,26,28,30,-1,-1,-1,-1,-1,-1,-1,-1,-1,-1,-1,-1,-1,-1,-1,-1],"split_conditions":[2.4772727E0,2.2207142E1,7.707143E0,1.0903968E2,5.707143E0,1.7321429E0,9.5E0,4.1964283E0,1.7155385E4,2.2535713E1,3.875E-1,1.5783334E2,1.9372549E0,3.5E0,2.4222221E0,-5.7129185E-3,5.062777E-3,2.6430157E-3,-1.8892759E-3,-8.947182E-3,-7.1847276E-4,2.3938075E-3,-5.2636415E-3,8.929505E-3,-2.0293773E-3,2.691425E-3,-1.2589502E-3,4.257091E-3,-8.22571E-4,6.877912E-3,-3.534216E-3],"split_indices":[29,58,55,15,26,20,30,56,34,58,48,43,21,31,6,0,0,0,0,0,0,0,0,0,0,0,0,0,0,0,0],"split_type":[0,0,0,0,0,0,0,0,0,0,0,0,0,0,0,0,0,0,0,0,0,0,0,0,0,0,0,0,0,0,0],"sum_hessian":[8.904358E2,5.536896E2,3.3674625E2,2.4237828E2,3.1131128E2,1.5789659E2,1.7884966E2,8.4947975E1,1.5743031E2,2.0944635E2,1.0186492E2,1.2487354E1,1.4540923E2,9.392522E1,8.492444E1,5.9983478E0,7.894962E1,8.496134E1,7.246897E1,7.9967494E0,2.014496E2,1.4995709E1,8.686921E1,1.098769E1,1.4996647E0,7.29485E1,7.246073E1,7.8935905E1,1.4989309E1,8.2926216E1,1.9982218E0],"tree_param":{"num_deleted":"0","num_feature":"61","num_nodes":"31","size_leaf_vector":"0"}},{"base_weights":[-1.0055723E-1,-2.4368541E-1,1.106473E-1,1.2315706E-1,-3.3369195E-1,2.5067565E-1,-1.2699753E-1,1.9707963E-1,-7.4392146E-1,-3.6462522E-1,1.8977083E-1,-3.724855E-1,2.9799932E-1,-5.529668E-1,-2.0043712E-2,2.562542E-2,4.853994E-1,-8.365474E-1,-1.8681748E-1,5.6759056E-2,-4.0856862E-1,-6.934071E-1,3.2159835E-1,-7.492704E-1,6.99724E-2,1.7017354E-1,5.6968683E-1,1.6566564E-3,-7.4777764E-1,-3.359816E-1,1.3488178E-1],"categories":[],"categories_nodes":[],"categories_segments":[],"categories_sizes":[],"default_left":[1,1,1,1,1,1,1,1,1,1,1,1,1,1,1,0,0,0,0,0,0,0,0,0,0,0,0,0,0,0,0],"id":16,"left_children":[1,3,5,7,9,11,13,15,17,19,21,23,25,27,29,-1,-1,-1,-1,-1,-1,-1,-1,-1,-1,-1,-1,-1,-1,-1,-1],"loss_changes":[2.6970818E1,1.7593325E1,1.2035624E1,6.9064107E0,6.9854546E0,6.814604E0,6.112398E0,4.83049E0,2.8204346E-1,7.49741E0,3.074295E0,2.8012812E0,7.2595215E0,2.9116945E0,5.3546095E0,0E0,0E0,0E0,0E0,0E0,0E0,0E0,0E0,0E0,0E0,0E0,0E0,0E0,0E0,0E0,0E0],"parents":[2147483647,0,0,1,1,2,2,3,3,4,4,5,5,6,6,7,7,8,8,9,9,10,10,11,11,12,12,13,13,14,14],"right_children":[2,4,6,8,10,12,14,16,18,20,22,24,26,28,30,-1,-1,-1,-1,-1,-1,-1,-1,-1,-1,-1,-1,-1,-1,-1,-1],"split_conditions":[2.4320513E1,-5.6396103E0,2.3875E0,1.3038461E0,2.9925E2,3.1666666E-1,7.081169E0,1.1547619E0,1.3057272E2,3.693182E-1,1.2916667E0,7.1714287E0,5.707143E0,8.0691963E-1,1.0847917E2,2.562542E-4,4.8539937E-3,-8.365474E-3,-1.8681748E-3,5.675905E-4,-4.085686E-3,-6.934071E-3,3.2159835E-3,-7.492704E-3,6.99724E-4,1.7017354E-3,5.696868E-3,1.6566564E-5,-7.477776E-3,-3.359816E-3,1.3488177E-3],"split_indices":[58,29,29,39,42,48,27,11,45,18,35,55,26,7,13,0,0,0,0,0,0,0,0,0,0,0,0,0,0,0,0],"split_type":[0,0,0,0,0,0,0,0,0,0,0,0,0,0,0,0,0,0,0,0,0,0,0,0,0,0,0,0,0,0,0],"sum_hessian":[8.903153E2,5.305921E2,3.5972318E2,1.04462555E2,4.2612958E2,2.263156E2,1.334076E2,9.696826E1,7.4942966E0,4.0263962E2,2.3489956E1,1.5488687E1,2.108269E2,2.5937025E1,1.0747057E2,6.1490673E1,3.5477585E1,5.9958134E0,1.4984831E0,3.799589E1,3.646437E2,2.497566E0,2.099239E1,7.990646E0,7.4980407E0,1.4447804E2,6.634886E1,6.9999046E0,1.893712E1,3.497591E1,7.249466E1],"tree_param":{"num_deleted":"0","num_feature":"61","num_nodes":"31","size_leaf_vector":"0"}},{"base_weights":[1.0055722E-1,2.4368541E-1,-1.1064731E-1,-1.2315706E-1,3.3369195E-1,-2.5067565E-1,1.2699753E-1,-1.9707963E-1,7.4392146E-1,3.6462522E-1,-1.8977083E-1,3.7248546E-1,-2.9799935E-1,5.529668E-1,2.0043712E-2,-2.5625417E-2,-4.853994E-1,8.365473E-1,1.8681745E-1,-5.6759063E-2,4.0856862E-1,6.934072E-1,-3.2159835E-1,7.492703E-1,-6.997237E-2,-1.7017356E-1,-5.696869E-1,-1.6566899E-3,7.477777E-1,3.3598167E-1,-1.3488181E-1],"categories":[],"categories_nodes":[],"categories_segments":[],"categories_sizes":[],"default_left":[1,1,1,1,1,1,1,1,1,1,1,1,1,1,1,0,0,0,0,0,0,0,0,0,0,0,0,0,0,0,0],"id":17,"left_children":[1,3,5,7,9,11,13,15,17,19,21,23,25,27,29,-1,-1,-1,-1,-1,-1,-1,-1,-1,-1,-1,-1,-1,-1,-1,-1],"loss_changes":[2.6970823E1,1.7593325E1,1.2035625E1,6.9064107E0,6.9854546E0,6.814603E0,6.112398E0,4.830489E0,2.8204298E-1,7.497406E0,3.0742948E0,2.8012805E0,7.2595215E0,2.9116955E0,5.3546104E0,0E0,0E0,0E0,0E0,0E0,0E0,0E0,0E0,0E0,0E0,0E0,0E0,0E0,0E0,0E0,0E0],"parents":[2147483647,0,0,1,1,2,2,3,3,4,4,5,5,6,6,7,7,8,8,9,9,10,10,11,11,12,12,13,13,14,14],"right_children":[2,4,6,8,10,12,14,16,18,20,22,24,26,28,30,-1,-1,-1,-1,-1,-1,-1,-1,-1,-1,-1,-1,-1,-1,-1,-1],"split_conditions":[2.4320513E1,-5.6396103E0,2.3875E0,1.3038461E0,2.9925E2,3.1666666E-1,7.081169E0,1.1547619E0,1.3057272E2,3.693182E-1,1.2916667E0,7.1714287E0,5.707143E0,8.0691963E-1,1.0847917E2,-2.5625416E-4,-4.8539937E-3,8.365473E-3,1.8681745E-3,-5.6759064E-4,4.085686E-3,6.9340714E-3,-3.2159835E-3,7.492703E-3,-6.997237E-4,-1.7017355E-3,-5.696869E-3,-1.6566899E-5,7.4777766E-3,3.3598165E-3,-1.3488181E-3],"split_indices":[58,29,29,39,42,48,27,11,45,18,35,55,26,7,13,0,0,0,0,0,0,0,0,0,0,0,0,0,0,0,0],"split_type":[0,0,0,0,0,0,0,0,0,0,0,0,0,0,0,0,0,0,0,0,0,0,0,0,0,0,0,0,0,0,0],"sum_hessian":[8.903153E2,5.305921E2,3.597232E2,1.04462555E2,4.2612958E2,2.263156E2,1.334076E2,9.696826E1,7.4942966E0,4.0263962E2,2.3489956E1,1.5488687E1,2.1082692E2,2.5937025E1,1.0747057E2,6.1490673E1,3.547759E1,5.9958134E0,1.4984831E0,3.7995888E1,3.6464374E2,2.497566E0,2.0992392E1,7.990646E0,7.4980407E0,1.4447804E2,6.634887E1,6.9999046E0,1.893712E1,3.4975906E1,7.249466E1],"tree_param":{"num_deleted":"0","num_feature":"61","num_nodes":"31","size_leaf_vector":"0"}},{"base_weights":[-9.9595614E-2,3.517597E-2,-3.206702E-1,-1.8267798E-1,2.048401E-1,-1.2818365E-1,-4.889986E-1,-4.1803142E-1,-5.3873602E-2,1.05820596E-1,4.05557E-1,-7.466147E-1,-7.0369884E-2,-3.3835158E-1,-6.497752E-1,5.667872E-1,-4.9903095E-1,-2.6028517E-1,1.8833949E-1,8.8729274E-1,7.056934E-2,-2.3558977E-1,5.1772404E-1,-8.822757E-1,2.0212469E-1,-2.6462185E-1,1.2609707E-1,-4.187018E-1,8.4386356E-2,-6.7790437E-1,3.537969E-1],"categories":[],"categories_nodes":[],"categories_segments":[],"categories_sizes":[],"default_left":[1,1,1,1,1,1,1,1,1,1,1,1,1,1,1,0,0,0,0,0,0,0,0,0,0,0,0,0,0,0,0],"id":18,"left_children":[1,3,5,7,9,11,13,15,17,19,21,23,25,27,29,-1,-1,-1,-1,-1,-1,-1,-1,-1,-1,-1,-1,-1,-1,-1,-1],"loss_changes":[2.656231E1,2.0534058E1,1.0876011E1,7.3534784E0,6.162366E0,5.627141E0,4.1337585E0,7.136181E0,7.9683995E0,5.7342196E0,7.5141315E0,1.9128928E0,5.619765E0,3.2582703E0,2.663765E0,0E0,0E0,0E0,0E0,0E0,0E0,0E0,0E0,0E0,0E0,0E0,0E0,0E0,0E0,0E0,0E0],"parents":[2147483647,0,0,1,1,2,2,3,3,4,4,5,5,6,6,7,7,8,8,9,9,10,10,11,11,12,12,13,13,14,14],"right_children":[2,4,6,8,10,12,14,16,18,20,22,24,26,28,30,-1,-1,-1,-1,-1,-1,-1,-1,-1,-1,-1,-1,-1,-1,-1,-1],"split_conditions":[2.4772727E0,2.2207142E1,7.707143E0,1.0903968E2,5.707143E0,1.7321429E0,9.5E0,4.1964283E0,1.7155385E4,2.2535713E1,3.875E-1,1.5783334E2,1.9372549E0,3.5E0,2.4222221E0,5.667872E-3,-4.9903095E-3,-2.6028517E-3,1.8833948E-3,8.872927E-3,7.056933E-4,-2.3558976E-3,5.1772404E-3,-8.822757E-3,2.0212468E-3,-2.6462185E-3,1.2609706E-3,-4.1870177E-3,8.438635E-4,-6.7790435E-3,3.537969E-3],"split_indices":[29,58,55,15,26,20,30,56,34,58,48,43,21,31,6,0,0,0,0,0,0,0,0,0,0,0,0,0,0,0,0],"split_type":[0,0,0,0,0,0,0,0,0,0,0,0,0,0,0,0,0,0,0,0,0,0,0,0,0,0,0,0,0,0,0],"sum_hessian":[8.901366E2,5.5353265E2,3.3660394E2,2.4231544E2,3.112172E2,1.578552E2,1.7874873E2,8.491391E1,1.5740154E2,2.0942766E2,1.01789536E2,1.2476844E1,1.4537834E2,9.3884155E1,8.4864586E1,5.9974566E0,7.891646E1,8.4941025E1,7.24605E1,7.996034E0,2.0143163E2,1.4992431E1,8.679711E1,1.0977252E1,1.4995918E0,7.292681E1,7.245154E1,7.889757E1,1.4986591E1,8.2866425E1,1.9981555E0],"tree_param":{"num_deleted":"0","num_feature":"61","num_nodes":"31","size_leaf_vector":"0"}},{"base_weights":[9.959563E-2,-3.5175942E-2,3.206702E-1,1.8267803E-1,-2.0484006E-1,1.2818365E-1,4.889986E-1,4.1803148E-1,5.3873636E-2,-1.0582057E-1,-4.05557E-1,7.4661463E-1,7.03699E-2,3.3835155E-1,6.497752E-1,-5.667872E-1,4.9903098E-1,2.6028517E-1,-1.8833944E-1,-8.8729274E-1,-7.05693E-2,2.3558976E-1,-5.1772404E-1,8.822757E-1,-2.021247E-1,2.6462188E-1,-1.2609705E-1,4.1870177E-1,-8.438638E-2,6.7790437E-1,-3.5379696E-1],"categories":[],"categories_nodes":[],"categories_segments":[],"categories_sizes":[],"default_left":[1,1,1,1,1,1,1,1,1,1,1,1,1,1,1,0,0,0,0,0,0,0,0,0,0,0,0,0,0,0,0],"id":19,"left_children":[1,3,5,7,9,11,13,15,17,19,21,23,25,27,29,-1,-1,-1,-1,-1,-1,-1,-1,-1,-1,-1,-1,-1,-1,-1,-1],"loss_changes":[2.6562307E1,2.0534058E1,1.0876007E1,7.3534784E0,6.162367E0,5.627141E0,4.1337585E0,7.1361837E0,7.968398E0,5.7342205E0,7.5141315E0,1.9128933E0,5.6197643E0,3.2582712E0,2.663765E0,0E0,0E0,0E0,0E0,0E0,0E0,0E0,0E0,0E0,0E0,0E0,0E0,0E0,0E0,0E0,0E0],"parents":[2147483647,0,0,1,1,2,2,3,3,4,4,5,5,6,6,7,7,8,8,9,9,10,10,11,11,12,12,13,13,14,14],"right_children":[2,4,6,8,10,12,14,16,18,20,22,24,26,28,30,-1,-1,-1,-1,-1,-1,-1,-1,-1,-1,-1,-1,-1,-1,-1,-1],"split_conditions":[2.4772727E0,2.2207142E1,7.707143E0,1.0903968E2,5.707143E0,1.7321429E0,9.5E0,4.1964283E0,1.7155385E4,2.2535713E1,3.875E-1,1.5783334E2,1.9372549E0,3.5E0,2.4222221E0,-5.667872E-3,4.9903095E-3,2.6028517E-3,-1.8833944E-3,-8.872927E-3,-7.05693E-4,2.3558976E-3,-5.1772404E-3,8.822757E-3,-2.021247E-3,2.6462188E-3,-1.2609705E-3,4.1870177E-3,-8.4386376E-4,6.7790435E-3,-3.5379694E-3],"split_indices":[29,58,55,15,26,20,30,56,34,58,48,43,21,31,6,0,0,0,0,0,0,0,0,0,0,0,0,0,0,0,0],"split_type":[0,0,0,0,0,0,0,0,0,0,0,0,0,0,0,0,0,0,0,0,0,0,0,0,0,0,0,0,0,0,0],"sum_hessian":[8.901366E2,5.5353265E2,3.3660394E2,2.4231544E2,3.112172E2,1.578552E2,1.7874873E2,8.491391E1,1.5740154E2,2.0942767E2,1.01789536E2,1.2476844E1,1.4537834E2,9.3884155E1,8.4864586E1,5.997456E0,7.891645E1,8.494103E1,7.24605E1,7.996034E0,2.0143164E2,1.4992431E1,8.679711E1,1.0977252E1,1.4995918E0,7.292681E1,7.245154E1,7.889756E1,1.4986591E1,8.2866425E1,1.9981555E0],"tree_param":{"num_deleted":"0","num_feature":"61","num_nodes":"31","size_leaf_vector":"0"}},{"base_weights":[-9.862003E-2,-2.4184458E-1,1.0549449E-1,5.3994223E-3,-3.6845526E-1,2.3925696E-1,-1.2091569E-1,-3.6336032E-1,8.084763E-2,4.655552E-1,-3.907899E-1,1.1518721E-1,4.7645223E-1,-5.456567E-1,-1.7275438E-2,2.2699341E-1,-5.834106E-1,-7.747665E-2,3.8219762E-1,-3.1402722E-1,7.1525383E-1,-2.2215308E-1,-4.7487557E-1,-9.324382E-3,3.2911828E-1,-1.9865888E-1,5.8235484E-1,3.2636863E-3,-7.387836E-1,-3.2098868E-1,1.3165884E-1],"categories":[],"categories_nodes":[],"categories_segments":[],"categories_sizes":[],"default_left":[1,1,1,1,1,1,1,1,1,1,1,1,1,1,1,0,0,0,0,0,0,0,0,0,0,0,0,0,0,0,0],"id":20,"left_children":[1,3,5,7,9,11,13,15,17,19,21,23,25,27,29,-1,-1,-1,-1,-1,-1,-1,-1,-1,-1,-1,-1,-1,-1,-1,-1],"loss_changes":[2.6072586E1,1.6401682E1,1.1176596E1,4.993075E0,6.635971E0,6.764429E0,6.0375066E0,4.0925694E0,7.1348853E0,2.0725362E0,4.6871643E0,4.090785E0,5.78261E0,2.8553238E0,5.083769E0,0E0,0E0,0E0,0E0,0E0,0E0,0E0,0E0,0E0,0E0,0E0,0E0,0E0,0E0,0E0,0E0],"parents":[2147483647,0,0,1,1,2,2,3,3,4,4,5,5,6,6,7,7,8,8,9,9,10,10,11,11,12,12,13,13,14,14],"right_children":[2,4,6,8,10,12,14,16,18,20,22,24,26,28,30,-1,-1,-1,-1,-1,-1,-1,-1,-1,-1,-1,-1,-1,-1,-1,-1],"split_conditions":[2.4179144E1,-2.5857143E0,2.3875E0,1.6767857E1,5.5857143E0,5.6899037E0,7.081169E0,3.6547618E0,1.0801282E0,2.26125E2,8.144047E-1,6.5E0,3.6666667E-1,8.0691963E-1,1.0847917E2,2.2699342E-3,-5.834106E-3,-7.747665E-4,3.821976E-3,-3.140272E-3,7.1525383E-3,-2.2215308E-3,-4.7487556E-3,-9.324382E-5,3.2911827E-3,-1.9865888E-3,5.8235484E-3,3.263686E-5,-7.387836E-3,-3.2098868E-3,1.3165884E-3],"split_indices":[58,29,29,58,57,26,27,24,11,42,7,31,48,7,13,0,0,0,0,0,0,0,0,0,0,0,0,0,0,0,0],"split_type":[0,0,0,0,0,0,0,0,0,0,0,0,0,0,0,0,0,0,0,0,0,0,0,0,0,0,0,0,0,0,0],"sum_hessian":[8.8997925E2,5.2288947E2,3.6708972E2,1.7740744E2,3.4548206E2,2.307227E2,1.3636703E2,2.94843E1,1.4792313E2,8.493068E0,3.3698898E2,1.524607E2,7.826201E1,2.59114E1,1.10455635E2,7.997351E0,2.1486948E1,9.7461426E1,5.046171E1,1.9978791E0,6.4951887E0,1.1333453E2,2.2365445E2,9.697562E1,5.5485077E1,1.0493278E1,6.776873E1,6.9996243E0,1.8911776E1,3.5963028E1,7.449261E1],"tree_param":{"num_deleted":"0","num_feature":"61","num_nodes":"31","size_leaf_vector":"0"}},{"base_weights":[9.862003E-2,2.4184458E-1,-1.0549449E-1,-5.399429E-3,3.6845526E-1,-2.3925696E-1,1.2091568E-1,3.6336032E-1,-8.0847636E-2,-4.655552E-1,3.907899E-1,-1.1518721E-1,-4.7645223E-1,5.456567E-1,1.7275428E-2,-2.2699343E-1,5.834106E-1,7.747665E-2,-3.8219765E-1,3.140272E-1,-7.1525383E-1,2.2215308E-1,4.7487557E-1,9.324385E-3,-3.2911828E-1,1.9865893E-1,-5.8235484E-1,-3.263705E-3,7.3878366E-1,3.2098863E-1,-1.3165884E-1],"categories":[],"categories_nodes":[],"categories_segments":[],"categories_sizes":[],"default_left":[1,1,1,1,1,1,1,1,1,1,1,1,1,1,1,0,0,0,0,0,0,0,0,0,0,0,0,0,0,0,0],"id":21,"left_children":[1,3,5,7,9,11,13,15,17,19,21,23,25,27,29,-1,-1,-1,-1,-1,-1,-1,-1,-1,-1,-1,-1,-1,-1,-1,-1],"loss_changes":[2.6072586E1,1.6401682E1,1.1176594E1,4.993075E0,6.635971E0,6.76443E0,6.037508E0,4.09257E0,7.1348867E0,2.0725362E0,4.6871643E0,4.090785E0,5.78261E0,2.8553228E0,5.0837674E0,0E0,0E0,0E0,0E0,0E0,0E0,0E0,0E0,0E0,0E0,0E0,0E0,0E0,0E0,0E0,0E0],"parents":[2147483647,0,0,1,1,2,2,3,3,4,4,5,5,6,6,7,7,8,8,9,9,10,10,11,11,12,12,13,13,14,14],"right_children":[2,4,6,8,10,12,14,16,18,20,22,24,26,28,30,-1,-1,-1,-1,-1,-1,-1,-1,-1,-1,-1,-1,-1,-1,-1,-1],"split_conditions":[2.4179144E1,-2.5857143E0,2.3875E0,1.6767857E1,5.5857143E0,5.6899037E0,7.081169E0,3.6547618E0,1.0801282E0,2.26125E2,8.144047E-1,6.5E0,3.6666667E-1,8.0691963E-1,1.0847917E2,-2.2699342E-3,5.834106E-3,7.747665E-4,-3.8219765E-3,3.1402719E-3,-7.1525383E-3,2.2215308E-3,4.7487556E-3,9.324385E-5,-3.2911827E-3,1.9865893E-3,-5.8235484E-3,-3.263705E-5,7.3878365E-3,3.2098861E-3,-1.3165884E-3],"split_indices":[58,29,29,58,57,26,27,24,11,42,7,31,48,7,13,0,0,0,0,0,0,0,0,0,0,0,0,0,0,0,0],"split_type":[0,0,0,0,0,0,0,0,0,0,0,0,0,0,0,0,0,0,0,0,0,0,0,0,0,0,0,0,0,0,0],"sum_hessian":[8.899792E2,5.2288947E2,3.6708972E2,1.7740742E2,3.4548206E2,2.307227E2,1.3636703E2,2.94843E1,1.4792313E2,8.493068E0,3.3698898E2,1.524607E2,7.826201E1,2.59114E1,1.10455635E2,7.997351E0,2.1486948E1,9.7461426E1,5.0461708E1,1.9978791E0,6.495188E0,1.1333453E2,2.2365445E2,9.697562E1,5.5485077E1,1.0493278E1,6.776873E1,6.9996247E0,1.8911776E1,3.596303E1,7.449261E1],"tree_param":{"num_deleted":"0","num_feature":"61","num_nodes":"31","size_leaf_vector":"0"}},{"base_weights":[-9.7662695E-2,3.475486E-2,-3.1492168E-1,-1.7913494E-1,2.0133877E-1,-1.2518196E-1,-4.809201E-1,6.679382E-2,-2.9884717E-1,1.0421578E-1,3.9836562E-1,-7.373444E-1,-6.800982E-2,-3.3170232E-1,-6.402679E-1,-1.02644E-1,3.9727184E-1,1.5196094E-1,-4.1580775E-1,8.8039345E-1,6.921136E-2,-2.3205568E-1,5.087562E-1,-8.7182E-1,2.0129085E-1,-2.601333E-1,1.2624258E-1,-4.1121644E-1,8.6273685E-2,-6.682243E-1,3.546216E-1],"categories":[],"categories_nodes":[],"categories_segments":[],"categories_sizes":[],"default_left":[1,1,1,1,1,1,1,1,1,1,1,1,1,1,1,0,0,0,0,0,0,0,0,0,0,0,0,0,0,0,0],"id":22,"left_children":[1,3,5,7,9,11,13,15,17,19,21,23,25,27,29,-1,-1,-1,-1,-1,-1,-1,-1,-1,-1,-1,-1,-1,-1,-1,-1],"loss_changes":[2.5637585E1,1.9787968E1,1.0567455E1,7.1811967E0,5.930958E0,5.507781E0,4.0585327E0,4.5459456E0,8.699137E0,5.6558547E0,7.2651253E0,1.8748202E0,5.4943614E0,3.187254E0,2.6229782E0,0E0,0E0,0E0,0E0,0E0,0E0,0E0,0E0,0E0,0E0,0E0,0E0,0E0,0E0,0E0,0E0],"parents":[2147483647,0,0,1,1,2,2,3,3,4,4,5,5,6,6,7,7,8,8,9,9,10,10,11,11,12,12,13,13,14,14],"right_children":[2,4,6,8,10,12,14,16,18,20,22,24,26,28,30,-1,-1,-1,-1,-1,-1,-1,-1,-1,-1,-1,-1,-1,-1,-1,-1],"split_conditions":[2.4772727E0,2.2207142E1,7.707143E0,-5.577778E0,5.707143E0,1.7321429E0,9.5E0,1.1547619E0,4.651515E0,2.2535713E1,3.875E-1,1.5783334E2,1.9372549E0,3.5E0,2.4222221E0,-1.02644E-3,3.9727185E-3,1.5196094E-3,-4.1580773E-3,8.803934E-3,6.9211354E-4,-2.3205567E-3,5.087562E-3,-8.718199E-3,2.0129085E-3,-2.601333E-3,1.2624258E-3,-4.1121645E-3,8.6273684E-4,-6.6822427E-3,3.5462158E-3],"split_indices":[29,58,55,29,26,20,30,11,56,58,48,43,21,31,6,0,0,0,0,0,0,0,0,0,0,0,0,0,0,0,0],"split_type":[0,0,0,0,0,0,0,0,0,0,0,0,0,0,0,0,0,0,0,0,0,0,0,0,0,0,0,0,0,0,0],"sum_hessian":[8.897757E2,5.533522E2,3.3642352E2,2.422428E2,3.1110938E2,1.5780414E2,1.7861938E2,7.9455925E1,1.6278687E2,2.0941075E2,1.01698616E2,1.2462866E1,1.4534128E2,9.383307E1,8.478631E1,5.298146E1,2.6474466E1,3.3472515E1,1.2931436E2,7.9943995E0,2.0141635E2,1.4990187E1,8.670843E1,1.096336E1,1.499506E0,7.290054E1,7.2440735E1,7.8849266E1,1.4983802E1,8.278831E1,1.9980056E0],"tree_param":{"num_deleted":"0","num_feature":"61","num_nodes":"31","size_leaf_vector":"0"}},{"base_weights":[9.766269E-2,-3.475487E-2,3.1492168E-1,1.7913494E-1,-2.0133878E-1,1.2518194E-1,4.809201E-1,-6.6793814E-2,2.9884717E-1,-1.0421579E-1,-3.9836562E-1,7.373444E-1,6.8009816E-2,3.3170232E-1,6.402679E-1,1.0264401E-1,-3.9727187E-1,-1.5196092E-1,4.1580772E-1,-8.8039345E-1,-6.921137E-2,2.3205566E-1,-5.087562E-1,8.7182E-1,-2.0129082E-1,2.601333E-1,-1.2624256E-1,4.1121644E-1,-8.627369E-2,6.682243E-1,-3.5462153E-1],"categories":[],"categories_nodes":[],"categories_segments":[],"categories_sizes":[],"default_left":[1,1,1,1,1,1,1,1,1,1,1,1,1,1,1,0,0,0,0,0,0,0,0,0,0,0,0,0,0,0,0],"id":23,"left_children":[1,3,5,7,9,11,13,15,17,19,21,23,25,27,29,-1,-1,-1,-1,-1,-1,-1,-1,-1,-1,-1,-1,-1,-1,-1,-1],"loss_changes":[2.5637585E1,1.9787968E1,1.0567455E1,7.181193E0,5.930958E0,5.507781E0,4.058529E0,4.5459466E0,8.69914E0,5.6558537E0,7.2651253E0,1.8748198E0,5.494361E0,3.187254E0,2.6229782E0,0E0,0E0,0E0,0E0,0E0,0E0,0E0,0E0,0E0,0E0,0E0,0E0,0E0,0E0,0E0,0E0],"parents":[2147483647,0,0,1,1,2,2,3,3,4,4,5,5,6,6,7,7,8,8,9,9,10,10,11,11,12,12,13,13,14,14],"right_children":[2,4,6,8,10,12,14,16,18,20,22,24,26,28,30,-1,-1,-1,-1,-1,-1,-1,-1,-1,-1,-1,-1,-1,-1,-1,-1],"split_conditions":[2.4772727E0,2.2207142E1,7.707143E0,-5.577778E0,5.707143E0,1.7321429E0,9.5E0,1.1547619E0,4.651515E0,2.2535713E1,3.875E-1,1.5783334E2,1.9372549E0,3.5E0,2.4222221E0,1.0264401E-3,-3.9727185E-3,-1.5196092E-3,4.1580773E-3,-8.803934E-3,-6.921137E-4,2.3205567E-3,-5.087562E-3,8.718199E-3,-2.0129082E-3,2.601333E-3,-1.2624256E-3,4.1121645E-3,-8.627369E-4,6.6822427E-3,-3.5462151E-3],"split_indices":[29,58,55,29,26,20,30,11,56,58,48,43,21,31,6,0,0,0,0,0,0,0,0,0,0,0,0,0,0,0,0],"split_type":[0,0,0,0,0,0,0,0,0,0,0,0,0,0,0,0,0,0,0,0,0,0,0,0,0,0,0,0,0,0,0],"sum_hessian":[8.897757E2,5.533522E2,3.3642352E2,2.422428E2,3.1110938E2,1.5780414E2,1.7861938E2,7.9455925E1,1.6278688E2,2.0941075E2,1.01698616E2,1.2462866E1,1.4534128E2,9.383307E1,8.478631E1,5.298146E1,2.6474464E1,3.3472515E1,1.2931436E2,7.9943995E0,2.0141635E2,1.4990187E1,8.670843E1,1.096336E1,1.499506E0,7.290054E1,7.244074E1,7.8849266E1,1.4983802E1,8.278831E1,1.9980056E0],"tree_param":{"num_deleted":"0","num_feature":"61","num_nodes":"31","size_leaf_vector":"0"}},{"base_weights":[-9.670971E-2,-2.3514794E-1,1.07554145E-1,1.205459E-1,-3.2247278E-1,2.4236093E-1,-1.2118809E-1,1.9385625E-1,-7.3918885E-1,-3.5285246E-1,1.9113475E-1,-3.6644223E-1,2.8862783E-1,-5.385417E-1,-1.661216E-2,-1.3857922E-1,3.3560345E-1,-8.315923E-1,-1.8455523E-1,6.336064E-2,-3.9631334E-1,-6.8499225E-1,3.217342E-1,-7.407271E-1,7.2427526E-2,1.6587014E-1,5.50119E-1,4.822085E-3,-7.300633E-1,-3.2605594E-1,1.3499121E-1],"categories":[],"categories_nodes":[],"categories_segments":[],"categories_sizes":[],"default_left":[1,1,1,1,1,1,1,1,1,1,1,1,1,1,1,0,0,0,0,0,0,0,0,0,0,0,0,0,0,0,0],"id":24,"left_children":[1,3,5,7,9,11,13,15,17,19,21,23,25,27,29,-1,-1,-1,-1,-1,-1,-1,-1,-1,-1,-1,-1,-1,-1,-1,-1],"loss_changes":[2.5209038E1,1.653638E1,1.114407E1,6.7877455E0,6.725548E0,6.503232E0,5.8535824E0,4.6611757E0,2.8168154E-1,7.319195E0,3.0213118E0,2.7610288E0,6.702429E0,2.8009791E0,5.131277E0,0E0,0E0,0E0,0E0,0E0,0E0,0E0,0E0,0E0,0E0,0E0,0E0,0E0,0E0,0E0,0E0],"parents":[2147483647,0,0,1,1,2,2,3,3,4,4,5,5,6,6,7,7,8,8,9,9,10,10,11,11,12,12,13,13,14,14],"right_children":[2,4,6,8,10,12,14,16,18,20,22,24,26,28,30,-1,-1,-1,-1,-1,-1,-1,-1,-1,-1,-1,-1,-1,-1,-1,-1],"split_conditions":[2.4320513E1,-5.6396103E0,2.3875E0,1.3038461E0,2.9925E2,3.1666666E-1,7.081169E0,1.5E0,1.3057272E2,3.693182E-1,1.2916667E0,7.1714287E0,5.707143E0,8.0691963E-1,1.0847917E2,-1.3857922E-3,3.3560344E-3,-8.315923E-3,-1.8455522E-3,6.336064E-4,-3.9631333E-3,-6.8499222E-3,3.2173418E-3,-7.4072713E-3,7.2427525E-4,1.6587015E-3,5.5011897E-3,4.822085E-5,-7.300633E-3,-3.2605594E-3,1.3499121E-3],"split_indices":[58,29,29,39,42,48,27,31,45,18,35,55,26,7,13,0,0,0,0,0,0,0,0,0,0,0,0,0,0,0,0],"split_type":[0,0,0,0,0,0,0,0,0,0,0,0,0,0,0,0,0,0,0,0,0,0,0,0,0,0,0,0,0,0,0],"sum_hessian":[8.8957965E2,5.3013416E2,3.5944547E2,1.0442148E2,4.257127E2,2.2612285E2,1.3332262E2,9.693063E1,7.4908457E0,4.022337E2,2.347898E1,1.5482048E1,2.106408E2,2.5881601E1,1.0744101E2,2.898211E1,6.7948524E1,5.9930353E0,1.4978102E0,3.798676E1,3.6424695E2,2.4951653E0,2.0983814E1,7.9846373E0,7.4974103E0,1.4445865E2,6.618215E1,6.9991684E0,1.8882433E1,3.49508E1,7.249021E1],"tree_param":{"num_deleted":"0","num_feature":"61","num_nodes":"31","size_leaf_vector":"0"}},{"base_weights":[9.670971E-2,2.3514792E-1,-1.0755414E-1,-1.2054593E-1,3.2247278E-1,-2.4236092E-1,1.2118808E-1,-1.9385628E-1,7.3918885E-1,3.5285246E-1,-1.9113475E-1,3.6644223E-1,-2.886278E-1,5.385417E-1,1.6612139E-2,1.3857919E-1,-3.356035E-1,8.315923E-1,1.8455522E-1,-6.336064E-2,3.9631334E-1,6.8499225E-1,-3.217342E-1,7.407272E-1,-7.242758E-2,-1.6587014E-1,-5.501189E-1,-4.8221224E-3,7.300633E-1,3.260559E-1,-1.3499123E-1],"categories":[],"categories_nodes":[],"categories_segments":[],"categories_sizes":[],"default_left":[1,1,1,1,1,1,1,1,1,1,1,1,1,1,1,0,0,0,0,0,0,0,0,0,0,0,0,0,0,0,0],"id":25,"left_children":[1,3,5,7,9,11,13,15,17,19,21,23,25,27,29,-1,-1,-1,-1,-1,-1,-1,-1,-1,-1,-1,-1,-1,-1,-1,-1],"loss_changes":[2.5209038E1,1.6536386E1,1.114407E1,6.7877445E0,6.725544E0,6.50323E0,5.8535833E0,4.661175E0,2.81682E-1,7.319195E0,3.0213118E0,2.7610292E0,6.702429E0,2.8009806E0,5.1312776E0,0E0,0E0,0E0,0E0,0E0,0E0,0E0,0E0,0E0,0E0,0E0,0E0,0E0,0E0,0E0,0E0],"parents":[2147483647,0,0,1,1,2,2,3,3,4,4,5,5,6,6,7,7,8,8,9,9,10,10,11,11,12,12,13,13,14,14],"right_children":[2,4,6,8,10,12,14,16,18,20,22,24,26,28,30,-1,-1,-1,-1,-1,-1,-1,-1,-1,-1,-1,-1,-1,-1,-1,-1],"split_conditions":[2.4320513E1,-5.6396103E0,2.3875E0,1.3038461E0,2.9925E2,3.1666666E-1,7.081169E0,1.5E0,1.3057272E2,3.693182E-1,1.2916667E0,7.1714287E0,5.707143E0,8.0691963E-1,1.0847917E2,1.3857918E-3,-3.3560349E-3,8.315923E-3,1.8455521E-3,-6.336064E-4,3.9631333E-3,6.8499222E-3,-3.2173418E-3,7.407272E-3,-7.242758E-4,-1.6587015E-3,-5.5011893E-3,-4.8221224E-5,7.300633E-3,3.2605592E-3,-1.3499123E-3],"split_indices":[58,29,29,39,42,48,27,31,45,18,35,55,26,7,13,0,0,0,0,0,0,0,0,0,0,0,0,0,0,0,0],"split_type":[0,0,0,0,0,0,0,0,0,0,0,0,0,0,0,0,0,0,0,0,0,0,0,0,0,0,0,0,0,0,0],"sum_hessian":[8.8957965E2,5.3013416E2,3.5944547E2,1.0442148E2,4.2571268E2,2.2612283E2,1.3332262E2,9.693063E1,7.4908457E0,4.022337E2,2.347898E1,1.5482048E1,2.106408E2,2.5881601E1,1.0744102E2,2.898211E1,6.7948524E1,5.9930353E0,1.4978102E0,3.798676E1,3.6424695E2,2.4951653E0,2.0983814E1,7.9846373E0,7.4974103E0,1.4445865E2,6.618215E1,6.9991684E0,1.8882433E1,3.49508E1,7.249021E1],"tree_param":{"num_deleted":"0","num_feature":"61","num_nodes":"31","size_leaf_vector":"0"}},{"base_weights":[-9.5794916E-2,3.4418378E-2,-3.0948564E-1,-1.7576078E-1,1.9811961E-1,-1.2228137E-1,-4.733509E-1,-4.0707934E-1,-4.9250644E-2,-3.10982E-1,2.3400107E-1,-7.285299E-1,-6.572862E-2,-3.2570723E-1,-6.311188E-1,5.6317586E-1,-4.8700103E-1,-2.526453E-1,1.8930584E-1,-8.290513E-1,-4.850803E-2,1.3182692E-1,4.5258766E-1,-8.619103E-1,2.0046385E-1,-2.558013E-1,1.2638207E-1,-4.016056E-1,1.0581462E-1,-6.588976E-1,3.5490566E-1],"categories":[],"categories_nodes":[],"categories_segments":[],"categories_sizes":[],"default_left":[1,1,1,1,1,1,1,1,1,1,1,1,1,1,1,0,0,0,0,0,0,0,0,0,0,0,0,0,0,0,0],"id":26,"left_children":[1,3,5,7,9,11,13,15,17,19,21,23,25,27,29,-1,-1,-1,-1,-1,-1,-1,-1,-1,-1,-1,-1,-1,-1,-1,-1],"loss_changes":[2.4784824E1,1.9100578E1,1.0286575E1,7.095608E0,5.7717724E0,5.3947325E0,3.9748573E0,6.929819E0,7.729878E0,2.8112645E0,6.462021E0,1.8388286E0,5.374492E0,3.1465416E0,2.5810165E0,0E0,0E0,0E0,0E0,0E0,0E0,0E0,0E0,0E0,0E0,0E0,0E0,0E0,0E0,0E0,0E0],"parents":[2147483647,0,0,1,1,2,2,3,3,4,4,5,5,6,6,7,7,8,8,9,9,10,10,11,11,12,12,13,13,14,14],"right_children":[2,4,6,8,10,12,14,16,18,20,22,24,26,28,30,-1,-1,-1,-1,-1,-1,-1,-1,-1,-1,-1,-1,-1,-1,-1,-1],"split_conditions":[2.4772727E0,2.2207142E1,7.707143E0,1.0903968E2,2.6136363E-1,1.7321429E0,9.5E0,4.1964283E0,1.7155385E4,1.6333333E0,5.707143E0,1.5783334E2,1.9372549E0,8.5E0,2.4222221E0,5.6317584E-3,-4.87001E-3,-2.526453E-3,1.8930584E-3,-8.290513E-3,-4.850803E-4,1.3182692E-3,4.5258766E-3,-8.619103E-3,2.0046383E-3,-2.558013E-3,1.2638207E-3,-4.016056E-3,1.0581462E-3,-6.5889754E-3,3.5490566E-3],"split_indices":[29,58,55,15,48,20,30,56,34,10,26,43,21,0,6,0,0,0,0,0,0,0,0,0,0,0,0,0,0,0,0],"split_type":[0,0,0,0,0,0,0,0,0,0,0,0,0,0,0,0,0,0,0,0,0,0,0,0,0,0,0,0,0,0,0],"sum_hessian":[8.8934467E2,5.53131E2,3.3621365E2,2.4215276E2,3.1097824E2,1.577462E2,1.7846745E2,8.482888E1,1.5732387E2,1.996989E1,2.9100836E2,1.244567E1,1.4530054E2,9.3774796E1,8.469265E1,5.9955735E0,7.8833305E1,8.4888435E1,7.243544E1,5.989417E0,1.3980474E1,1.9940388E2,9.160447E1,1.0946269E1,1.4994012E0,7.2871025E1,7.2429504E1,7.9807205E1,1.3967593E1,8.2694695E1,1.9979526E0],"tree_param":{"num_deleted":"0","num_feature":"61","num_nodes":"31","size_leaf_vector":"0"}},{"base_weights":[9.57949E-2,-3.441838E-2,3.094856E-1,1.7576079E-1,-1.9811963E-1,1.22281335E-1,4.7335088E-1,4.0707934E-1,4.925065E-2,3.10982E-1,-2.3400109E-1,7.285299E-1,6.5728575E-2,3.2570723E-1,6.311188E-1,-5.6317586E-1,4.8700103E-1,2.5264534E-1,-1.8930586E-1,8.290514E-1,4.8508033E-2,-1.3182695E-1,-4.5258766E-1,8.619103E-1,-2.0046386E-1,2.5580123E-1,-1.263821E-1,4.016056E-1,-1.0581462E-1,6.588975E-1,-3.5490566E-1],"categories":[],"categories_nodes":[],"categories_segments":[],"categories_sizes":[],"default_left":[1,1,1,1,1,1,1,1,1,1,1,1,1,1,1,0,0,0,0,0,0,0,0,0,0,0,0,0,0,0,0],"id":27,"left_children":[1,3,5,7,9,11,13,15,17,19,21,23,25,27,29,-1,-1,-1,-1,-1,-1,-1,-1,-1,-1,-1,-1,-1,-1,-1,-1],"loss_changes":[2.4784817E1,1.9100582E1,1.0286579E1,7.0956078E0,5.7717743E0,5.394733E0,3.9748497E0,6.929821E0,7.729879E0,2.8112645E0,6.462017E0,1.8388281E0,5.3744907E0,3.1465406E0,2.5810165E0,0E0,0E0,0E0,0E0,0E0,0E0,0E0,0E0,0E0,0E0,0E0,0E0,0E0,0E0,0E0,0E0],"parents":[2147483647,0,0,1,1,2,2,3,3,4,4,5,5,6,6,7,7,8,8,9,9,10,10,11,11,12,12,13,13,14,14],"right_children":[2,4,6,8,10,12,14,16,18,20,22,24,26,28,30,-1,-1,-1,-1,-1,-1,-1,-1,-1,-1,-1,-1,-1,-1,-1,-1],"split_conditions":[2.4772727E0,2.2207142E1,7.707143E0,1.0903968E2,2.6136363E-1,1.7321429E0,9.5E0,4.1964283E0,1.7155385E4,1.6333333E0,5.707143E0,1.5783334E2,1.9372549E0,8.5E0,2.4222221E0,-5.6317584E-3,4.87001E-3,2.5264535E-3,-1.8930585E-3,8.290513E-3,4.8508032E-4,-1.3182695E-3,-4.5258766E-3,8.619103E-3,-2.0046385E-3,2.5580123E-3,-1.2638209E-3,4.016056E-3,-1.0581462E-3,6.588975E-3,-3.5490566E-3],"split_indices":[29,58,55,15,48,20,30,56,34,10,26,43,21,0,6,0,0,0,0,0,0,0,0,0,0,0,0,0,0,0,0],"split_type":[0,0,0,0,0,0,0,0,0,0,0,0,0,0,0,0,0,0,0,0,0,0,0,0,0,0,0,0,0,0,0],"sum_hessian":[8.893446E2,5.53131E2,3.3621365E2,2.4215276E2,3.1097824E2,1.577462E2,1.7846745E2,8.482888E1,1.5732387E2,1.996989E1,2.9100833E2,1.244567E1,1.4530052E2,9.3774796E1,8.469265E1,5.9955735E0,7.8833305E1,8.4888435E1,7.243543E1,5.9894166E0,1.3980474E1,1.9940388E2,9.160447E1,1.0946269E1,1.4994012E0,7.2871025E1,7.2429504E1,7.9807205E1,1.3967593E1,8.2694695E1,1.9979526E0],"tree_param":{"num_deleted":"0","num_feature":"61","num_nodes":"31","size_leaf_vector":"0"}},{"base_weights":[-9.487945E-2,-2.3097287E-1,1.0591656E-1,1.1966611E-1,-3.1709453E-1,2.3806247E-1,-1.1828532E-1,1.9236375E-1,-7.332215E-1,-3.4712628E-1,1.9034629E-1,-3.6128902E-1,2.8361347E-1,-5.313567E-1,-1.4908536E-2,-1.3646974E-1,3.3258218E-1,-8.2584256E-1,-1.8026523E-1,6.413831E-2,-3.900998E-1,-6.7969674E-1,3.1995E-1,-7.323137E-1,7.3196724E-2,1.6293103E-1,5.410308E-1,6.9333143E-3,-7.21502E-1,-3.2107452E-1,1.35009E-1],"categories":[],"categories_nodes":[],"categories_segments":[],"categories_sizes":[],"default_left":[1,1,1,1,1,1,1,1,1,1,1,1,1,1,1,0,0,0,0,0,0,0,0,0,0,0,0,0,0,0,0],"id":28,"left_children":[1,3,5,7,9,11,13,15,17,19,21,23,25,27,29,-1,-1,-1,-1,-1,-1,-1,-1,-1,-1,-1,-1,-1,-1,-1,-1],"loss_changes":[2.4348946E1,1.6068516E1,1.0702015E1,6.6762505E0,6.5649376E0,6.2998514E0,5.7256107E0,4.560114E0,2.8575945E-1,7.1470833E0,2.977212E0,2.7092042E0,6.4831333E0,2.7529335E0,5.019836E0,0E0,0E0,0E0,0E0,0E0,0E0,0E0,0E0,0E0,0E0,0E0,0E0,0E0,0E0,0E0,0E0],"parents":[2147483647,0,0,1,1,2,2,3,3,4,4,5,5,6,6,7,7,8,8,9,9,10,10,11,11,12,12,13,13,14,14],"right_children":[2,4,6,8,10,12,14,16,18,20,22,24,26,28,30,-1,-1,-1,-1,-1,-1,-1,-1,-1,-1,-1,-1,-1,-1,-1,-1],"split_conditions":[2.4320513E1,-5.6396103E0,2.3875E0,1.3038461E0,2.9925E2,3.1666666E-1,7.081169E0,1.5E0,8.75E0,3.693182E-1,1.2916667E0,7.1714287E0,5.707143E0,8.0691963E-1,1.0847917E2,-1.3646974E-3,3.3258216E-3,-8.258426E-3,-1.8026523E-3,6.4138306E-4,-3.9009978E-3,-6.7969672E-3,3.1995E-3,-7.3231366E-3,7.319672E-4,1.6293102E-3,5.410308E-3,6.933314E-5,-7.21502E-3,-3.210745E-3,1.35009E-3],"split_indices":[58,29,29,39,42,48,27,31,25,18,35,55,26,7,13,0,0,0,0,0,0,0,0,0,0,0,0,0,0,0,0],"split_type":[0,0,0,0,0,0,0,0,0,0,0,0,0,0,0,0,0,0,0,0,0,0,0,0,0,0,0,0,0,0,0],"sum_hessian":[8.891257E2,5.2985547E2,3.592702E2,1.0440157E2,4.2545392E2,2.2600165E2,1.3326854E2,9.691525E1,7.486317E0,4.019796E2,2.347431E1,1.5473445E1,2.1052821E2,2.58475E1,1.07421036E2,2.8979847E1,6.793541E1,5.989553E0,1.4967643E0,3.7982986E1,3.639966E2,2.4931455E0,2.0981163E1,7.976512E0,7.496933E0,1.4444324E2,6.608497E1,6.9985538E0,1.8848946E1,3.4934696E1,7.248634E1],"tree_param":{"num_deleted":"0","num_feature":"61","num_nodes":"31","size_leaf_vector":"0"}},{"base_weights":[9.4879456E-2,2.3097287E-1,-1.0591655E-1,-1.1966611E-1,3.1709453E-1,-2.3806249E-1,1.18285365E-1,-1.9236375E-1,7.3322153E-1,3.4712628E-1,-1.903463E-1,3.6128902E-1,-2.8361347E-1,5.3135663E-1,1.4908595E-2,1.3646972E-1,-3.3258218E-1,8.2584256E-1,1.8026525E-1,-6.413831E-2,3.900998E-1,6.796967E-1,-3.1995E-1,7.323137E-1,-7.3196724E-2,-1.6293104E-1,-5.410308E-1,-6.9333143E-3,7.21502E-1,3.210746E-1,-1.3500895E-1],"categories":[],"categories_nodes":[],"categories_segments":[],"categories_sizes":[],"default_left":[1,1,1,1,1,1,1,1,1,1,1,1,1,1,1,0,0,0,0,0,0,0,0,0,0,0,0,0,0,0,0],"id":29,"left_children":[1,3,5,7,9,11,13,15,17,19,21,23,25,27,29,-1,-1,-1,-1,-1,-1,-1,-1,-1,-1,-1,-1,-1,-1,-1,-1],"loss_changes":[2.4348944E1,1.6068516E1,1.0702019E1,6.6762505E0,6.5649376E0,6.2998514E0,5.72561E0,4.5601134E0,2.8575993E-1,7.1470833E0,2.9772117E0,2.709204E0,6.4831333E0,2.7529335E0,5.0198364E0,0E0,0E0,0E0,0E0,0E0,0E0,0E0,0E0,0E0,0E0,0E0,0E0,0E0,0E0,0E0,0E0],"parents":[2147483647,0,0,1,1,2,2,3,3,4,4,5,5,6,6,7,7,8,8,9,9,10,10,11,11,12,12,13,13,14,14],"right_children":[2,4,6,8,10,12,14,16,18,20,22,24,26,28,30,-1,-1,-1,-1,-1,-1,-1,-1,-1,-1,-1,-1,-1,-1,-1,-1],"split_conditions":[2.4320513E1,-5.6396103E0,2.3875E0,1.3038461E0,2.9925E2,3.1666666E-1,7.081169E0,1.5E0,8.75E0,3.693182E-1,1.2916667E0,7.1714287E0,5.707143E0,8.0691963E-1,1.0847917E2,1.3646972E-3,-3.3258216E-3,8.258426E-3,1.8026525E-3,-6.4138306E-4,3.9009978E-3,6.796967E-3,-3.1995E-3,7.3231366E-3,-7.319672E-4,-1.6293103E-3,-5.410308E-3,-6.933314E-5,7.21502E-3,3.210746E-3,-1.3500894E-3],"split_indices":[58,29,29,39,42,48,27,31,25,18,35,55,26,7,13,0,0,0,0,0,0,0,0,0,0,0,0,0,0,0,0],"split_type":[0,0,0,0,0,0,0,0,0,0,0,0,0,0,0,0,0,0,0,0,0,0,0,0,0,0,0,0,0,0,0],"sum_hessian":[8.891257E2,5.2985547E2,3.592702E2,1.0440157E2,4.2545392E2,2.2600166E2,1.3326854E2,9.691525E1,7.486317E0,4.019796E2,2.347431E1,1.5473445E1,2.1052821E2,2.58475E1,1.07421036E2,2.8979847E1,6.793541E1,5.9895525E0,1.4967643E0,3.7982986E1,3.639966E2,2.4931455E0,2.0981163E1,7.976512E0,7.496933E0,1.4444324E2,6.608497E1,6.998554E0,1.8848946E1,3.4934696E1,7.248634E1],"tree_param":{"num_deleted":"0","num_feature":"61","num_nodes":"31","size_leaf_vector":"0"}},{"base_weights":[-9.398542E-2,3.4057755E-2,-3.0417112E-1,-1.7245868E-1,1.9491555E-1,-1.1944947E-1,-4.6595845E-1,-4.0124303E-1,-4.7395214E-2,-3.0611557E-1,2.30225E-1,-7.2000486E-1,-6.350529E-2,-3.198348E-1,-6.2222147E-1,5.5952674E-1,-4.804451E-1,-2.4871312E-1,1.8865718E-1,-8.193454E-1,-4.6367943E-2,1.2990014E-1,4.450777E-1,-8.52355E-1,1.9962887E-1,-2.515598E-1,1.2649156E-1,-1.9110984E-1,-5.8611244E-1,-6.4983195E-1,3.5514557E-1],"categories":[],"categories_nodes":[],"categories_segments":[],"categories_sizes":[],"default_left":[1,1,1,1,1,1,1,1,1,1,1,1,1,1,1,0,0,0,0,0,0,0,0,0,0,0,0,0,0,0,0],"id":30,"left_children":[1,3,5,7,9,11,13,15,17,19,21,23,25,27,29,-1,-1,-1,-1,-1,-1,-1,-1,-1,-1,-1,-1,-1,-1,-1,-1],"loss_changes":[2.3959015E1,1.8433558E1,1.0015034E1,6.935373E0,5.587126E0,5.2855525E0,3.8949509E0,6.7955303E0,7.568784E0,2.7559729E0,6.233527E0,1.804205E0,5.2574778E0,3.1343489E0,2.5403023E0,0E0,0E0,0E0,0E0,0E0,0E0,0E0,0E0,0E0,0E0,0E0,0E0,0E0,0E0,0E0,0E0],"parents":[2147483647,0,0,1,1,2,2,3,3,4,4,5,5,6,6,7,7,8,8,9,9,10,10,11,11,12,12,13,13,14,14],"right_children":[2,4,6,8,10,12,14,16,18,20,22,24,26,28,30,-1,-1,-1,-1,-1,-1,-1,-1,-1,-1,-1,-1,-1,-1,-1,-1],"split_conditions":[2.4772727E0,2.2207142E1,7.707143E0,1.0903968E2,2.6136363E-1,1.7321429E0,9.5E0,4.1964283E0,1.7155385E4,1.6333333E0,5.707143E0,1.5783334E2,1.9372549E0,2.9125E1,2.4222221E0,5.5952673E-3,-4.8044506E-3,-2.4871312E-3,1.8865718E-3,-8.193454E-3,-4.6367943E-4,1.2990014E-3,4.4507766E-3,-8.52355E-3,1.9962888E-3,-2.515598E-3,1.2649156E-3,-1.9110984E-3,-5.8611245E-3,-6.4983196E-3,3.5514557E-3],"split_indices":[29,58,55,15,48,20,30,56,34,10,26,43,21,28,6,0,0,0,0,0,0,0,0,0,0,0,0,0,0,0,0],"split_type":[0,0,0,0,0,0,0,0,0,0,0,0,0,0,0,0,0,0,0,0,0,0,0,0,0,0,0,0,0,0,0],"sum_hessian":[8.8885974E2,5.528852E2,3.3597458E2,2.4205371E2,3.1083148E2,1.576804E2,1.7829419E2,8.477061E1,1.572831E2,1.9958363E1,2.908731E2,1.2425353E1,1.4525505E2,9.371077E1,8.458342E1,5.994087E0,7.877652E1,8.485805E1,7.242505E1,5.982761E0,1.3975601E1,1.993785E2,9.149462E1,1.0926072E1,1.4992807E0,7.283783E1,7.241722E1,6.432988E1,2.9380892E1,8.258551E1,1.9979073E0],"tree_param":{"num_deleted":"0","num_feature":"61","num_nodes":"31","size_leaf_vector":"0"}},{"base_weights":[9.398544E-2,-3.405773E-2,3.041711E-1,1.7245866E-1,-1.949155E-1,1.1944947E-1,4.6595845E-1,4.0124303E-1,4.7395203E-2,3.0611554E-1,-2.3022494E-1,7.200048E-1,6.35053E-2,3.198348E-1,6.2222147E-1,-5.5952674E-1,4.804451E-1,2.487131E-1,-1.8865718E-1,8.193454E-1,4.636792E-2,-1.2990007E-1,-4.4507766E-1,8.52355E-1,-1.996289E-1,2.5155982E-1,-1.2649156E-1,1.9110982E-1,5.8611244E-1,6.4983195E-1,-3.5514554E-1],"categories":[],"categories_nodes":[],"categories_segments":[],"categories_sizes":[],"default_left":[1,1,1,1,1,1,1,1,1,1,1,1,1,1,1,0,0,0,0,0,0,0,0,0,0,0,0,0,0,0,0],"id":31,"left_children":[1,3,5,7,9,11,13,15,17,19,21,23,25,27,29,-1,-1,-1,-1,-1,-1,-1,-1,-1,-1,-1,-1,-1,-1,-1,-1],"loss_changes":[2.3959015E1,1.8433552E1,1.0015034E1,6.935373E0,5.587126E0,5.285552E0,3.894947E0,6.7955303E0,7.568783E0,2.7559729E0,6.23353E0,1.8042045E0,5.257479E0,3.1343498E0,2.5402985E0,0E0,0E0,0E0,0E0,0E0,0E0,0E0,0E0,0E0,0E0,0E0,0E0,0E0,0E0,0E0,0E0],"parents":[2147483647,0,0,1,1,2,2,3,3,4,4,5,5,6,6,7,7,8,8,9,9,10,10,11,11,12,12,13,13,14,14],"right_children":[2,4,6,8,10,12,14,16,18,20,22,24,26,28,30,-1,-1,-1,-1,-1,-1,-1,-1,-1,-1,-1,-1,-1,-1,-1,-1],"split_conditions":[2.4772727E0,2.2207142E1,7.707143E0,1.0903968E2,2.6136363E-1,1.7321429E0,9.5E0,4.1964283E0,1.7155385E4,1.6333333E0,5.707143E0,1.5783334E2,1.9372549E0,2.9125E1,2.4222221E0,-5.5952673E-3,4.8044506E-3,2.487131E-3,-1.8865718E-3,8.193454E-3,4.636792E-4,-1.2990007E-3,-4.4507766E-3,8.52355E-3,-1.996289E-3,2.5155982E-3,-1.2649156E-3,1.9110981E-3,5.8611245E-3,6.4983196E-3,-3.5514554E-3],"split_indices":[29,58,55,15,48,20,30,56,34,10,26,43,21,28,6,0,0,0,0,0,0,0,0,0,0,0,0,0,0,0,0],"split_type":[0,0,0,0,0,0,0,0,0,0,0,0,0,0,0,0,0,0,0,0,0,0,0,0,0,0,0,0,0,0,0],"sum_hessian":[8.888598E2,5.528852E2,3.3597458E2,2.4205371E2,3.1083148E2,1.576804E2,1.7829419E2,8.477061E1,1.572831E2,1.9958363E1,2.908731E2,1.2425353E1,1.4525505E2,9.371077E1,8.458342E1,5.994087E0,7.877652E1,8.485805E1,7.242505E1,5.9827604E0,1.3975602E1,1.993785E2,9.149461E1,1.0926072E1,1.4992806E0,7.283782E1,7.241722E1,6.432987E1,2.9380892E1,8.258552E1,1.9979074E0],"tree_param":{"num_deleted":"0","num_feature":"61","num_nodes":"31","size_leaf_vector":"0"}},{"base_weights":[-9.309608E-2,-2.2691359E-1,1.0433218E-1,1.18788935E-1,-3.118637E-1,2.3385315E-1,-1.1539001E-1,1.9088045E-1,-7.273799E-1,-3.415364E-1,1.8921086E-1,-3.562561E-1,2.7870163E-1,-5.240703E-1,-1.3254993E-2,2.4452912E-2,4.7097275E-1,-1.7626846E-1,-8.2012504E-1,6.4747535E-2,-3.8402176E-1,-6.742788E-1,3.1774175E-1,-7.241494E-1,7.393607E-2,1.600425E-1,5.321835E-1,9.039316E-3,-7.1284366E-1,-3.162823E-1,1.3504079E-1],"categories":[],"categories_nodes":[],"categories_segments":[],"categories_sizes":[],"default_left":[1,1,1,1,1,1,1,1,1,1,1,1,1,1,1,0,0,0,0,0,0,0,0,0,0,0,0,0,0,0,0],"id":32,"left_children":[1,3,5,7,9,11,13,15,17,19,21,23,25,27,29,-1,-1,-1,-1,-1,-1,-1,-1,-1,-1,-1,-1,-1,-1,-1,-1],"loss_changes":[2.3526577E1,1.561759E1,1.0274132E1,6.5670357E0,6.400875E0,6.1033897E0,5.594907E0,4.5519385E0,2.8892326E-1,6.9757614E0,2.9299426E0,2.6590421E0,6.2733727E0,2.7043142E0,4.9138865E0,0E0,0E0,0E0,0E0,0E0,0E0,0E0,0E0,0E0,0E0,0E0,0E0,0E0,0E0,0E0,0E0],"parents":[2147483647,0,0,1,1,2,2,3,3,4,4,5,5,6,6,7,7,8,8,9,9,10,10,11,11,12,12,13,13,14,14],"right_children":[2,4,6,8,10,12,14,16,18,20,22,24,26,28,30,-1,-1,-1,-1,-1,-1,-1,-1,-1,-1,-1,-1,-1,-1,-1,-1],"split_conditions":[2.4320513E1,-5.6396103E0,2.3875E0,1.3038461E0,2.9925E2,3.1666666E-1,7.081169E0,1.1547619E0,4.1E0,3.693182E-1,1.2916667E0,7.1714287E0,5.707143E0,8.0691963E-1,1.0847917E2,2.445291E-4,4.709727E-3,-1.7626846E-3,-8.20125E-3,6.4747536E-4,-3.8402176E-3,-6.742788E-3,3.1774174E-3,-7.241494E-3,7.3936064E-4,1.6004249E-3,5.321835E-3,9.039316E-5,-7.1284366E-3,-3.162823E-3,1.3504078E-3],"split_indices":[58,29,29,39,42,48,27,11,24,18,35,55,26,7,13,0,0,0,0,0,0,0,0,0,0,0,0,0,0,0,0],"split_type":[0,0,0,0,0,0,0,0,0,0,0,0,0,0,0,0,0,0,0,0,0,0,0,0,0,0,0,0,0,0,0],"sum_hessian":[8.886092E2,5.295376E2,3.5907166E2,1.0437747E2,4.251601E2,2.2586519E2,1.3320645E2,9.6896545E1,7.48093E0,4.0169107E2,2.3469015E1,1.5462922E1,2.1040227E2,2.5807972E1,1.07398476E2,6.1463165E1,3.543338E1,1.4954154E0,5.9855146E0,3.7978813E1,3.6371225E2,2.4906197E0,2.0978395E1,7.9666543E0,7.4962683E0,1.444256E2,6.597668E1,6.9977975E0,1.8810175E1,3.4916794E1,7.248168E1],"tree_param":{"num_deleted":"0","num_feature":"61","num_nodes":"31","size_leaf_vector":"0"}},{"base_weights":[9.309607E-2,2.2691359E-1,-1.0433219E-1,-1.1878893E-1,3.118637E-1,-2.3385318E-1,1.1539001E-1,-1.9088043E-1,7.273799E-1,3.415364E-1,-1.8921085E-1,3.5625613E-1,-2.7870166E-1,5.240703E-1,1.3254996E-2,-2.4452906E-2,-4.7097275E-1,1.7626846E-1,8.20125E-1,-6.4747535E-2,3.8402176E-1,6.742788E-1,-3.1774175E-1,7.2414935E-1,-7.393604E-2,-1.6004248E-1,-5.3218365E-1,-9.039361E-3,7.1284366E-1,3.162823E-1,-1.3504079E-1],"categories":[],"categories_nodes":[],"categories_segments":[],"categories_sizes":[],"default_left":[1,1,1,1,1,1,1,1,1,1,1,1,1,1,1,0,0,0,0,0,0,0,0,0,0,0,0,0,0,0,0],"id":33,"left_children":[1,3,5,7,9,11,13,15,17,19,21,23,25,27,29,-1,-1,-1,-1,-1,-1,-1,-1,-1,-1,-1,-1,-1,-1,-1,-1],"loss_changes":[2.3526577E1,1.561759E1,1.0274132E1,6.5670357E0,6.400875E0,6.1033907E0,5.5949073E0,4.5519385E0,2.8892326E-1,6.975765E0,2.9299426E0,2.659042E0,6.2733803E0,2.7043142E0,4.9138865E0,0E0,0E0,0E0,0E0,0E0,0E0,0E0,0E0,0E0,0E0,0E0,0E0,0E0,0E0,0E0,0E0],"parents":[2147483647,0,0,1,1,2,2,3,3,4,4,5,5,6,6,7,7,8,8,9,9,10,10,11,11,12,12,13,13,14,14],"right_children":[2,4,6,8,10,12,14,16,18,20,22,24,26,28,30,-1,-1,-1,-1,-1,-1,-1,-1,-1,-1,-1,-1,-1,-1,-1,-1],"split_conditions":[2.4320513E1,-5.6396103E0,2.3875E0,1.3038461E0,2.9925E2,3.1666666E-1,7.081169E0,1.1547619E0,4.1E0,3.693182E-1,1.2916667E0,7.1714287E0,5.707143E0,8.0691963E-1,1.0847917E2,-2.4452904E-4,-4.709727E-3,1.7626846E-3,8.20125E-3,-6.4747536E-4,3.8402176E-3,6.742788E-3,-3.1774174E-3,7.241493E-3,-7.3936034E-4,-1.6004248E-3,-5.3218366E-3,-9.039361E-5,7.1284366E-3,3.162823E-3,-1.3504078E-3],"split_indices":[58,29,29,39,42,48,27,11,24,18,35,55,26,7,13,0,0,0,0,0,0,0,0,0,0,0,0,0,0,0,0],"split_type":[0,0,0,0,0,0,0,0,0,0,0,0,0,0,0,0,0,0,0,0,0,0,0,0,0,0,0,0,0,0,0],"sum_hessian":[8.886092E2,5.295376E2,3.5907162E2,1.0437747E2,4.251601E2,2.2586519E2,1.3320645E2,9.6896545E1,7.48093E0,4.0169107E2,2.3469015E1,1.5462922E1,2.1040227E2,2.580797E1,1.07398476E2,6.1463165E1,3.543338E1,1.4954154E0,5.9855146E0,3.7978813E1,3.6371225E2,2.4906197E0,2.0978395E1,7.966655E0,7.496268E0,1.444256E2,6.597667E1,6.9977975E0,1.8810173E1,3.4916794E1,7.248168E1],"tree_param":{"num_deleted":"0","num_feature":"61","num_nodes":"31","size_leaf_vector":"0"}},{"base_weights":[-9.2219196E-2,3.3707432E-2,-2.9899132E-1,-2.0910358E-1,1.668716E-1,-1.1668449E-1,-4.587705E-1,-3.8146058E-1,1.5403419E-2,-3.767063E-2,2.9333535E-1,-7.1175593E-1,-6.133847E-2,-3.141434E-1,-6.1356413E-1,-3.268898E-2,-4.9276578E-1,-1.7987104E-1,4.091265E-1,-1.5268174E-1,3.9017206E-1,4.0222263E-1,4.3596055E-2,-8.431372E-1,1.9878635E-1,-2.4740633E-1,1.265719E-1,-3.9288417E-1,9.844679E-2,-6.41015E-1,3.5534245E-1],"categories":[],"categories_nodes":[],"categories_segments":[],"categories_sizes":[],"default_left":[1,1,1,1,1,1,1,1,1,1,1,1,1,1,1,0,0,0,0,0,0,0,0,0,0,0,0,0,0,0,0],"id":34,"left_children":[1,3,5,7,9,11,13,15,17,19,21,23,25,27,29,-1,-1,-1,-1,-1,-1,-1,-1,-1,-1,-1,-1,-1,-1,-1,-1],"loss_changes":[2.3166025E1,1.7934982E1,9.754303E0,7.6103363E0,9.273645E0,5.1800413E0,3.8167915E0,4.3011303E0,6.709443E0,6.8350797E0,6.0027657E0,1.7708683E0,5.1432395E0,3.1132736E0,2.5007706E0,0E0,0E0,0E0,0E0,0E0,0E0,0E0,0E0,0E0,0E0,0E0,0E0,0E0,0E0,0E0,0E0],"parents":[2147483647,0,0,1,1,2,2,3,3,4,4,5,5,6,6,7,7,8,8,9,9,10,10,11,11,12,12,13,13,14,14],"right_children":[2,4,6,8,10,12,14,16,18,20,22,24,26,28,30,-1,-1,-1,-1,-1,-1,-1,-1,-1,-1,-1,-1,-1,-1,-1,-1],"split_conditions":[2.4772727E0,-2.5608974E0,7.707143E0,1.716636E4,1.5166667E0,1.7321429E0,9.5E0,-7.0333333E0,5.741667E0,7.0714283E-1,1.8388115E4,1.5783334E2,1.9372549E0,3.5E0,2.4222221E0,-3.2688977E-4,-4.9276575E-3,-1.7987103E-3,4.0912647E-3,-1.5268173E-3,3.9017205E-3,4.022226E-3,4.3596054E-4,-8.431372E-3,1.9878633E-3,-2.4740633E-3,1.265719E-3,-3.9288416E-3,9.844678E-4,-6.41015E-3,3.5534245E-3],"split_indices":[29,59,55,34,38,20,30,29,26,47,4,43,21,31,6,0,0,0,0,0,0,0,0,0,0,0,0,0,0,0,0],"split_type":[0,0,0,0,0,0,0,0,0,0,0,0,0,0,0,0,0,0,0,0,0,0,0,0,0,0,0,0,0,0,0],"sum_hessian":[8.8830963E2,5.5260425E2,3.3570538E2,1.9552127E2,3.5708295E2,1.5760712E2,1.7809827E2,1.1021141E2,8.530986E1,1.3669492E2,2.2038803E2,1.2402061E1,1.4520506E2,9.363885E1,8.445942E1,2.6976147E1,8.323526E1,5.7389565E1,2.7920294E1,1.0824108E2,2.8453835E1,1.5304796E2,6.734008E1,1.0902917E1,1.4991443E0,7.280114E1,7.240392E1,7.867238E1,1.4966469E1,8.246155E1,1.9978698E0],"tree_param":{"num_deleted":"0","num_feature":"61","num_nodes":"31","size_leaf_vector":"0"}},{"base_weights":[9.221917E-2,-3.370747E-2,2.9899132E-1,2.0910357E-1,-1.6687167E-1,1.1668449E-1,4.587705E-1,3.8146058E-1,-1.5403446E-2,3.767061E-2,-2.933354E-1,7.117559E-1,6.133847E-2,3.141434E-1,6.1356413E-1,3.2688987E-2,4.927658E-1,1.7987102E-1,-4.0912652E-1,1.5268172E-1,-3.9017212E-1,-4.0222272E-1,-4.3596122E-2,8.4313715E-1,-1.9878636E-1,2.4740635E-1,-1.2657191E-1,3.9288417E-1,-9.8446794E-2,6.4101505E-1,-3.5534245E-1],"categories":[],"categories_nodes":[],"categories_segments":[],"categories_sizes":[],"default_left":[1,1,1,1,1,1,1,1,1,1,1,1,1,1,1,0,0,0,0,0,0,0,0,0,0,0,0,0,0,0,0],"id":35,"left_children":[1,3,5,7,9,11,13,15,17,19,21,23,25,27,29,-1,-1,-1,-1,-1,-1,-1,-1,-1,-1,-1,-1,-1,-1,-1,-1],"loss_changes":[2.316603E1,1.7934986E1,9.754303E0,7.6103373E0,9.273647E0,5.1800413E0,3.8167915E0,4.3011303E0,6.7094426E0,6.83508E0,6.0027676E0,1.7708678E0,5.143241E0,3.1132736E0,2.5007706E0,0E0,0E0,0E0,0E0,0E0,0E0,0E0,0E0,0E0,0E0,0E0,0E0,0E0,0E0,0E0,0E0],"parents":[2147483647,0,0,1,1,2,2,3,3,4,4,5,5,6,6,7,7,8,8,9,9,10,10,11,11,12,12,13,13,14,14],"right_children":[2,4,6,8,10,12,14,16,18,20,22,24,26,28,30,-1,-1,-1,-1,-1,-1,-1,-1,-1,-1,-1,-1,-1,-1,-1,-1],"split_conditions":[2.4772727E0,-2.5608974E0,7.707143E0,1.716636E4,1.5166667E0,1.7321429E0,9.5E0,-7.0333333E0,5.741667E0,7.0714283E-1,1.8388115E4,1.5783334E2,1.9372549E0,3.5E0,2.4222221E0,3.2688986E-4,4.927658E-3,1.7987102E-3,-4.091265E-3,1.5268172E-3,-3.9017212E-3,-4.022227E-3,-4.359612E-4,8.431371E-3,-1.9878636E-3,2.4740635E-3,-1.2657191E-3,3.9288416E-3,-9.844679E-4,6.4101503E-3,-3.5534245E-3],"split_indices":[29,59,55,34,38,20,30,29,26,47,4,43,21,31,6,0,0,0,0,0,0,0,0,0,0,0,0,0,0,0,0],"split_type":[0,0,0,0,0,0,0,0,0,0,0,0,0,0,0,0,0,0,0,0,0,0,0,0,0,0,0,0,0,0,0],"sum_hessian":[8.883096E2,5.526042E2,3.3570538E2,1.9552127E2,3.5708295E2,1.5760712E2,1.7809827E2,1.1021141E2,8.530986E1,1.3669492E2,2.2038803E2,1.2402061E1,1.4520506E2,9.363885E1,8.445941E1,2.6976147E1,8.323526E1,5.7389565E1,2.7920294E1,1.0824108E2,2.8453835E1,1.5304794E2,6.734008E1,1.0902917E1,1.4991443E0,7.280113E1,7.240392E1,7.867238E1,1.4966469E1,8.246154E1,1.9978698E0],"tree_param":{"num_deleted":"0","num_feature":"61","num_nodes":"31","size_leaf_vector":"0"}},{"base_weights":[-9.133388E-2,3.338328E-2,-2.961758E-1,-2.0707746E-1,1.6524595E-1,-1.1558751E-1,-4.5452788E-1,-3.7783423E-1,1.5276951E-2,-3.7277553E-2,2.9048565E-1,-7.060121E-1,-6.0738485E-2,-3.1115487E-1,-6.080744E-1,-3.2373853E-2,-4.8813647E-1,-1.7811464E-1,4.0520233E-1,-1.5117273E-1,3.8640925E-1,3.9834803E-1,4.316734E-2,-8.366032E-1,1.975954E-1,-2.4501227E-1,1.253202E-1,-3.863467E-1,1.1526215E-1,-6.5035284E-1,6.339226E-2],"categories":[],"categories_nodes":[],"categories_segments":[],"categories_sizes":[],"default_left":[1,1,1,1,1,1,1,1,1,1,1,1,1,1,1,0,0,0,0,0,0,0,0,0,0,0,0,0,0,0,0],"id":36,"left_children":[1,3,5,7,9,11,13,15,17,19,21,23,25,27,29,-1,-1,-1,-1,-1,-1,-1,-1,-1,-1,-1,-1,-1,-1,-1,-1],"loss_changes":[2.2722979E1,1.7584675E1,9.571737E0,7.465617E0,9.091939E0,5.0925484E0,3.750843E0,4.2203417E0,6.580231E0,6.7028475E0,5.8873444E0,1.7448068E0,5.04304E0,3.0777626E0,2.4648628E0,0E0,0E0,0E0,0E0,0E0,0E0,0E0,0E0,0E0,0E0,0E0,0E0,0E0,0E0,0E0,0E0],"parents":[2147483647,0,0,1,1,2,2,3,3,4,4,5,5,6,6,7,7,8,8,9,9,10,10,11,11,12,12,13,13,14,14],"right_children":[2,4,6,8,10,12,14,16,18,20,22,24,26,28,30,-1,-1,-1,-1,-1,-1,-1,-1,-1,-1,-1,-1,-1,-1,-1,-1],"split_conditions":[2.4772727E0,-2.5608974E0,7.707143E0,1.716636E4,1.5166667E0,1.7321429E0,9.5E0,-7.0333333E0,5.741667E0,7.0714283E-1,1.8388115E4,1.5783334E2,1.9372549E0,8.5E0,2.5419579E0,-3.2373852E-4,-4.8813648E-3,-1.7811464E-3,4.0520234E-3,-1.5117272E-3,3.8640925E-3,3.9834804E-3,4.316734E-4,-8.3660325E-3,1.975954E-3,-2.4501227E-3,1.253202E-3,-3.863467E-3,1.1526215E-3,-6.503528E-3,6.339226E-4],"split_indices":[29,59,55,34,38,20,30,29,26,47,4,43,21,0,35,0,0,0,0,0,0,0,0,0,0,0,0,0,0,0,0],"split_type":[0,0,0,0,0,0,0,0,0,0,0,0,0,0,0,0,0,0,0,0,0,0,0,0,0,0,0,0,0,0,0],"sum_hessian":[8.880601E2,5.525061E2,3.3555402E2,1.9547446E2,3.5703165E2,1.5757822E2,1.7797581E2,1.10170166E2,8.530428E1,1.3669167E2,2.2033997E2,1.2385209E1,1.4519301E2,9.360203E1,8.437379E1,2.6976088E1,8.3194084E1,5.738581E1,2.7918476E1,1.0823832E2,2.8453346E1,1.5300122E2,6.733875E1,1.0886083E1,1.4991257E0,7.278721E1,7.24058E1,7.965085E1,1.3951181E1,7.940552E1,4.968267E0],"tree_param":{"num_deleted":"0","num_feature":"61","num_nodes":"31","size_leaf_vector":"0"}},{"base_weights":[9.133389E-2,-3.338326E-2,2.961758E-1,2.0707746E-1,-1.6524592E-1,1.1558751E-1,4.5452788E-1,3.7783423E-1,-1.5276945E-2,3.7277553E-2,-2.9048562E-1,7.060121E-1,6.0738485E-2,3.1115487E-1,6.080744E-1,3.237385E-2,4.8813647E-1,1.7811464E-1,-4.0520233E-1,1.5117273E-1,-3.8640928E-1,-3.9834797E-1,-4.3167364E-2,8.3660316E-1,-1.9759537E-1,2.4501228E-1,-1.253202E-1,3.863467E-1,-1.15262166E-1,6.5035284E-1,-6.339227E-2],"categories":[],"categories_nodes":[],"categories_segments":[],"categories_sizes":[],"default_left":[1,1,1,1,1,1,1,1,1,1,1,1,1,1,1,0,0,0,0,0,0,0,0,0,0,0,0,0,0,0,0],"id":37,"left_children":[1,3,5,7,9,11,13,15,17,19,21,23,25,27,29,-1,-1,-1,-1,-1,-1,-1,-1,-1,-1,-1,-1,-1,-1,-1,-1],"loss_changes":[2.2722973E1,1.7584673E1,9.571735E0,7.465617E0,9.091937E0,5.0925484E0,3.7508469E0,4.2203407E0,6.5802307E0,6.7028475E0,5.8873405E0,1.7448058E0,5.0430408E0,3.0777636E0,2.4648628E0,0E0,0E0,0E0,0E0,0E0,0E0,0E0,0E0,0E0,0E0,0E0,0E0,0E0,0E0,0E0,0E0],"parents":[2147483647,0,0,1,1,2,2,3,3,4,4,5,5,6,6,7,7,8,8,9,9,10,10,11,11,12,12,13,13,14,14],"right_children":[2,4,6,8,10,12,14,16,18,20,22,24,26,28,30,-1,-1,-1,-1,-1,-1,-1,-1,-1,-1,-1,-1,-1,-1,-1,-1],"split_conditions":[2.4772727E0,-2.5608974E0,7.707143E0,1.716636E4,1.5166667E0,1.7321429E0,9.5E0,-7.0333333E0,5.741667E0,7.0714283E-1,1.8388115E4,1.5783334E2,1.9372549E0,8.5E0,2.5419579E0,3.237385E-4,4.8813648E-3,1.7811464E-3,-4.0520234E-3,1.5117272E-3,-3.8640928E-3,-3.9834795E-3,-4.3167363E-4,8.366032E-3,-1.9759536E-3,2.4501227E-3,-1.253202E-3,3.863467E-3,-1.1526216E-3,6.503528E-3,-6.3392264E-4],"split_indices":[29,59,55,34,38,20,30,29,26,47,4,43,21,0,35,0,0,0,0,0,0,0,0,0,0,0,0,0,0,0,0],"split_type":[0,0,0,0,0,0,0,0,0,0,0,0,0,0,0,0,0,0,0,0,0,0,0,0,0,0,0,0,0,0,0],"sum_hessian":[8.880601E2,5.525061E2,3.3555402E2,1.9547446E2,3.5703165E2,1.5757822E2,1.7797581E2,1.10170166E2,8.530428E1,1.3669167E2,2.2033997E2,1.2385209E1,1.4519301E2,9.3602036E1,8.437379E1,2.6976088E1,8.3194084E1,5.738581E1,2.7918476E1,1.0823832E2,2.8453346E1,1.5300122E2,6.733875E1,1.0886083E1,1.4991257E0,7.27872E1,7.24058E1,7.965085E1,1.3951181E1,7.940552E1,4.968267E0],"tree_param":{"num_deleted":"0","num_feature":"61","num_nodes":"31","size_leaf_vector":"0"}},{"base_weights":[-9.0462E-2,-2.2095662E-1,1.02015205E-1,1.1714339E-1,-3.0410877E-1,2.2762494E-1,-1.1106459E-1,1.8841422E-1,-7.198338E-1,-3.333914E-1,1.8986185E-1,-3.5419992E-1,2.7187175E-1,-5.151538E-1,-1.0277064E-2,-1.3645945E-1,3.269909E-1,-8.124296E-1,-1.7213258E-1,6.738263E-2,-3.7535465E-1,-6.6622365E-1,3.1706074E-1,-7.182133E-1,7.12487E-2,1.5441643E-1,5.2323425E-1,1.2506215E-2,-7.0263666E-1,-3.099296E-1,1.3623093E-1],"categories":[],"categories_nodes":[],"categories_segments":[],"categories_sizes":[],"default_left":[1,1,1,1,1,1,1,1,1,1,1,1,1,1,1,0,0,0,0,0,0,0,0,0,0,0,0,0,0,0,0],"id":38,"left_children":[1,3,5,7,9,11,13,15,17,19,21,23,25,27,29,-1,-1,-1,-1,-1,-1,-1,-1,-1,-1,-1,-1,-1,-1,-1,-1],"loss_changes":[2.2346598E1,1.4935867E1,9.655171E0,6.4193635E0,6.220356E0,5.932082E0,5.456599E0,4.450553E0,2.8988838E-1,6.7894135E0,2.8745584E0,2.5995412E0,6.1555634E0,2.655251E0,4.7992887E0,0E0,0E0,0E0,0E0,0E0,0E0,0E0,0E0,0E0,0E0,0E0,0E0,0E0,0E0,0E0,0E0],"parents":[2147483647,0,0,1,1,2,2,3,3,4,4,5,5,6,6,7,7,8,8,9,9,10,10,11,11,12,12,13,13,14,14],"right_children":[2,4,6,8,10,12,14,16,18,20,22,24,26,28,30,-1,-1,-1,-1,-1,-1,-1,-1,-1,-1,-1,-1,-1,-1,-1,-1],"split_conditions":[2.4320513E1,-5.6396103E0,2.3875E0,1.3038461E0,2.9925E2,3.1666666E-1,7.081169E0,1.5E0,1.3057272E2,3.693182E-1,1.2916667E0,7.1714287E0,5.707143E0,8.0691963E-1,1.0847917E2,-1.3645946E-3,3.269909E-3,-8.124296E-3,-1.7213258E-3,6.738263E-4,-3.7535464E-3,-6.6622365E-3,3.1706074E-3,-7.182133E-3,7.1248703E-4,1.5441643E-3,5.2323425E-3,1.2506214E-4,-7.0263664E-3,-3.099296E-3,1.3623093E-3],"split_indices":[58,29,29,39,42,48,27,31,45,18,35,55,26,7,13,0,0,0,0,0,0,0,0,0,0,0,0,0,0,0,0],"split_type":[0,0,0,0,0,0,0,0,0,0,0,0,0,0,0,0,0,0,0,0,0,0,0,0,0,0,0,0,0,0,0],"sum_hessian":[8.877942E2,5.2899866E2,3.5879553E2,1.0433982E2,4.2465884E2,2.2568614E2,1.3310938E2,9.686629E1,7.4735327E0,4.0120068E2,2.345815E1,1.5455005E1,2.1023114E2,2.5751627E1,1.0735775E2,2.896864E1,6.7897644E1,5.9793105E0,1.4942224E0,3.796893E1,3.6323175E2,2.4863875E0,2.0971764E1,7.958009E0,7.496996E0,1.4438025E2,6.58509E1,6.9957547E0,1.8755873E1,3.4887325E1,7.247043E1],"tree_param":{"num_deleted":"0","num_feature":"61","num_nodes":"31","size_leaf_vector":"0"}},{"base_weights":[9.046201E-2,2.2095664E-1,-1.0201521E-1,-1.17143385E-1,3.0410877E-1,-2.2762492E-1,1.11064576E-1,-1.884142E-1,7.198338E-1,3.3339143E-1,-1.8986185E-1,3.5419995E-1,-2.7187175E-1,5.151539E-1,1.02770375E-2,1.3645945E-1,-3.269909E-1,8.124296E-1,1.7213261E-1,-6.7382626E-2,3.7535465E-1,6.6622365E-1,-3.1706074E-1,7.182133E-1,-7.124866E-2,-1.5441644E-1,-5.2323425E-1,-1.2506219E-2,7.0263666E-1,3.0992958E-1,-1.3623095E-1],"categories":[],"categories_nodes":[],"categories_segments":[],"categories_sizes":[],"default_left":[1,1,1,1,1,1,1,1,1,1,1,1,1,1,1,0,0,0,0,0,0,0,0,0,0,0,0,0,0,0,0],"id":39,"left_children":[1,3,5,7,9,11,13,15,17,19,21,23,25,27,29,-1,-1,-1,-1,-1,-1,-1,-1,-1,-1,-1,-1,-1,-1,-1,-1],"loss_changes":[2.23466E1,1.4935869E1,9.6551695E0,6.4193635E0,6.220352E0,5.932083E0,5.4566E0,4.450553E0,2.8988838E-1,6.7894173E0,2.874558E0,2.599541E0,6.1555605E0,2.6552505E0,4.7992883E0,0E0,0E0,0E0,0E0,0E0,0E0,0E0,0E0,0E0,0E0,0E0,0E0,0E0,0E0,0E0,0E0],"parents":[2147483647,0,0,1,1,2,2,3,3,4,4,5,5,6,6,7,7,8,8,9,9,10,10,11,11,12,12,13,13,14,14],"right_children":[2,4,6,8,10,12,14,16,18,20,22,24,26,28,30,-1,-1,-1,-1,-1,-1,-1,-1,-1,-1,-1,-1,-1,-1,-1,-1],"split_conditions":[2.4320513E1,-5.6396103E0,2.3875E0,1.3038461E0,2.9925E2,3.1666666E-1,7.081169E0,1.5E0,1.3057272E2,3.693182E-1,1.2916667E0,7.1714287E0,5.707143E0,8.0691963E-1,1.0847917E2,1.3645946E-3,-3.269909E-3,8.124296E-3,1.721326E-3,-6.7382626E-4,3.7535464E-3,6.6622365E-3,-3.1706074E-3,7.182133E-3,-7.1248657E-4,-1.5441644E-3,-5.2323425E-3,-1.2506219E-4,7.0263664E-3,3.0992958E-3,-1.3623094E-3],"split_indices":[58,29,29,39,42,48,27,31,45,18,35,55,26,7,13,0,0,0,0,0,0,0,0,0,0,0,0,0,0,0,0],"split_type":[0,0,0,0,0,0,0,0,0,0,0,0,0,0,0,0,0,0,0,0,0,0,0,0,0,0,0,0,0,0,0],"sum_hessian":[8.877942E2,5.2899866E2,3.5879553E2,1.0433982E2,4.2465884E2,2.2568614E2,1.3310938E2,9.686629E1,7.473533E0,4.0120068E2,2.345815E1,1.5455005E1,2.1023114E2,2.5751627E1,1.0735775E2,2.896864E1,6.7897644E1,5.9793105E0,1.4942224E0,3.796893E1,3.6323175E2,2.4863875E0,2.0971764E1,7.958009E0,7.4969954E0,1.4438025E2,6.58509E1,6.9957547E0,1.8755873E1,3.4887325E1,7.247043E1],"tree_param":{"num_deleted":"0","num_feature":"61","num_nodes":"31","size_leaf_vector":"0"}},{"base_weights":[-8.961682E-2,3.3044882E-2,-2.911636E-1,-2.0376462E-1,1.6289382E-1,-1.1291824E-1,-4.475819E-1,-3.7267432E-1,1.6092861E-2,-3.617497E-2,2.860268E-1,-6.9819057E-1,-5.8650725E-2,-3.055914E-1,-5.998011E-1,3.1304085E-1,-4.2524758E-1,-1.7525499E-1,4.0188998E-1,-1.4892633E-1,3.8319236E-1,3.926885E-1,4.1575063E-2,-8.2790816E-1,1.9674501E-1,-2.4098882E-1,1.2536709E-1,-1.7853418E-1,-5.6906503E-1,-6.271103E-1,3.5870484E-1],"categories":[],"categories_nodes":[],"categories_segments":[],"categories_sizes":[],"default_left":[1,1,1,1,1,1,1,1,1,1,1,1,1,1,1,0,0,0,0,0,0,0,0,0,0,0,0,0,0,0,0],"id":40,"left_children":[1,3,5,7,9,11,13,15,17,19,21,23,25,27,29,-1,-1,-1,-1,-1,-1,-1,-1,-1,-1,-1,-1,-1,-1,-1,-1],"loss_changes":[2.197427E1,1.7044353E1,9.324255E0,7.2980995E0,8.782101E0,4.9930468E0,3.680153E0,4.137904E0,6.4392257E0,6.5655794E0,5.751421E0,1.7135096E0,4.933633E0,3.0626097E0,2.455906E0,0E0,0E0,0E0,0E0,0E0,0E0,0E0,0E0,0E0,0E0,0E0,0E0,0E0,0E0,0E0,0E0],"parents":[2147483647,0,0,1,1,2,2,3,3,4,4,5,5,6,6,7,7,8,8,9,9,10,10,11,11,12,12,13,13,14,14],"right_children":[2,4,6,8,10,12,14,16,18,20,22,24,26,28,30,-1,-1,-1,-1,-1,-1,-1,-1,-1,-1,-1,-1,-1,-1,-1,-1],"split_conditions":[2.4772727E0,-2.5608974E0,7.707143E0,1.716636E4,1.5166667E0,1.7321429E0,9.5E0,1.7E0,5.741667E0,7.0714283E-1,1.8388115E4,1.5783334E2,1.9372549E0,2.9125E1,2.4222221E0,3.1304085E-3,-4.2524757E-3,-1.7525498E-3,4.0188995E-3,-1.4892633E-3,3.8319235E-3,3.926885E-3,4.1575063E-4,-8.279081E-3,1.9674501E-3,-2.4098882E-3,1.2536709E-3,-1.7853418E-3,-5.69065E-3,-6.271103E-3,3.5870483E-3],"split_indices":[29,59,55,34,38,20,30,51,26,47,4,43,21,28,6,0,0,0,0,0,0,0,0,0,0,0,0,0,0,0,0],"split_type":[0,0,0,0,0,0,0,0,0,0,0,0,0,0,0,0,0,0,0,0,0,0,0,0,0,0,0,0,0,0,0],"sum_hessian":[8.8746313E2,5.5221826E2,3.352449E2,1.9536176E2,3.5685648E2,1.5749477E2,1.7775012E2,1.1008884E2,8.527293E1,1.3664655E2,2.2020995E2,1.2357208E1,1.4513756E2,9.3521034E1,8.422909E1,7.4865866E0,1.0260225E2,5.736616E1,2.7906765E1,1.0820056E2,2.844599E1,1.5289209E2,6.7317856E1,1.0858243E1,1.4989654E0,7.2745995E1,7.239156E1,6.422626E1,2.9294777E1,8.2231926E1,1.9971614E0],"tree_param":{"num_deleted":"0","num_feature":"61","num_nodes":"31","size_leaf_vector":"0"}},{"base_weights":[8.961681E-2,-3.3044893E-2,2.911636E-1,2.0376462E-1,-1.6289383E-1,1.1291822E-1,4.4758192E-1,3.7267432E-1,-1.6092861E-2,3.617497E-2,-2.860268E-1,6.9819057E-1,5.8650706E-2,3.055914E-1,5.998012E-1,-3.1304082E-1,4.2524758E-1,1.75255E-1,-4.0188998E-1,1.4892633E-1,-3.8319236E-1,-3.9268854E-1,-4.1575037E-2,8.2790816E-1,-1.9674502E-1,2.4098878E-1,-1.2536708E-1,1.785342E-1,5.6906503E-1,6.2711036E-1,-3.587048E-1],"categories":[],"categories_nodes":[],"categories_segments":[],"categories_sizes":[],"default_left":[1,1,1,1,1,1,1,1,1,1,1,1,1,1,1,0,0,0,0,0,0,0,0,0,0,0,0,0,0,0,0],"id":41,"left_children":[1,3,5,7,9,11,13,15,17,19,21,23,25,27,29,-1,-1,-1,-1,-1,-1,-1,-1,-1,-1,-1,-1,-1,-1,-1,-1],"loss_changes":[2.1974274E1,1.7044355E1,9.324251E0,7.2980986E0,8.782102E0,4.9930463E0,3.6801605E0,4.137905E0,6.4392257E0,6.565579E0,5.751423E0,1.71351E0,4.933631E0,3.0626097E0,2.455904E0,0E0,0E0,0E0,0E0,0E0,0E0,0E0,0E0,0E0,0E0,0E0,0E0,0E0,0E0,0E0,0E0],"parents":[2147483647,0,0,1,1,2,2,3,3,4,4,5,5,6,6,7,7,8,8,9,9,10,10,11,11,12,12,13,13,14,14],"right_children":[2,4,6,8,10,12,14,16,18,20,22,24,26,28,30,-1,-1,-1,-1,-1,-1,-1,-1,-1,-1,-1,-1,-1,-1,-1,-1],"split_conditions":[2.4772727E0,-2.5608974E0,7.707143E0,1.716636E4,1.5166667E0,1.7321429E0,9.5E0,1.7E0,5.741667E0,7.0714283E-1,1.8388115E4,1.5783334E2,1.9372549E0,2.9125E1,2.4222221E0,-3.1304082E-3,4.2524757E-3,1.75255E-3,-4.0188995E-3,1.4892633E-3,-3.8319235E-3,-3.9268853E-3,-4.1575037E-4,8.279081E-3,-1.9674501E-3,2.4098877E-3,-1.2536708E-3,1.7853419E-3,5.69065E-3,6.2711034E-3,-3.587048E-3],"split_indices":[29,59,55,34,38,20,30,51,26,47,4,43,21,28,6,0,0,0,0,0,0,0,0,0,0,0,0,0,0,0,0],"split_type":[0,0,0,0,0,0,0,0,0,0,0,0,0,0,0,0,0,0,0,0,0,0,0,0,0,0,0,0,0,0,0],"sum_hessian":[8.8746313E2,5.5221826E2,3.352449E2,1.9536176E2,3.568565E2,1.5749477E2,1.7775012E2,1.1008884E2,8.527293E1,1.3664655E2,2.2020995E2,1.2357208E1,1.4513756E2,9.3521034E1,8.422909E1,7.4865866E0,1.0260225E2,5.736616E1,2.7906765E1,1.0820056E2,2.844599E1,1.5289209E2,6.731786E1,1.0858243E1,1.4989654E0,7.2745995E1,7.239156E1,6.422626E1,2.9294777E1,8.2231926E1,1.9971613E0],"tree_param":{"num_deleted":"0","num_feature":"61","num_nodes":"31","size_leaf_vector":"0"}},{"base_weights":[-8.876115E-2,-2.1703824E-1,1.0042243E-1,1.1641642E-1,-2.990977E-1,2.2348839E-1,-1.0833274E-1,1.8701366E-1,-7.132561E-1,-3.280176E-1,1.8842883E-1,-3.5153696E-1,2.6722938E-1,-5.0828946E-1,-8.741625E-3,2.2643443E-2,4.6386072E-1,-1.6938925E-1,-8.0543697E-1,6.797828E-2,-3.6951962E-1,-6.601073E-1,3.1436902E-1,-7.125865E-1,7.0084184E-2,1.5086876E-1,5.16604E-1,1.4469889E-2,-6.945486E-1,-3.0537018E-1,1.3619237E-1],"categories":[],"categories_nodes":[],"categories_segments":[],"categories_sizes":[],"default_left":[1,1,1,1,1,1,1,1,1,1,1,1,1,1,1,0,0,0,0,0,0,0,0,0,0,0,0,0,0,0,0],"id":42,"left_children":[1,3,5,7,9,11,13,15,17,19,21,23,25,27,29,-1,-1,-1,-1,-1,-1,-1,-1,-1,-1,-1,-1,-1,-1,-1,-1],"loss_changes":[2.1575914E1,1.4526411E1,9.261801E0,6.3017054E0,6.0581055E0,5.791889E0,5.334297E0,4.4419584E0,2.8800058E-1,6.6292458E0,2.8204312E0,2.5534616E0,6.0474243E0,2.6101112E0,4.6987677E0,0E0,0E0,0E0,0E0,0E0,0E0,0E0,0E0,0E0,0E0,0E0,0E0,0E0,0E0,0E0,0E0],"parents":[2147483647,0,0,1,1,2,2,3,3,4,4,5,5,6,6,7,7,8,8,9,9,10,10,11,11,12,12,13,13,14,14],"right_children":[2,4,6,8,10,12,14,16,18,20,22,24,26,28,30,-1,-1,-1,-1,-1,-1,-1,-1,-1,-1,-1,-1,-1,-1,-1,-1],"split_conditions":[2.4320513E1,-5.6396103E0,2.3875E0,1.3038461E0,2.9925E2,3.1666666E-1,7.081169E0,1.1547619E0,1.4965045E4,3.693182E-1,1.2916667E0,7.1714287E0,5.707143E0,8.0691963E-1,1.0847917E2,2.2643442E-4,4.638607E-3,-1.6938924E-3,-8.054369E-3,6.7978277E-4,-3.6951962E-3,-6.601073E-3,3.14369E-3,-7.125865E-3,7.0084183E-4,1.5086875E-3,5.16604E-3,1.4469889E-4,-6.9454857E-3,-3.0537017E-3,1.3619236E-3],"split_indices":[58,29,29,39,42,48,27,11,4,18,35,55,26,7,13,0,0,0,0,0,0,0,0,0,0,0,0,0,0,0,0],"split_type":[0,0,0,0,0,0,0,0,0,0,0,0,0,0,0,0,0,0,0,0,0,0,0,0,0,0,0,0,0,0,0],"sum_hessian":[8.871734E2,5.286034E2,3.5857E2,1.0431063E2,4.2429276E2,2.2553902E2,1.3303099E2,9.6844666E1,7.465966E0,4.008421E2,2.3450651E1,1.5446061E1,2.1009296E2,2.5703259E1,1.07327736E2,6.1445126E1,3.5399536E1,1.4932669E0,5.9726996E0,3.796425E1,3.6287784E2,2.4825768E0,2.0968075E1,7.948963E0,7.4970984E0,1.4434512E2,6.574784E1,6.9945374E0,1.8708721E1,3.4864826E1,7.246291E1],"tree_param":{"num_deleted":"0","num_feature":"61","num_nodes":"31","size_leaf_vector":"0"}},{"base_weights":[8.876116E-2,2.1703824E-1,-1.0042242E-1,-1.164164E-1,2.990977E-1,-2.2348838E-1,1.0833274E-1,-1.8701364E-1,7.132561E-1,3.280176E-1,-1.8842883E-1,3.5153693E-1,-2.6722935E-1,5.0828946E-1,8.741627E-3,-2.264344E-2,-4.638607E-1,1.6938925E-1,8.0543697E-1,-6.797828E-2,3.6951962E-1,6.601073E-1,-3.1436902E-1,7.125865E-1,-7.008423E-2,-1.5086873E-1,-5.16604E-1,-1.4469856E-2,6.945486E-1,3.0537012E-1,-1.3619234E-1],"categories":[],"categories_nodes":[],"categories_segments":[],"categories_sizes":[],"default_left":[1,1,1,1,1,1,1,1,1,1,1,1,1,1,1,0,0,0,0,0,0,0,0,0,0,0,0,0,0,0,0],"id":43,"left_children":[1,3,5,7,9,11,13,15,17,19,21,23,25,27,29,-1,-1,-1,-1,-1,-1,-1,-1,-1,-1,-1,-1,-1,-1,-1,-1],"loss_changes":[2.1575916E1,1.4526409E1,9.261801E0,6.3017054E0,6.0581093E0,5.791888E0,5.334297E0,4.4419584E0,2.8800106E-1,6.629238E0,2.8204312E0,2.5534618E0,6.0474253E0,2.6101112E0,4.698766E0,0E0,0E0,0E0,0E0,0E0,0E0,0E0,0E0,0E0,0E0,0E0,0E0,0E0,0E0,0E0,0E0],"parents":[2147483647,0,0,1,1,2,2,3,3,4,4,5,5,6,6,7,7,8,8,9,9,10,10,11,11,12,12,13,13,14,14],"right_children":[2,4,6,8,10,12,14,16,18,20,22,24,26,28,30,-1,-1,-1,-1,-1,-1,-1,-1,-1,-1,-1,-1,-1,-1,-1,-1],"split_conditions":[2.4320513E1,-5.6396103E0,2.3875E0,1.3038461E0,2.9925E2,3.1666666E-1,7.081169E0,1.1547619E0,1.4965045E4,3.693182E-1,1.2916667E0,7.1714287E0,5.707143E0,8.0691963E-1,1.0847917E2,-2.264344E-4,-4.6386067E-3,1.6938924E-3,8.054369E-3,-6.7978277E-4,3.6951962E-3,6.601073E-3,-3.14369E-3,7.125865E-3,-7.008423E-4,-1.5086873E-3,-5.16604E-3,-1.4469856E-4,6.9454857E-3,3.0537012E-3,-1.3619233E-3],"split_indices":[58,29,29,39,42,48,27,11,4,18,35,55,26,7,13,0,0,0,0,0,0,0,0,0,0,0,0,0,0,0,0],"split_type":[0,0,0,0,0,0,0,0,0,0,0,0,0,0,0,0,0,0,0,0,0,0,0,0,0,0,0,0,0,0,0],"sum_hessian":[8.871734E2,5.286034E2,3.5857E2,1.0431063E2,4.2429276E2,2.2553902E2,1.33031E2,9.6844666E1,7.465966E0,4.008421E2,2.3450651E1,1.5446061E1,2.1009296E2,2.5703259E1,1.0732774E2,6.1445126E1,3.5399536E1,1.4932668E0,5.9726996E0,3.796425E1,3.6287784E2,2.4825768E0,2.0968075E1,7.948963E0,7.4970984E0,1.4434512E2,6.574784E1,6.9945374E0,1.8708721E1,3.4864826E1,7.246291E1],"tree_param":{"num_deleted":"0","num_feature":"61","num_nodes":"31","size_leaf_vector":"0"}},{"base_weights":[-8.793167E-2,3.272323E-2,-2.8626835E-1,-2.0063715E-1,1.6067113E-1,-4.5301068E-1,-1.222339E-1,-3.678141E-1,1.6879652E-2,-3.49028E-2,2.8167343E-1,-3.0925332E-2,-5.2711266E-1,-5.355561E-1,-4.0075984E-2,3.103901E-1,-4.1985813E-1,-1.7237018E-1,3.9846152E-1,-1.4648822E-1,3.8005373E-1,3.8715407E-1,4.0054675E-2,3.3719444E-1,-5.2361023E-1,-3.2991803E-1,-6.5280366E-1,-6.7394815E-2,-7.5029814E-1,-4.0604624E-1,4.5864563E-2],"categories":[],"categories_nodes":[],"categories_segments":[],"categories_sizes":[],"default_left":[1,1,1,1,1,1,1,1,1,1,1,1,1,1,1,0,0,0,0,0,0,0,0,0,0,0,0,0,0,0,0],"id":44,"left_children":[1,3,5,7,9,11,13,15,17,19,21,23,25,27,29,-1,-1,-1,-1,-1,-1,-1,-1,-1,-1,-1,-1,-1,-1,-1,-1],"loss_changes":[2.1254986E1,1.6540865E1,9.132196E0,7.142299E0,8.473903E0,5.1822853E0,5.7750554E0,4.0483894E0,6.2962384E0,6.426819E0,5.6186314E0,4.87115E0,3.287445E0,2.7868443E0,4.531149E0,0E0,0E0,0E0,0E0,0E0,0E0,0E0,0E0,0E0,0E0,0E0,0E0,0E0,0E0,0E0,0E0],"parents":[2147483647,0,0,1,1,2,2,3,3,4,4,5,5,6,6,7,7,8,8,9,9,10,10,11,11,12,12,13,13,14,14],"right_children":[2,4,6,8,10,12,14,16,18,20,22,24,26,28,30,-1,-1,-1,-1,-1,-1,-1,-1,-1,-1,-1,-1,-1,-1,-1,-1],"split_conditions":[2.4772727E0,-2.5608974E0,9.411765E-1,1.716636E4,1.5166667E0,7.0454545E0,7.081169E0,1.7E0,5.741667E0,7.0714283E-1,1.8388115E4,1.5E0,4.8333335E-1,8.452381E-1,1.4415585E0,3.1039012E-3,-4.198581E-3,-1.7237017E-3,3.984615E-3,-1.4648822E-3,3.8005372E-3,3.8715405E-3,4.0054673E-4,3.3719444E-3,-5.2361023E-3,-3.2991802E-3,-6.5280367E-3,-6.7394815E-4,-7.5029815E-3,-4.060462E-3,4.5864563E-4],"split_indices":[29,59,59,34,38,55,27,51,26,47,4,2,46,7,21,0,0,0,0,0,0,0,