{"learner":{"attributes":{"best_iteration":"499","best_ntree_limit":"500"},"feature_names":[],"feature_types":[],"gradient_booster":{"model":{"gbtree_model_param":{"num_parallel_tree":"1","num_trees":"1000","size_leaf_vector":"0"},"tree_info":[0,1,0,1,0,1,0,1,0,1,0,1,0,1,0,1,0,1,0,1,0,1,0,1,0,1,0,1,0,1,0,1,0,1,0,1,0,1,0,1,0,1,0,1,0,1,0,1,0,1,0,1,0,1,0,1,0,1,0,1,0,1,0,1,0,1,0,1,0,1,0,1,0,1,0,1,0,1,0,1,0,1,0,1,0,1,0,1,0,1,0,1,0,1,0,1,0,1,0,1,0,1,0,1,0,1,0,1,0,1,0,1,0,1,0,1,0,1,0,1,0,1,0,1,0,1,0,1,0,1,0,1,0,1,0,1,0,1,0,1,0,1,0,1,0,1,0,1,0,1,0,1,0,1,0,1,0,1,0,1,0,1,0,1,0,1,0,1,0,1,0,1,0,1,0,1,0,1,0,1,0,1,0,1,0,1,0,1,0,1,0,1,0,1,0,1,0,1,0,1,0,1,0,1,0,1,0,1,0,1,0,1,0,1,0,1,0,1,0,1,0,1,0,1,0,1,0,1,0,1,0,1,0,1,0,1,0,1,0,1,0,1,0,1,0,1,0,1,0,1,0,1,0,1,0,1,0,1,0,1,0,1,0,1,0,1,0,1,0,1,0,1,0,1,0,1,0,1,0,1,0,1,0,1,0,1,0,1,0,1,0,1,0,1,0,1,0,1,0,1,0,1,0,1,0,1,0,1,0,1,0,1,0,1,0,1,0,1,0,1,0,1,0,1,0,1,0,1,0,1,0,1,0,1,0,1,0,1,0,1,0,1,0,1,0,1,0,1,0,1,0,1,0,1,0,1,0,1,0,1,0,1,0,1,0,1,0,1,0,1,0,1,0,1,0,1,0,1,0,1,0,1,0,1,0,1,0,1,0,1,0,1,0,1,0,1,0,1,0,1,0,1,0,1,0,1,0,1,0,1,0,1,0,1,0,1,0,1,0,1,0,1,0,1,0,1,0,1,0,1,0,1,0,1,0,1,0,1,0,1,0,1,0,1,0,1,0,1,0,1,0,1,0,1,0,1,0,1,0,1,0,1,0,1,0,1,0,1,0,1,0,1,0,1,0,1,0,1,0,1,0,1,0,1,0,1,0,1,0,1,0,1,0,1,0,1,0,1,0,1,0,1,0,1,0,1,0,1,0,1,0,1,0,1,0,1,0,1,0,1,0,1,0,1,0,1,0,1,0,1,0,1,0,1,0,1,0,1,0,1,0,1,0,1,0,1,0,1,0,1,0,1,0,1,0,1,0,1,0,1,0,1,0,1,0,1,0,1,0,1,0,1,0,1,0,1,0,1,0,1,0,1,0,1,0,1,0,1,0,1,0,1,0,1,0,1,0,1,0,1,0,1,0,1,0,1,0,1,0,1,0,1,0,1,0,1,0,1,0,1,0,1,0,1,0,1,0,1,0,1,0,1,0,1,0,1,0,1,0,1,0,1,0,1,0,1,0,1,0,1,0,1,0,1,0,1,0,1,0,1,0,1,0,1,0,1,0,1,0,1,0,1,0,1,0,1,0,1,0,1,0,1,0,1,0,1,0,1,0,1,0,1,0,1,0,1,0,1,0,1,0,1,0,1,0,1,0,1,0,1,0,1,0,1,0,1,0,1,0,1,0,1,0,1,0,1,0,1,0,1,0,1,0,1,0,1,0,1,0,1,0,1,0,1,0,1,0,1,0,1,0,1,0,1,0,1,0,1,0,1,0,1,0,1,0,1,0,1,0,1,0,1,0,1,0,1,0,1,0,1,0,1,0,1,0,1,0,1,0,1,0,1,0,1,0,1,0,1,0,1,0,1,0,1,0,1,0,1,0,1,0,1,0,1,0,1,0,1,0,1,0,1,0,1,0,1,0,1,0,1,0,1,0,1,0,1,0,1,0,1,0,1,0,1,0,1,0,1,0,1,0,1,0,1,0,1,0,1,0,1,0,1,0,1,0,1,0,1,0,1,0,1,0,1,0,1,0,1,0,1,0,1,0,1,0,1,0,1,0,1,0,1,0,1,0,1,0,1,0,1,0,1,0,1,0,1,0,1,0,1,0,1,0,1,0,1,0,1,0,1,0,1,0,1,0,1,0,1,0,1,0,1,0,1,0,1,0,1,0,1,0,1,0,1,0,1,0,1,0,1,0,1,0,1,0,1,0,1,0,1,0,1,0,1,0,1,0,1,0,1,0,1,0,1,0,1,0,1,0,1,0,1,0,1,0,1,0,1,0,1,0,1,0,1,0,1,0,1,0,1],"trees":[{"base_weights":[-1.0762332E-1,-3.115183E-1,4.5009784E-2,-7.8066915E-2,-4.3661973E-1,2.2377622E-1,-1.8141593E-1],"categories":[],"categories_nodes":[],"categories_segments":[],"categories_sizes":[],"default_left":[1,1,1,0,0,0,0],"id":0,"left_children":[1,3,5,-1,-1,-1,-1],"loss_changes":[2.7774069E1,1.1122257E1,2.0724506E1,0E0,0E0,0E0,0E0],"parents":[2147483647,0,0,1,1,2,2],"right_children":[2,4,6,-1,-1,-1,-1],"split_conditions":[2.2207142E1,-2.6201923E0,1.6961539E0,-7.8066916E-4,-4.366197E-3,2.237762E-3,-1.8141592E-3],"split_indices":[58,29,29,0,0,0,0],"split_type":[0,0,0,0,0,0,0],"sum_hessian":[8.91E2,3.81E2,5.1E2,1.335E2,2.475E2,2.85E2,2.25E2],"tree_param":{"num_deleted":"0","num_feature":"61","num_nodes":"7","size_leaf_vector":"0"}},{"base_weights":[1.0762332E-1,3.115183E-1,-4.5009784E-2,7.8066915E-2,4.3661973E-1,-2.2377622E-1,1.8141593E-1],"categories":[],"categories_nodes":[],"categories_segments":[],"categories_sizes":[],"default_left":[1,1,1,0,0,0,0],"id":1,"left_children":[1,3,5,-1,-1,-1,-1],"loss_changes":[2.7774069E1,1.1122257E1,2.0724506E1,0E0,0E0,0E0,0E0],"parents":[2147483647,0,0,1,1,2,2],"right_children":[2,4,6,-1,-1,-1,-1],"split_conditions":[2.2207142E1,-2.6201923E0,1.6961539E0,7.8066916E-4,4.366197E-3,-2.237762E-3,1.8141592E-3],"split_indices":[58,29,29,0,0,0,0],"split_type":[0,0,0,0,0,0,0],"sum_hessian":[8.91E2,3.81E2,5.1E2,1.335E2,2.475E2,2.85E2,2.25E2],"tree_param":{"num_deleted":"0","num_feature":"61","num_nodes":"7","size_leaf_vector":"0"}},{"base_weights":[-1.0655325E-1,-3.0842054E-1,4.456067E-2,-7.729215E-2,-4.3227935E-1,2.2154735E-1,-1.7961042E-1],"categories":[],"categories_nodes":[],"categories_segments":[],"categories_sizes":[],"default_left":[1,1,1,0,0,0,0],"id":2,"left_children":[1,3,5,-1,-1,-1,-1],"loss_changes":[2.7223957E1,1.0902065E1,2.0313786E1,0E0,0E0,0E0,0E0],"parents":[2147483647,0,0,1,1,2,2],"right_children":[2,4,6,-1,-1,-1,-1],"split_conditions":[2.2207142E1,-2.6201923E0,1.6961539E0,-7.729215E-4,-4.3227933E-3,2.2154734E-3,-1.7961041E-3],"split_indices":[58,29,29,0,0,0,0],"split_type":[0,0,0,0,0,0,0],"sum_hessian":[8.9099304E2,3.8099518E2,5.0999783E2,1.3349991E2,2.4749529E2,2.8499857E2,2.2499927E2],"tree_param":{"num_deleted":"0","num_feature":"61","num_nodes":"7","size_leaf_vector":"0"}},{"base_weights":[1.065532E-1,3.084205E-1,-4.456074E-2,7.729206E-2,4.3227935E-1,-2.2154738E-1,1.796103E-1],"categories":[],"categories_nodes":[],"categories_segments":[],"categories_sizes":[],"default_left":[1,1,1,0,0,0,0],"id":3,"left_children":[1,3,5,-1,-1,-1,-1],"loss_changes":[2.722396E1,1.0902077E1,2.0313774E1,0E0,0E0,0E0,0E0],"parents":[2147483647,0,0,1,1,2,2],"right_children":[2,4,6,-1,-1,-1,-1],"split_conditions":[2.2207142E1,-2.6201923E0,1.6961539E0,7.729206E-4,4.3227933E-3,-2.2154737E-3,1.796103E-3],"split_indices":[58,29,29,0,0,0,0],"split_type":[0,0,0,0,0,0,0],"sum_hessian":[8.9099304E2,3.809952E2,5.0999786E2,1.3349992E2,2.4749529E2,2.849986E2,2.2499927E2],"tree_param":{"num_deleted":"0","num_feature":"61","num_nodes":"7","size_leaf_vector":"0"}},{"base_weights":[-1.05495386E-1,-3.0536112E-1,4.411653E-2,-7.652511E-2,-4.2799816E-1,2.1934295E-1,-1.7782387E-1],"categories":[],"categories_nodes":[],"categories_segments":[],"categories_sizes":[],"default_left":[1,1,1,0,0,0,0],"id":4,"left_children":[1,3,5,-1,-1,-1,-1],"loss_changes":[2.6685495E1,1.0687077E1,1.991137E1,0E0,0E0,0E0,0E0],"parents":[2147483647,0,0,1,1,2,2],"right_children":[2,4,6,-1,-1,-1,-1],"split_conditions":[2.2207142E1,-2.6201923E0,1.6961539E0,-7.6525105E-4,-4.2799814E-3,2.1934295E-3,-1.7782387E-3],"split_indices":[58,29,29,0,0,0,0],"split_type":[0,0,0,0,0,0,0],"sum_hessian":[8.909724E2,3.80981E2,5.0999142E2,1.3349968E2,2.474813E2,2.8499435E2,2.2499707E2],"tree_param":{"num_deleted":"0","num_feature":"61","num_nodes":"7","size_leaf_vector":"0"}},{"base_weights":[1.05495386E-1,3.0536106E-1,-4.4116497E-2,7.652511E-2,4.2799807E-1,-2.1934295E-1,1.7782396E-1],"categories":[],"categories_nodes":[],"categories_segments":[],"categories_sizes":[],"default_left":[1,1,1,0,0,0,0],"id":5,"left_children":[1,3,5,-1,-1,-1,-1],"loss_changes":[2.668548E1,1.0687073E1,1.9911379E1,0E0,0E0,0E0,0E0],"parents":[2147483647,0,0,1,1,2,2],"right_children":[2,4,6,-1,-1,-1,-1],"split_conditions":[2.2207142E1,-2.6201923E0,1.6961539E0,7.6525105E-4,4.2799804E-3,-2.1934295E-3,1.7782396E-3],"split_indices":[58,29,29,0,0,0,0],"split_type":[0,0,0,0,0,0,0],"sum_hessian":[8.909724E2,3.80981E2,5.099914E2,1.3349968E2,2.4748131E2,2.8499435E2,2.2499707E2],"tree_param":{"num_deleted":"0","num_feature":"61","num_nodes":"7","size_leaf_vector":"0"}},{"base_weights":[-1.0444964E-1,-3.023393E-1,4.3677084E-2,-4.0999657E-1,-4.566582E-2,2.171625E-1,-1.7605636E-1],"categories":[],"categories_nodes":[],"categories_segments":[],"categories_sizes":[],"default_left":[1,1,1,0,0,0,0],"id":6,"left_children":[1,3,5,-1,-1,-1,-1],"loss_changes":[2.6158375E1,1.053582E1,1.9517103E1,0E0,0E0,0E0,0E0],"parents":[2147483647,0,0,1,1,2,2],"right_children":[2,4,6,-1,-1,-1,-1],"split_conditions":[2.2207142E1,1.21708145E2,1.6961539E0,-4.0999656E-3,-4.566582E-4,2.171625E-3,-1.7605635E-3],"split_indices":[58,15,29,0,0,0,0],"split_type":[0,0,0,0,0,0,0],"sum_hessian":[8.9093854E2,3.8095767E2,5.099809E2,2.6796643E2,1.1299126E2,2.8498743E2,2.2499347E2],"tree_param":{"num_deleted":"0","num_feature":"61","num_nodes":"7","size_leaf_vector":"0"}},{"base_weights":[1.0444962E-1,3.0233923E-1,-4.367704E-2,4.0999648E-1,4.5665756E-2,-2.1716242E-1,1.7605636E-1],"categories":[],"categories_nodes":[],"categories_segments":[],"categories_sizes":[],"default_left":[1,1,1,0,0,0,0],"id":7,"left_children":[1,3,5,-1,-1,-1,-1],"loss_changes":[2.6158352E1,1.0535824E1,1.9517096E1,0E0,0E0,0E0,0E0],"parents":[2147483647,0,0,1,1,2,2],"right_children":[2,4,6,-1,-1,-1,-1],"split_conditions":[2.2207142E1,1.21708145E2,1.6961539E0,4.0999646E-3,4.5665755E-4,-2.1716242E-3,1.7605635E-3],"split_indices":[58,15,29,0,0,0,0],"split_type":[0,0,0,0,0,0,0],"sum_hessian":[8.9093854E2,3.8095764E2,5.099809E2,2.679664E2,1.1299125E2,2.8498743E2,2.2499347E2],"tree_param":{"num_deleted":"0","num_feature":"61","num_nodes":"7","size_leaf_vector":"0"}},{"base_weights":[-1.0341477E-1,-2.993496E-1,4.3242276E-2,-7.34043E-2,-4.2046663E-1,2.1500558E-1,-1.7430745E-1],"categories":[],"categories_nodes":[],"categories_segments":[],"categories_sizes":[],"default_left":[1,1,1,0,0,0,0],"id":8,"left_children":[1,3,5,-1,-1,-1,-1],"loss_changes":[2.5641788E1,1.0420967E1,1.9130783E1,0E0,0E0,0E0,0E0],"parents":[2147483647,0,0,1,1,2,2],"right_children":[2,4,6,-1,-1,-1,-1],"split_conditions":[2.2207142E1,-2.6201923E0,1.6961539E0,-7.3404296E-4,-4.2046662E-3,2.1500557E-3,-1.7430745E-3],"split_indices":[58,29,29,0,0,0,0],"split_type":[0,0,0,0,0,0,0],"sum_hessian":[8.908964E2,3.8093005E2,5.0996634E2,1.3349661E2,2.4743346E2,2.8497784E2,2.2498851E2],"tree_param":{"num_deleted":"0","num_feature":"61","num_nodes":"7","size_leaf_vector":"0"}},{"base_weights":[1.03414714E-1,2.9934955E-1,-4.3242343E-2,7.34043E-2,4.2046657E-1,-2.150057E-1,1.7430745E-1],"categories":[],"categories_nodes":[],"categories_segments":[],"categories_sizes":[],"default_left":[1,1,1,0,0,0,0],"id":9,"left_children":[1,3,5,-1,-1,-1,-1],"loss_changes":[2.5641788E1,1.0420967E1,1.9130796E1,0E0,0E0,0E0,0E0],"parents":[2147483647,0,0,1,1,2,2],"right_children":[2,4,6,-1,-1,-1,-1],"split_conditions":[2.2207142E1,-2.6201923E0,1.6961539E0,7.3404296E-4,4.204666E-3,-2.150057E-3,1.7430745E-3],"split_indices":[58,29,29,0,0,0,0],"split_type":[0,0,0,0,0,0,0],"sum_hessian":[8.908964E2,3.8093008E2,5.0996634E2,1.3349661E2,2.4743346E2,2.8497784E2,2.2498851E2],"tree_param":{"num_deleted":"0","num_feature":"61","num_nodes":"7","size_leaf_vector":"0"}},{"base_weights":[-1.02392375E-1,-2.9639977E-1,4.2812288E-2,8.986568E-2,-3.6584437E-1,2.1287224E-1,-1.7257692E-1],"categories":[],"categories_nodes":[],"categories_segments":[],"categories_sizes":[],"default_left":[1,1,1,0,0,0,0],"id":10,"left_children":[1,3,5,-1,-1,-1,-1],"loss_changes":[2.513648E1,1.027673E1,1.8752289E1,0E0,0E0,0E0,0E0],"parents":[2147483647,0,0,1,1,2,2],"right_children":[2,4,6,-1,-1,-1,-1],"split_conditions":[2.2207142E1,-7.242857E0,1.6961539E0,8.986567E-4,-3.6584437E-3,2.1287224E-3,-1.7257691E-3],"split_indices":[58,29,29,0,0,0,0],"split_type":[0,0,0,0,0,0,0],"sum_hessian":[8.908386E2,3.8089072E2,5.0994794E2,5.7998238E1,3.228925E2,2.8496573E2,2.2498221E2],"tree_param":{"num_deleted":"0","num_feature":"61","num_nodes":"7","size_leaf_vector":"0"}},{"base_weights":[1.0239238E-1,2.9639974E-1,-4.281224E-2,-8.986569E-2,3.6584434E-1,-2.1287215E-1,1.7257692E-1],"categories":[],"categories_nodes":[],"categories_segments":[],"categories_sizes":[],"default_left":[1,1,1,0,0,0,0],"id":11,"left_children":[1,3,5,-1,-1,-1,-1],"loss_changes":[2.5136467E1,1.0276733E1,1.875228E1,0E0,0E0,0E0,0E0],"parents":[2147483647,0,0,1,1,2,2],"right_children":[2,4,6,-1,-1,-1,-1],"split_conditions":[2.2207142E1,-7.242857E0,1.6961539E0,-8.986569E-4,3.6584432E-3,-2.1287214E-3,1.7257691E-3],"split_indices":[58,29,29,0,0,0,0],"split_type":[0,0,0,0,0,0,0],"sum_hessian":[8.908387E2,3.8089072E2,5.0994794E2,5.7998238E1,3.228925E2,2.8496573E2,2.2498221E2],"tree_param":{"num_deleted":"0","num_feature":"61","num_nodes":"7","size_leaf_vector":"0"}},{"base_weights":[-1.0137872E-1,-2.9347703E-1,4.2386748E-2,-3.9958847E-1,-4.058254E-2,2.1076171E-1,-1.7086458E-1],"categories":[],"categories_nodes":[],"categories_segments":[],"categories_sizes":[],"default_left":[1,1,1,0,0,0,0],"id":12,"left_children":[1,3,5,-1,-1,-1,-1],"loss_changes":[2.4640614E1,1.0230637E1,1.8381407E1,0E0,0E0,0E0,0E0],"parents":[2147483647,0,0,1,1,2,2],"right_children":[2,4,6,-1,-1,-1,-1],"split_conditions":[2.2207142E1,1.21708145E2,1.6961539E0,-3.9958847E-3,-4.058254E-4,2.107617E-3,-1.7086458E-3],"split_indices":[58,15,29,0,0,0,0],"split_type":[0,0,0,0,0,0,0],"sum_hessian":[8.907724E2,3.8084662E2,5.0992575E2,2.6787112E2,1.12975494E2,2.849511E2,2.2497464E2],"tree_param":{"num_deleted":"0","num_feature":"61","num_nodes":"7","size_leaf_vector":"0"}},{"base_weights":[1.0137871E-1,2.9347712E-1,-4.238682E-2,3.9958853E-1,4.058262E-2,-2.1076174E-1,1.7086446E-1],"categories":[],"categories_nodes":[],"categories_segments":[],"categories_sizes":[],"default_left":[1,1,1,0,0,0,0],"id":13,"left_children":[1,3,5,-1,-1,-1,-1],"loss_changes":[2.4640633E1,1.0230637E1,1.8381397E1,0E0,0E0,0E0,0E0],"parents":[2147483647,0,0,1,1,2,2],"right_children":[2,4,6,-1,-1,-1,-1],"split_conditions":[2.2207142E1,1.21708145E2,1.6961539E0,3.995885E-3,4.058262E-4,-2.1076174E-3,1.7086446E-3],"split_indices":[58,15,29,0,0,0,0],"split_type":[0,0,0,0,0,0,0],"sum_hessian":[8.907724E2,3.8084665E2,5.0992578E2,2.6787115E2,1.12975494E2,2.8495114E2,2.2497464E2],"tree_param":{"num_deleted":"0","num_feature":"61","num_nodes":"7","size_leaf_vector":"0"}},{"base_weights":[-1.00378014E-1,-2.90592E-1,4.1965853E-2,-6.873098E-2,-4.0958178E-1,2.0867397E-1,-1.6917008E-1],"categories":[],"categories_nodes":[],"categories_segments":[],"categories_sizes":[],"default_left":[1,1,1,0,0,0,0],"id":14,"left_children":[1,3,5,-1,-1,-1,-1],"loss_changes":[2.4155594E1,1.005098E1,1.8017996E1,0E0,0E0,0E0,0E0],"parents":[2147483647,0,0,1,1,2,2],"right_children":[2,4,6,-1,-1,-1,-1],"split_conditions":[2.2207142E1,-2.6201923E0,1.6961539E0,-6.873098E-4,-4.095818E-3,2.0867398E-3,-1.6917008E-3],"split_indices":[58,29,29,0,0,0,0],"split_type":[0,0,0,0,0,0,0],"sum_hessian":[8.906968E2,3.8079678E2,5.0989996E2,1.334855E2,2.473113E2,2.849341E2,2.2496584E2],"tree_param":{"num_deleted":"0","num_feature":"61","num_nodes":"7","size_leaf_vector":"0"}},{"base_weights":[1.00378E-1,2.9059196E-1,-4.196585E-2,6.873099E-2,4.095817E-1,-2.0867395E-1,1.6917005E-1],"categories":[],"categories_nodes":[],"categories_segments":[],"categories_sizes":[],"default_left":[1,1,1,0,0,0,0],"id":15,"left_children":[1,3,5,-1,-1,-1,-1],"loss_changes":[2.4155586E1,1.0050968E1,1.801799E1,0E0,0E0,0E0,0E0],"parents":[2147483647,0,0,1,1,2,2],"right_children":[2,4,6,-1,-1,-1,-1],"split_conditions":[2.2207142E1,-2.6201923E0,1.6961539E0,6.8730983E-4,4.095817E-3,-2.0867395E-3,1.6917004E-3],"split_indices":[58,29,29,0,0,0,0],"split_type":[0,0,0,0,0,0,0],"sum_hessian":[8.906967E2,3.807968E2,5.0989993E2,1.334855E2,2.473113E2,2.849341E2,2.2496582E2],"tree_param":{"num_deleted":"0","num_feature":"61","num_nodes":"7","size_leaf_vector":"0"}},{"base_weights":[-9.938944E-2,-2.877453E-1,4.154931E-2,-3.9256802E-1,-3.800838E-2,2.0660846E-1,-1.6749337E-1],"categories":[],"categories_nodes":[],"categories_segments":[],"categories_sizes":[],"default_left":[1,1,1,0,0,0,0],"id":16,"left_children":[1,3,5,-1,-1,-1,-1],"loss_changes":[2.3681099E1,9.978184E0,1.7661894E1,0E0,0E0,0E0,0E0],"parents":[2147483647,0,0,1,1,2,2],"right_children":[2,4,6,-1,-1,-1,-1],"split_conditions":[2.2207142E1,1.21708145E2,1.6961539E0,-3.92568E-3,-3.800838E-4,2.0660846E-3,-1.6749337E-3],"split_indices":[58,15,29,0,0,0,0],"split_type":[0,0,0,0,0,0,0],"sum_hessian":[8.9060583E2,3.8073523E2,5.098706E2,2.677711E2,1.1296416E2,2.849148E2,2.249558E2],"tree_param":{"num_deleted":"0","num_feature":"61","num_nodes":"7","size_leaf_vector":"0"}},{"base_weights":[9.9389404E-2,2.877453E-1,-4.154936E-2,3.9256793E-1,3.8008444E-2,-2.0660856E-1,1.6749337E-1],"categories":[],"categories_nodes":[],"categories_segments":[],"categories_sizes":[],"default_left":[1,1,1,0,0,0,0],"id":17,"left_children":[1,3,5,-1,-1,-1,-1],"loss_changes":[2.3681099E1,9.978176E0,1.7661901E1,0E0,0E0,0E0,0E0],"parents":[2147483647,0,0,1,1,2,2],"right_children":[2,4,6,-1,-1,-1,-1],"split_conditions":[2.2207142E1,1.21708145E2,1.6961539E0,3.9256793E-3,3.8008444E-4,-2.0660856E-3,1.6749337E-3],"split_indices":[58,15,29,0,0,0,0],"split_type":[0,0,0,0,0,0,0],"sum_hessian":[8.9060583E2,3.8073526E2,5.0987057E2,2.6777112E2,1.1296415E2,2.849148E2,2.249558E2],"tree_param":{"num_deleted":"0","num_feature":"61","num_nodes":"7","size_leaf_vector":"0"}},{"base_weights":[-9.841073E-2,-2.4974902E-1,7.37556E-2,-1.2261764E-1,-4.824925E-1,3.3570814E-1,-3.9156254E-2],"categories":[],"categories_nodes":[],"categories_segments":[],"categories_sizes":[],"default_left":[1,1,1,0,0,0,0],"id":18,"left_children":[1,3,5,-1,-1,-1,-1],"loss_changes":[2.3247005E1,1.3986181E1,1.2371464E1,0E0,0E0,0E0,0E0],"parents":[2147483647,0,0,1,1,2,2],"right_children":[2,4,6,-1,-1,-1,-1],"split_conditions":[8.8562095E-1,2.5857143E0,-2.630682E0,-1.2261764E-3,-4.8249247E-3,3.3570814E-3,-3.9156253E-4],"split_indices":[59,29,29,0,0,0,0],"split_type":[0,0,0,0,0,0,0],"sum_hessian":[8.90509E2,4.7368127E2,4.1682767E2,3.0733347E2,1.663478E2,1.2495715E2,2.918705E2],"tree_param":{"num_deleted":"0","num_feature":"61","num_nodes":"7","size_leaf_vector":"0"}},{"base_weights":[9.8410726E-2,2.4974902E-1,-7.375563E-2,1.2261766E-1,4.8249248E-1,-3.3570814E-1,3.9156206E-2],"categories":[],"categories_nodes":[],"categories_segments":[],"categories_sizes":[],"default_left":[1,1,1,0,0,0,0],"id":19,"left_children":[1,3,5,-1,-1,-1,-1],"loss_changes":[2.324701E1,1.3986177E1,1.2371458E1,0E0,0E0,0E0,0E0],"parents":[2147483647,0,0,1,1,2,2],"right_children":[2,4,6,-1,-1,-1,-1],"split_conditions":[8.8562095E-1,2.5857143E0,-2.630682E0,1.2261766E-3,4.8249247E-3,-3.3570814E-3,3.9156206E-4],"split_indices":[59,29,29,0,0,0,0],"split_type":[0,0,0,0,0,0,0],"sum_hessian":[8.905089E2,4.7368127E2,4.1682767E2,3.0733347E2,1.663478E2,1.2495715E2,2.918705E2],"tree_param":{"num_deleted":"0","num_feature":"61","num_nodes":"7","size_leaf_vector":"0"}},{"base_weights":[-9.7438045E-2,-2.8309506E-1,4.1453306E-2,9.421041E-2,-3.509979E-1,2.0389621E-1,-1.6427821E-1],"categories":[],"categories_nodes":[],"categories_segments":[],"categories_sizes":[],"default_left":[1,1,1,0,0,0,0],"id":20,"left_children":[1,3,5,-1,-1,-1,-1],"loss_changes":[2.2998474E1,9.810234E0,1.7104792E1,0E0,0E0,0E0,0E0],"parents":[2147483647,0,0,1,1,2,2],"right_children":[2,4,6,-1,-1,-1,-1],"split_conditions":[2.2207142E1,-7.242857E0,1.6961539E0,9.421041E-4,-3.5099788E-3,2.038962E-3,-1.642782E-3],"split_indices":[58,29,29,0,0,0,0],"split_type":[0,0,0,0,0,0,0],"sum_hessian":[8.9043726E2,3.806207E2,5.0981656E2,5.799288E1,3.226278E2,2.8488446E2,2.249321E2],"tree_param":{"num_deleted":"0","num_feature":"61","num_nodes":"7","size_leaf_vector":"0"}},{"base_weights":[9.7438E-2,2.8309503E-1,-4.145336E-2,-9.421041E-2,3.5099787E-1,-2.0389622E-1,1.642781E-1],"categories":[],"categories_nodes":[],"categories_segments":[],"categories_sizes":[],"default_left":[1,1,1,0,0,0,0],"id":21,"left_children":[1,3,5,-1,-1,-1,-1],"loss_changes":[2.2998476E1,9.810228E0,1.7104784E1,0E0,0E0,0E0,0E0],"parents":[2147483647,0,0,1,1,2,2],"right_children":[2,4,6,-1,-1,-1,-1],"split_conditions":[2.2207142E1,-7.242857E0,1.6961539E0,-9.421041E-4,3.5099785E-3,-2.0389622E-3,1.642781E-3],"split_indices":[58,29,29,0,0,0,0],"split_type":[0,0,0,0,0,0,0],"sum_hessian":[8.9043726E2,3.806207E2,5.0981656E2,5.799288E1,3.226278E2,2.8488446E2,2.249321E2],"tree_param":{"num_deleted":"0","num_feature":"61","num_nodes":"7","size_leaf_vector":"0"}},{"base_weights":[-9.6478514E-2,-2.4568895E-1,7.324091E-2,-1.2042182E-1,-4.751052E-1,3.3106935E-1,-3.7885867E-2],"categories":[],"categories_nodes":[],"categories_segments":[],"categories_sizes":[],"default_left":[1,1,1,0,0,0,0],"id":22,"left_children":[1,3,5,-1,-1,-1,-1],"loss_changes":[2.258979E1,1.3580553E1,1.1982441E1,0E0,0E0,0E0,0E0],"parents":[2147483647,0,0,1,1,2,2],"right_children":[2,4,6,-1,-1,-1,-1],"split_conditions":[8.8562095E-1,2.5857143E0,-2.630682E0,-1.2042181E-3,-4.751052E-3,3.3106934E-3,-3.7885868E-4],"split_indices":[59,29,29,0,0,0,0],"split_type":[0,0,0,0,0,0,0],"sum_hessian":[8.903235E2,4.7354996E2,4.1677353E2,3.0728784E2,1.6626212E2,1.2493321E2,2.918403E2],"tree_param":{"num_deleted":"0","num_feature":"61","num_nodes":"7","size_leaf_vector":"0"}},{"base_weights":[9.647852E-2,2.4568895E-1,-7.3240876E-2,1.2042182E-1,4.7510514E-1,-3.3106926E-1,3.788589E-2],"categories":[],"categories_nodes":[],"categories_segments":[],"categories_sizes":[],"default_left":[1,1,1,0,0,0,0],"id":23,"left_children":[1,3,5,-1,-1,-1,-1],"loss_changes":[2.2589785E1,1.3580551E1,1.1982438E1,0E0,0E0,0E0,0E0],"parents":[2147483647,0,0,1,1,2,2],"right_children":[2,4,6,-1,-1,-1,-1],"split_conditions":[8.8562095E-1,2.5857143E0,-2.630682E0,1.2042181E-3,4.7510513E-3,-3.3106925E-3,3.7885888E-4],"split_indices":[59,29,29,0,0,0,0],"split_type":[0,0,0,0,0,0,0],"sum_hessian":[8.903235E2,4.7354996E2,4.1677353E2,3.0728784E2,1.6626212E2,1.2493321E2,2.9184033E2],"tree_param":{"num_deleted":"0","num_feature":"61","num_nodes":"7","size_leaf_vector":"0"}},{"base_weights":[-9.552675E-2,-2.7853316E-1,4.134957E-2,-3.8164815E-1,-3.3044897E-2,2.0122068E-1,-1.6112782E-1],"categories":[],"categories_nodes":[],"categories_segments":[],"categories_sizes":[],"default_left":[1,1,1,0,0,0,0],"id":24,"left_children":[1,3,5,-1,-1,-1,-1],"loss_changes":[2.2336285E1,9.6441E0,1.6565563E1,0E0,0E0,0E0,0E0],"parents":[2147483647,0,0,1,1,2,2],"right_children":[2,4,6,-1,-1,-1,-1],"split_conditions":[2.2207142E1,1.21708145E2,1.6961539E0,-3.8164814E-3,-3.3044897E-4,2.0122067E-3,-1.6112782E-3],"split_indices":[58,15,29,0,0,0,0],"split_type":[0,0,0,0,0,0,0],"sum_hessian":[8.902351E2,3.8048456E2,5.0975052E2,2.6754868E2,1.129359E2,2.848479E2,2.2490262E2],"tree_param":{"num_deleted":"0","num_feature":"61","num_nodes":"7","size_leaf_vector":"0"}},{"base_weights":[9.5526755E-2,2.785332E-1,-4.134959E-2,3.816482E-1,3.3044875E-2,-2.0122072E-1,1.6112784E-1],"categories":[],"categories_nodes":[],"categories_segments":[],"categories_sizes":[],"default_left":[1,1,1,0,0,0,0],"id":25,"left_children":[1,3,5,-1,-1,-1,-1],"loss_changes":[2.2336292E1,9.644106E0,1.6565567E1,0E0,0E0,0E0,0E0],"parents":[2147483647,0,0,1,1,2,2],"right_children":[2,4,6,-1,-1,-1,-1],"split_conditions":[2.2207142E1,1.21708145E2,1.6961539E0,3.8164821E-3,3.3044873E-4,-2.0122072E-3,1.6112783E-3],"split_indices":[58,15,29,0,0,0,0],"split_type":[0,0,0,0,0,0,0],"sum_hessian":[8.902351E2,3.8048456E2,5.0975052E2,2.6754868E2,1.129359E2,2.8484793E2,2.249026E2],"tree_param":{"num_deleted":"0","num_feature":"61","num_nodes":"7","size_leaf_vector":"0"}},{"base_weights":[-9.458944E-2,-2.4169512E-1,7.2704986E-2,-1.1821528E-1,-4.679436E-1,3.2660842E-1,-3.671794E-2],"categories":[],"categories_nodes":[],"categories_segments":[],"categories_sizes":[],"default_left":[1,1,1,0,0,0,0],"id":26,"left_children":[1,3,5,-1,-1,-1,-1],"loss_changes":[2.1947681E1,1.3197924E1,1.1617217E1,0E0,0E0,0E0,0E0],"parents":[2147483647,0,0,1,1,2,2],"right_children":[2,4,6,-1,-1,-1,-1],"split_conditions":[8.8562095E-1,2.5857143E0,-2.630682E0,-1.1821528E-3,-4.679436E-3,3.266084E-3,-3.671794E-4],"split_indices":[59,29,29,0,0,0,0],"split_type":[0,0,0,0,0,0,0],"sum_hessian":[8.9010706E2,4.7339536E2,4.167117E2,3.072369E2,1.6615845E2,1.24903206E2,2.918085E2],"tree_param":{"num_deleted":"0","num_feature":"61","num_nodes":"7","size_leaf_vector":"0"}},{"base_weights":[9.458943E-2,2.4169509E-1,-7.270496E-2,1.1821523E-1,4.679436E-1,-3.2660842E-1,3.671796E-2],"categories":[],"categories_nodes":[],"categories_segments":[],"categories_sizes":[],"default_left":[1,1,1,0,0,0,0],"id":27,"left_children":[1,3,5,-1,-1,-1,-1],"loss_changes":[2.1947674E1,1.3197924E1,1.1617218E1,0E0,0E0,0E0,0E0],"parents":[2147483647,0,0,1,1,2,2],"right_children":[2,4,6,-1,-1,-1,-1],"split_conditions":[8.8562095E-1,2.5857143E0,-2.630682E0,1.1821523E-3,4.679436E-3,-3.266084E-3,3.6717957E-4],"split_indices":[59,29,29,0,0,0,0],"split_type":[0,0,0,0,0,0,0],"sum_hessian":[8.9010706E2,4.7339532E2,4.167117E2,3.0723688E2,1.6615845E2,1.24903206E2,2.918085E2],"tree_param":{"num_deleted":"0","num_feature":"61","num_nodes":"7","size_leaf_vector":"0"}},{"base_weights":[-9.365795E-2,7.1980126E-2,-2.4094553E-1,-6.8430195E-4,3.674282E-1,1.0621506E-2,-3.7676334E-1],"categories":[],"categories_nodes":[],"categories_segments":[],"categories_sizes":[],"default_left":[1,1,1,0,0,0,0],"id":28,"left_children":[1,3,5,-1,-1,-1,-1],"loss_changes":[2.1754635E1,9.020194E0,1.612605E1,0E0,0E0,0E0,0E0],"parents":[2147483647,0,0,1,1,2,2],"right_children":[2,4,6,-1,-1,-1,-1],"split_conditions":[7.707143E0,6.5E0,-2.6201923E0,-6.8430195E-6,3.674282E-3,1.06215055E-4,-3.7676333E-3],"split_indices":[55,2,29,0,0,0,0],"split_type":[0,0,0,0,0,0,0],"sum_hessian":[8.900029E2,4.1914648E2,4.7085645E2,3.3720883E2,8.193765E1,1.6540628E2,3.0545016E2],"tree_param":{"num_deleted":"0","num_feature":"61","num_nodes":"7","size_leaf_vector":"0"}},{"base_weights":[9.365798E-2,-7.198008E-2,2.4094555E-1,6.843495E-4,-3.6742818E-1,-1.0621506E-2,3.7676337E-1],"categories":[],"categories_nodes":[],"categories_segments":[],"categories_sizes":[],"default_left":[1,1,1,0,0,0,0],"id":29,"left_children":[1,3,5,-1,-1,-1,-1],"loss_changes":[2.1754631E1,9.020193E0,1.6126059E1,0E0,0E0,0E0,0E0],"parents":[2147483647,0,0,1,1,2,2],"right_children":[2,4,6,-1,-1,-1,-1],"split_conditions":[7.707143E0,6.5E0,-2.6201923E0,6.8434947E-6,-3.6742818E-3,-1.06215055E-4,3.7676336E-3],"split_indices":[55,2,29,0,0,0,0],"split_type":[0,0,0,0,0,0,0],"sum_hessian":[8.900029E2,4.1914645E2,4.7085645E2,3.3720883E2,8.193765E1,1.6540628E2,3.0545013E2],"tree_param":{"num_deleted":"0","num_feature":"61","num_nodes":"7","size_leaf_vector":"0"}},{"base_weights":[-9.273153E-2,-2.7232936E-1,4.1540094E-2,-3.7395638E-1,-3.0542938E-2,1.9818927E-1,-1.5686886E-1],"categories":[],"categories_nodes":[],"categories_segments":[],"categories_sizes":[],"default_left":[1,1,1,0,0,0,0],"id":30,"left_children":[1,3,5,-1,-1,-1,-1],"loss_changes":[2.1495438E1,9.3568535E0,1.5902384E1,0E0,0E0,0E0,0E0],"parents":[2147483647,0,0,1,1,2,2],"right_children":[2,4,6,-1,-1,-1,-1],"split_conditions":[2.2207142E1,1.21708145E2,1.6961539E0,-3.7395637E-3,-3.0542936E-4,1.9818926E-3,-1.5686885E-3],"split_indices":[58,15,29,0,0,0,0],"split_type":[0,0,0,0,0,0,0],"sum_hessian":[8.8990704E2,3.8025748E2,5.0964957E2,2.6734222E2,1.12915245E2,2.8479636E2,2.2485323E2],"tree_param":{"num_deleted":"0","num_feature":"61","num_nodes":"7","size_leaf_vector":"0"}},{"base_weights":[9.27315E-2,2.723293E-1,-4.154011E-2,3.7395635E-1,3.0542925E-2,-1.9818926E-1,1.5686883E-1],"categories":[],"categories_nodes":[],"categories_segments":[],"categories_sizes":[],"default_left":[1,1,1,0,0,0,0],"id":31,"left_children":[1,3,5,-1,-1,-1,-1],"loss_changes":[2.1495434E1,9.356857E0,1.5902379E1,0E0,0E0,0E0,0E0],"parents":[2147483647,0,0,1,1,2,2],"right_children":[2,4,6,-1,-1,-1,-1],"split_conditions":[2.2207142E1,1.21708145E2,1.6961539E0,3.7395635E-3,3.0542925E-4,-1.9818926E-3,1.5686883E-3],"split_indices":[58,15,29,0,0,0,0],"split_type":[0,0,0,0,0,0,0],"sum_hessian":[8.8990704E2,3.8025748E2,5.0964957E2,2.6734222E2,1.12915245E2,2.8479636E2,2.2485323E2],"tree_param":{"num_deleted":"0","num_feature":"61","num_nodes":"7","size_leaf_vector":"0"}},{"base_weights":[-9.1823705E-2,-2.3652638E-1,7.268771E-2,-1.154172E-1,-4.5859694E-1,3.2122603E-1,-3.441038E-2],"categories":[],"categories_nodes":[],"categories_segments":[],"categories_sizes":[],"default_left":[1,1,1,0,0,0,0],"id":32,"left_children":[1,3,5,-1,-1,-1,-1],"loss_changes":[2.1221931E1,1.2699133E1,1.1127063E1,0E0,0E0,0E0,0E0],"parents":[2147483647,0,0,1,1,2,2],"right_children":[2,4,6,-1,-1,-1,-1],"split_conditions":[8.8562095E-1,2.5857143E0,-2.630682E0,-1.154172E-3,-4.5859693E-3,3.2122603E-3,-3.4410378E-4],"split_indices":[59,29,29,0,0,0,0],"split_type":[0,0,0,0,0,0,0],"sum_hessian":[8.8975916E2,4.7314636E2,4.166128E2,3.0715497E2,1.659914E2,1.2485872E2,2.917541E2],"tree_param":{"num_deleted":"0","num_feature":"61","num_nodes":"7","size_leaf_vector":"0"}},{"base_weights":[9.18237E-2,2.3652638E-1,-7.2687715E-2,1.1541719E-1,4.5859694E-1,-3.2122603E-1,3.4410372E-2],"categories":[],"categories_nodes":[],"categories_segments":[],"categories_sizes":[],"default_left":[1,1,1,0,0,0,0],"id":33,"left_children":[1,3,5,-1,-1,-1,-1],"loss_changes":[2.1221931E1,1.2699135E1,1.1127062E1,0E0,0E0,0E0,0E0],"parents":[2147483647,0,0,1,1,2,2],"right_children":[2,4,6,-1,-1,-1,-1],"split_conditions":[8.8562095E-1,2.5857143E0,-2.630682E0,1.1541719E-3,4.5859693E-3,-3.2122603E-3,3.4410373E-4],"split_indices":[59,29,29,0,0,0,0],"split_type":[0,0,0,0,0,0,0],"sum_hessian":[8.8975916E2,4.7314636E2,4.1661282E2,3.0715497E2,1.659914E2,1.2485873E2,2.917541E2],"tree_param":{"num_deleted":"0","num_feature":"61","num_nodes":"7","size_leaf_vector":"0"}},{"base_weights":[-9.092148E-2,7.195038E-2,-2.3579602E-1,6.572219E-4,3.6184844E-1,1.0996746E-2,-3.6911526E-1],"categories":[],"categories_nodes":[],"categories_segments":[],"categories_sizes":[],"default_left":[1,1,1,0,0,0,0],"id":34,"left_children":[1,3,5,-1,-1,-1,-1],"loss_changes":[2.1032387E1,8.68107E0,1.5520557E1,0E0,0E0,0E0,0E0],"parents":[2147483647,0,0,1,1,2,2],"right_children":[2,4,6,-1,-1,-1,-1],"split_conditions":[7.707143E0,6.5E0,-2.6201923E0,6.572219E-6,3.6184844E-3,1.09967456E-4,-3.6911524E-3],"split_indices":[55,2,29,0,0,0,0],"split_type":[0,0,0,0,0,0,0],"sum_hessian":[8.896355E2,4.1904132E2,4.7059418E2,3.3713394E2,8.190738E1,1.6537648E2,3.052177E2],"tree_param":{"num_deleted":"0","num_feature":"61","num_nodes":"7","size_leaf_vector":"0"}},{"base_weights":[9.0921484E-2,-7.195035E-2,2.35796E-1,-6.572035E-4,-3.6184835E-1,-1.0996761E-2,3.6911526E-1],"categories":[],"categories_nodes":[],"categories_segments":[],"categories_sizes":[],"default_left":[1,1,1,0,0,0,0],"id":35,"left_children":[1,3,5,-1,-1,-1,-1],"loss_changes":[2.1032383E1,8.681067E0,1.55205555E1,0E0,0E0,0E0,0E0],"parents":[2147483647,0,0,1,1,2,2],"right_children":[2,4,6,-1,-1,-1,-1],"split_conditions":[7.707143E0,6.5E0,-2.6201923E0,-6.5720346E-6,-3.6184834E-3,-1.0996761E-4,3.6911524E-3],"split_indices":[55,2,29,0,0,0,0],"split_type":[0,0,0,0,0,0,0],"sum_hessian":[8.896355E2,4.1904132E2,4.7059418E2,3.3713394E2,8.190738E1,1.6537648E2,3.052177E2],"tree_param":{"num_deleted":"0","num_feature":"61","num_nodes":"7","size_leaf_vector":"0"}},{"base_weights":[-9.002401E-2,-2.1082084E-1,1.023716E-1,1.6653126E-1,-2.785884E-1,2.5773612E-1,-8.916991E-2],"categories":[],"categories_nodes":[],"categories_segments":[],"categories_sizes":[],"default_left":[1,1,1,0,0,0,0],"id":36,"left_children":[1,3,5,-1,-1,-1,-1],"loss_changes":[2.0717974E1,1.4044073E1,1.0264239E1,0E0,0E0,0E0,0E0],"parents":[2147483647,0,0,1,1,2,2],"right_children":[2,4,6,-1,-1,-1,-1],"split_conditions":[2.369318E0,-7.242857E0,1.7238095E0,1.6653126E-3,-2.785884E-3,2.5773612E-3,-8.916991E-4],"split_indices":[59,29,29,0,0,0,0],"split_type":[0,0,0,0,0,0,0],"sum_hessian":[8.8952057E2,5.463779E2,3.4314267E2,8.296183E1,4.6341608E2,1.892728E2,1.5386987E2],"tree_param":{"num_deleted":"0","num_feature":"61","num_nodes":"7","size_leaf_vector":"0"}},{"base_weights":[9.002403E-2,2.1082087E-1,-1.02371596E-1,-1.6653126E-1,2.7858844E-1,-2.5773612E-1,8.916991E-2],"categories":[],"categories_nodes":[],"categories_segments":[],"categories_sizes":[],"default_left":[1,1,1,0,0,0,0],"id":37,"left_children":[1,3,5,-1,-1,-1,-1],"loss_changes":[2.071798E1,1.4044071E1,1.0264239E1,0E0,0E0,0E0,0E0],"parents":[2147483647,0,0,1,1,2,2],"right_children":[2,4,6,-1,-1,-1,-1],"split_conditions":[2.369318E0,-7.242857E0,1.7238095E0,-1.6653126E-3,2.7858843E-3,-2.5773612E-3,8.916991E-4],"split_indices":[59,29,29,0,0,0,0],"split_type":[0,0,0,0,0,0,0],"sum_hessian":[8.8952057E2,5.4637787E2,3.4314267E2,8.296183E1,4.6341608E2,1.8927278E2,1.5386989E2],"tree_param":{"num_deleted":"0","num_feature":"61","num_nodes":"7","size_leaf_vector":"0"}},{"base_weights":[-8.913579E-2,7.171427E-2,-2.322477E-1,1.4030167E-3,3.5766262E-1,1.1026914E-2,-3.637316E-1],"categories":[],"categories_nodes":[],"categories_segments":[],"categories_sizes":[],"default_left":[1,1,1,0,0,0,0],"id":38,"left_children":[1,3,5,-1,-1,-1,-1],"loss_changes":[2.0513166E1,8.443392E0,1.5082983E1,0E0,0E0,0E0,0E0],"parents":[2147483647,0,0,1,1,2,2],"right_children":[2,4,6,-1,-1,-1,-1],"split_conditions":[7.707143E0,6.5E0,-2.6201923E0,1.4030167E-5,3.576626E-3,1.1026914E-4,-3.637316E-3],"split_indices":[55,2,29,0,0,0,0],"split_type":[0,0,0,0,0,0,0],"sum_hessian":[8.8939545E2,4.1898163E2,4.7041382E2,3.3709818E2,8.188346E1,1.6536595E2,3.0504785E2],"tree_param":{"num_deleted":"0","num_feature":"61","num_nodes":"7","size_leaf_vector":"0"}},{"base_weights":[8.9135796E-2,-7.171425E-2,2.3224771E-1,-1.4030013E-3,-3.5766265E-1,-1.10269245E-2,3.637316E-1],"categories":[],"categories_nodes":[],"categories_segments":[],"categories_sizes":[],"default_left":[1,1,1,0,0,0,0],"id":39,"left_children":[1,3,5,-1,-1,-1,-1],"loss_changes":[2.0513166E1,8.443392E0,1.5082977E1,0E0,0E0,0E0,0E0],"parents":[2147483647,0,0,1,1,2,2],"right_children":[2,4,6,-1,-1,-1,-1],"split_conditions":[7.707143E0,6.5E0,-2.6201923E0,-1.4030013E-5,-3.5766263E-3,-1.1026924E-4,3.637316E-3],"split_indices":[55,2,29,0,0,0,0],"split_type":[0,0,0,0,0,0,0],"sum_hessian":[8.8939545E2,4.1898163E2,4.7041382E2,3.3709818E2,8.188346E1,1.6536595E2,3.0504788E2],"tree_param":{"num_deleted":"0","num_feature":"61","num_nodes":"7","size_leaf_vector":"0"}},{"base_weights":[-8.825724E-2,-2.6302785E-1,4.230419E-2,-3.6273652E-1,-2.6079457E-2,1.941242E-1,-1.500205E-1],"categories":[],"categories_nodes":[],"categories_segments":[],"categories_sizes":[],"default_left":[1,1,1,0,0,0,0],"id":40,"left_children":[1,3,5,-1,-1,-1,-1],"loss_changes":[2.0325516E1,8.987745E0,1.493351E1,0E0,0E0,0E0,0E0],"parents":[2147483647,0,0,1,1,2,2],"right_children":[2,4,6,-1,-1,-1,-1],"split_conditions":[2.2207142E1,1.21708145E2,1.6961539E0,-3.6273652E-3,-2.6079456E-4,1.941242E-3,-1.5002049E-3],"split_indices":[58,15,29,0,0,0,0],"split_type":[0,0,0,0,0,0,0],"sum_hessian":[8.892674E2,3.798211E2,5.094463E2,2.669548E2,1.1286631E2,2.8469797E2,2.2474832E2],"tree_param":{"num_deleted":"0","num_feature":"61","num_nodes":"7","size_leaf_vector":"0"}},{"base_weights":[8.825723E-2,2.6302788E-1,-4.2304207E-2,3.6273652E-1,2.6079457E-2,-1.941242E-1,1.5002047E-1],"categories":[],"categories_nodes":[],"categories_segments":[],"categories_sizes":[],"default_left":[1,1,1,0,0,0,0],"id":41,"left_children":[1,3,5,-1,-1,-1,-1],"loss_changes":[2.0325521E1,8.987745E0,1.4933509E1,0E0,0E0,0E0,0E0],"parents":[2147483647,0,0,1,1,2,2],"right_children":[2,4,6,-1,-1,-1,-1],"split_conditions":[2.2207142E1,1.21708145E2,1.6961539E0,3.6273652E-3,2.6079456E-4,-1.941242E-3,1.5002047E-3],"split_indices":[58,15,29,0,0,0,0],"split_type":[0,0,0,0,0,0,0],"sum_hessian":[8.892674E2,3.798211E2,5.0944632E2,2.669548E2,1.1286631E2,2.8469797E2,2.2474832E2],"tree_param":{"num_deleted":"0","num_feature":"61","num_nodes":"7","size_leaf_vector":"0"}},{"base_weights":[-8.739596E-2,-2.2829975E-1,7.270641E-2,-1.104423E-1,-4.4471428E-1,3.1311172E-1,-3.0865949E-2],"categories":[],"categories_nodes":[],"categories_segments":[],"categories_sizes":[],"default_left":[1,1,1,0,0,0,0],"id":42,"left_children":[1,3,5,-1,-1,-1,-1],"loss_changes":[2.0096216E1,1.2032423E1,1.0403124E1,0E0,0E0,0E0,0E0],"parents":[2147483647,0,0,1,1,2,2],"right_children":[2,4,6,-1,-1,-1,-1],"split_conditions":[8.8562095E-1,2.5857143E0,-2.630682E0,-1.104423E-3,-4.4471426E-3,3.1311172E-3,-3.0865948E-4],"split_indices":[59,29,29,0,0,0,0],"split_type":[0,0,0,0,0,0,0],"sum_hessian":[8.8909216E2,4.7267328E2,4.1641888E2,3.069962E2,1.656771E2,1.2477538E2,2.9164352E2],"tree_param":{"num_deleted":"0","num_feature":"61","num_nodes":"7","size_leaf_vector":"0"}},{"base_weights":[8.739596E-2,2.2829972E-1,-7.2706394E-2,1.1044231E-1,4.447142E-1,-3.1311175E-1,3.0865975E-2],"categories":[],"categories_nodes":[],"categories_segments":[],"categories_sizes":[],"default_left":[1,1,1,0,0,0,0],"id":43,"left_children":[1,3,5,-1,-1,-1,-1],"loss_changes":[2.009621E1,1.2032423E1,1.0403124E1,0E0,0E0,0E0,0E0],"parents":[2147483647,0,0,1,1,2,2],"right_children":[2,4,6,-1,-1,-1,-1],"split_conditions":[8.8562095E-1,2.5857143E0,-2.630682E0,1.1044231E-3,4.4471417E-3,-3.1311174E-3,3.0865974E-4],"split_indices":[59,29,29,0,0,0,0],"split_type":[0,0,0,0,0,0,0],"sum_hessian":[8.8909216E2,4.7267328E2,4.164189E2,3.069962E2,1.656771E2,1.2477539E2,2.9164352E2],"tree_param":{"num_deleted":"0","num_feature":"61","num_nodes":"7","size_leaf_vector":"0"}},{"base_weights":[-8.654003E-2,7.163466E-2,-2.2732991E-1,1.3395856E-1,-2.4502686E-1,1.1352024E-2,-3.5643053E-1],"categories":[],"categories_nodes":[],"categories_segments":[],"categories_sizes":[],"default_left":[1,1,1,0,0,0,0],"id":44,"left_children":[1,3,5,-1,-1,-1,-1],"loss_changes":[1.983472E1,8.318918E0,1.4520048E1,0E0,0E0,0E0,0E0],"parents":[2147483647,0,0,1,1,2,2],"right_children":[2,4,6,-1,-1,-1,-1],"split_conditions":[7.707143E0,2.3095455E1,-2.6201923E0,1.3395856E-3,-2.4502685E-3,1.1352024E-4,-3.5643051E-3],"split_indices":[55,23,29,0,0,0,0],"split_type":[0,0,0,0,0,0,0],"sum_hessian":[8.8894055E2,4.188556E2,4.7008493E2,3.5045715E2,6.8398445E1,1.653314E2,3.0475354E2],"tree_param":{"num_deleted":"0","num_feature":"61","num_nodes":"7","size_leaf_vector":"0"}},{"base_weights":[8.654001E-2,-7.163467E-2,2.2732988E-1,-1.3395858E-1,2.4502684E-1,-1.1352052E-2,3.564305E-1],"categories":[],"categories_nodes":[],"categories_segments":[],"categories_sizes":[],"default_left":[1,1,1,0,0,0,0],"id":45,"left_children":[1,3,5,-1,-1,-1,-1],"loss_changes":[1.9834719E1,8.318917E0,1.452005E1,0E0,0E0,0E0,0E0],"parents":[2147483647,0,0,1,1,2,2],"right_children":[2,4,6,-1,-1,-1,-1],"split_conditions":[7.707143E0,2.3095455E1,-2.6201923E0,-1.3395858E-3,2.4502682E-3,-1.1352052E-4,3.564305E-3],"split_indices":[55,23,29,0,0,0,0],"split_type":[0,0,0,0,0,0,0],"sum_hessian":[8.8894055E2,4.188556E2,4.7008493E2,3.5045715E2,6.839844E1,1.653314E2,3.0475354E2],"tree_param":{"num_deleted":"0","num_feature":"61","num_nodes":"7","size_leaf_vector":"0"}},{"base_weights":[-8.569278E-2,-2.2491379E-1,7.24512E-2,-1.0872809E-1,-4.3844E-1,3.0937415E-1,-2.9603282E-2],"categories":[],"categories_nodes":[],"categories_segments":[],"categories_sizes":[],"default_left":[1,1,1,0,0,0,0],"id":46,"left_children":[1,3,5,-1,-1,-1,-1],"loss_changes":[1.9607166E1,1.169824E1,1.0100252E1,0E0,0E0,0E0,0E0],"parents":[2147483647,0,0,1,1,2,2],"right_children":[2,4,6,-1,-1,-1,-1],"split_conditions":[8.8562095E-1,2.5857143E0,-2.630682E0,-1.0872808E-3,-4.3844E-3,3.0937414E-3,-2.960328E-4],"split_indices":[59,29,29,0,0,0,0],"split_type":[0,0,0,0,0,0,0],"sum_hessian":[8.88808E2,4.7245932E2,4.1634866E2,3.0694888E2,1.6551044E2,1.24736694E2,2.9161197E2],"tree_param":{"num_deleted":"0","num_feature":"61","num_nodes":"7","size_leaf_vector":"0"}},{"base_weights":[8.5692786E-2,2.2491379E-1,-7.2451174E-2,1.0872809E-1,4.3844E-1,-3.0937412E-1,2.9603299E-2],"categories":[],"categories_nodes":[],"categories_segments":[],"categories_sizes":[],"default_left":[1,1,1,0,0,0,0],"id":47,"left_children":[1,3,5,-1,-1,-1,-1],"loss_changes":[1.9607162E1,1.1698236E1,1.0100254E1,0E0,0E0,0E0,0E0],"parents":[2147483647,0,0,1,1,2,2],"right_children":[2,4,6,-1,-1,-1,-1],"split_conditions":[8.8562095E-1,2.5857143E0,-2.630682E0,1.0872808E-3,4.3844E-3,-3.0937411E-3,2.96033E-4],"split_indices":[59,29,29,0,0,0,0],"split_type":[0,0,0,0,0,0,0],"sum_hessian":[8.88808E2,4.7245932E2,4.1634866E2,3.0694888E2,1.6551044E2,1.24736694E2,2.9161197E2],"tree_param":{"num_deleted":"0","num_feature":"61","num_nodes":"7","size_leaf_vector":"0"}},{"base_weights":[-8.485466E-2,-2.557209E-1,4.269832E-2,-3.538378E-1,-2.2821667E-2,1.9072092E-1,-1.4484613E-1],"categories":[],"categories_nodes":[],"categories_segments":[],"categories_sizes":[],"default_left":[1,1,1,0,0,0,0],"id":48,"left_children":[1,3,5,-1,-1,-1,-1],"loss_changes":[1.9400278E1,8.684643E0,1.4192353E1,0E0,0E0,0E0,0E0],"parents":[2147483647,0,0,1,1,2,2],"right_children":[2,4,6,-1,-1,-1,-1],"split_conditions":[2.2207142E1,1.21708145E2,1.6961539E0,-3.5383778E-3,-2.2821667E-4,1.9072092E-3,-1.4484612E-3],"split_indices":[58,15,29,0,0,0,0],"split_type":[0,0,0,0,0,0,0],"sum_hessian":[8.886446E2,3.7940283E2,5.092418E2,2.6657825E2,1.1282458E2,2.8459973E2,2.2464204E2],"tree_param":{"num_deleted":"0","num_feature":"61","num_nodes":"7","size_leaf_vector":"0"}},{"base_weights":[8.4854655E-2,2.557209E-1,-4.2698327E-2,3.5383776E-1,2.2821685E-2,-1.9072092E-1,1.4484611E-1],"categories":[],"categories_nodes":[],"categories_segments":[],"categories_sizes":[],"default_left":[1,1,1,0,0,0,0],"id":49,"left_children":[1,3,5,-1,-1,-1,-1],"loss_changes":[1.9400278E1,8.684643E0,1.4192353E1,0E0,0E0,0E0,0E0],"parents":[2147483647,0,0,1,1,2,2],"right_children":[2,4,6,-1,-1,-1,-1],"split_conditions":[2.2207142E1,1.21708145E2,1.6961539E0,3.5383776E-3,2.2821684E-4,-1.9072092E-3,1.4484611E-3],"split_indices":[58,15,29,0,0,0,0],"split_type":[0,0,0,0,0,0,0],"sum_hessian":[8.886446E2,3.7940283E2,5.092418E2,2.6657825E2,1.1282458E2,2.8459973E2,2.2464204E2],"tree_param":{"num_deleted":"0","num_feature":"61","num_nodes":"7","size_leaf_vector":"0"}},{"base_weights":[-8.402854E-2,-2.5004396E-1,4.5799155E-2,1.8972953E-1,-3.0926222E-1,-1.3495754E-1,1.7346215E-1],"categories":[],"categories_nodes":[],"categories_segments":[],"categories_sizes":[],"default_left":[1,1,1,0,0,0,0],"id":50,"left_children":[1,3,5,-1,-1,-1,-1],"loss_changes":[1.9182102E1,1.0227814E1,1.1560659E1,0E0,0E0,0E0,0E0],"parents":[2147483647,0,0,1,1,2,2],"right_children":[2,4,6,-1,-1,-1,-1],"split_conditions":[1.4852941E0,-8.035714E0,1.0811539E2,1.8972952E-3,-3.0926222E-3,-1.3495754E-3,1.7346215E-3],"split_indices":[38,29,15,0,0,0,0],"split_type":[0,0,0,0,0,0,0],"sum_hessian":[8.8844916E2,3.894804E2,4.9896875E2,4.5960373E1,3.4352002E2,2.065126E2,2.9245615E2],"tree_param":{"num_deleted":"0","num_feature":"61","num_nodes":"7","size_leaf_vector":"0"}},{"base_weights":[8.4028535E-2,2.5004393E-1,-4.5799162E-2,-1.8972951E-1,3.0926222E-1,1.3495752E-1,-1.7346215E-1],"categories":[],"categories_nodes":[],"categories_segments":[],"categories_sizes":[],"default_left":[1,1,1,0,0,0,0],"id":51,"left_children":[1,3,5,-1,-1,-1,-1],"loss_changes":[1.9182098E1,1.0227814E1,1.1560658E1,0E0,0E0,0E0,0E0],"parents":[2147483647,0,0,1,1,2,2],"right_children":[2,4,6,-1,-1,-1,-1],"split_conditions":[1.4852941E0,-8.035714E0,1.0811539E2,-1.8972951E-3,3.0926222E-3,1.3495752E-3,-1.7346215E-3],"split_indices":[38,29,15,0,0,0,0],"split_type":[0,0,0,0,0,0,0],"sum_hessian":[8.8844916E2,3.894804E2,4.9896875E2,4.5960373E1,3.4352002E2,2.065126E2,2.9245615E2],"tree_param":{"num_deleted":"0","num_feature":"61","num_nodes":"7","size_leaf_vector":"0"}},{"base_weights":[-8.320146E-2,7.174788E-2,-2.212079E-1,1.3311164E-1,-2.4009277E-1,1.2070467E-2,-3.47524E-1],"categories":[],"categories_nodes":[],"categories_segments":[],"categories_sizes":[],"default_left":[1,1,1,0,0,0,0],"id":52,"left_children":[1,3,5,-1,-1,-1,-1],"loss_changes":[1.9033089E1,8.063187E0,1.3871904E1,0E0,0E0,0E0,0E0],"parents":[2147483647,0,0,1,1,2,2],"right_children":[2,4,6,-1,-1,-1,-1],"split_conditions":[7.707143E0,2.3095455E1,-2.6201923E0,1.3311164E-3,-2.4009277E-3,1.20704666E-4,-3.4752397E-3],"split_indices":[55,23,29,0,0,0,0],"split_type":[0,0,0,0,0,0,0],"sum_hessian":[8.8831964E2,4.1869833E2,4.6962134E2,3.503332E2,6.836516E1,1.6528334E2,3.0433798E2],"tree_param":{"num_deleted":"0","num_feature":"61","num_nodes":"7","size_leaf_vector":"0"}},{"base_weights":[8.320147E-2,-7.174788E-2,2.2120792E-1,-1.3311164E-1,2.4009277E-1,-1.2070464E-2,3.47524E-1],"categories":[],"categories_nodes":[],"categories_segments":[],"categories_sizes":[],"default_left":[1,1,1,0,0,0,0],"id":53,"left_children":[1,3,5,-1,-1,-1,-1],"loss_changes":[1.9033089E1,8.063187E0,1.387191E1,0E0,0E0,0E0,0E0],"parents":[2147483647,0,0,1,1,2,2],"right_children":[2,4,6,-1,-1,-1,-1],"split_conditions":[7.707143E0,2.3095455E1,-2.6201923E0,-1.3311164E-3,2.4009277E-3,-1.2070464E-4,3.4752397E-3],"split_indices":[55,23,29,0,0,0,0],"split_type":[0,0,0,0,0,0,0],"sum_hessian":[8.8831964E2,4.1869833E2,4.6962134E2,3.503332E2,6.836516E1,1.6528334E2,3.0433798E2],"tree_param":{"num_deleted":"0","num_feature":"61","num_nodes":"7","size_leaf_vector":"0"}},{"base_weights":[-8.2388714E-2,-1.9796944E-1,1.0149427E-1,1.6466098E-1,-2.632272E-1,2.4932893E-1,-8.0735184E-2],"categories":[],"categories_nodes":[],"categories_segments":[],"categories_sizes":[],"default_left":[1,1,1,0,0,0,0],"id":54,"left_children":[1,3,5,-1,-1,-1,-1],"loss_changes":[1.891788E1,1.2971821E1,9.283219E0,0E0,0E0,0E0,0E0],"parents":[2147483647,0,0,1,1,2,2],"right_children":[2,4,6,-1,-1,-1,-1],"split_conditions":[2.369318E0,-7.242857E0,1.7238095E0,1.6466097E-3,-2.632272E-3,2.4932893E-3,-8.0735184E-4],"split_indices":[59,29,29,0,0,0,0],"split_type":[0,0,0,0,0,0,0],"sum_hessian":[8.8816846E2,5.4532477E2,3.428437E2,8.293585E1,4.6238892E2,1.890818E2,1.5376189E2],"tree_param":{"num_deleted":"0","num_feature":"61","num_nodes":"7","size_leaf_vector":"0"}},{"base_weights":[8.2388714E-2,1.9796944E-1,-1.0149426E-1,-1.64661E-1,2.632272E-1,-2.4932893E-1,8.0735184E-2],"categories":[],"categories_nodes":[],"categories_segments":[],"categories_sizes":[],"default_left":[1,1,1,0,0,0,0],"id":55,"left_children":[1,3,5,-1,-1,-1,-1],"loss_changes":[1.8917881E1,1.2971819E1,9.283219E0,0E0,0E0,0E0,0E0],"parents":[2147483647,0,0,1,1,2,2],"right_children":[2,4,6,-1,-1,-1,-1],"split_conditions":[2.369318E0,-7.242857E0,1.7238095E0,-1.64661E-3,2.632272E-3,-2.4932893E-3,8.0735184E-4],"split_indices":[59,29,29,0,0,0,0],"split_type":[0,0,0,0,0,0,0],"sum_hessian":[8.8816846E2,5.4532477E2,3.428437E2,8.293585E1,4.6238892E2,1.890818E2,1.5376189E2],"tree_param":{"num_deleted":"0","num_feature":"61","num_nodes":"7","size_leaf_vector":"0"}},{"base_weights":[-8.157954E-2,-3.0102146E-1,1.3943724E-2,7.768802E-2,-3.822565E-1,1.310408E-1,-1.7648765E-1],"categories":[],"categories_nodes":[],"categories_segments":[],"categories_sizes":[],"default_left":[1,1,1,0,0,0,0],"id":56,"left_children":[1,3,5,-1,-1,-1,-1],"loss_changes":[1.8639267E1,8.32572E0,1.3856034E1,0E0,0E0,0E0,0E0],"parents":[2147483647,0,0,1,1,2,2],"right_children":[2,4,6,-1,-1,-1,-1],"split_conditions":[1.9129166E1,-6.9285717E0,2.5470085E0,7.7688025E-4,-3.822565E-3,1.3104079E-3,-1.7648765E-3],"split_indices":[53,29,29,0,0,0,0],"split_type":[0,0,0,0,0,0,0],"sum_hessian":[8.8800104E2,2.686623E2,6.1933875E2,4.745865E1,2.2120364E2,3.8370734E2,2.3563142E2],"tree_param":{"num_deleted":"0","num_feature":"61","num_nodes":"7","size_leaf_vector":"0"}},{"base_weights":[8.157954E-2,3.0102146E-1,-1.3943725E-2,-7.768801E-2,3.822565E-1,-1.310408E-1,1.7648764E-1],"categories":[],"categories_nodes":[],"categories_segments":[],"categories_sizes":[],"default_left":[1,1,1,0,0,0,0],"id":57,"left_children":[1,3,5,-1,-1,-1,-1],"loss_changes":[1.8639267E1,8.32572E0,1.3856032E1,0E0,0E0,0E0,0E0],"parents":[2147483647,0,0,1,1,2,2],"right_children":[2,4,6,-1,-1,-1,-1],"split_conditions":[1.9129166E1,-6.9285717E0,2.5470085E0,-7.768801E-4,3.822565E-3,-1.3104079E-3,1.7648763E-3],"split_indices":[53,29,29,0,0,0,0],"split_type":[0,0,0,0,0,0,0],"sum_hessian":[8.8800104E2,2.686623E2,6.1933875E2,4.745865E1,2.2120364E2,3.8370734E2,2.3563142E2],"tree_param":{"num_deleted":"0","num_feature":"61","num_nodes":"7","size_leaf_vector":"0"}},{"base_weights":[-8.078341E-2,-1.8054762E-1,1.2752636E-1,1.7473388E-1,-2.42936E-1,2.9024577E-1,-6.0090378E-2],"categories":[],"categories_nodes":[],"categories_segments":[],"categories_sizes":[],"default_left":[1,1,1,0,0,0,0],"id":58,"left_children":[1,3,5,-1,-1,-1,-1],"loss_changes":[1.8494585E1,1.337303E1,8.822519E0,0E0,0E0,0E0,0E0],"parents":[2147483647,0,0,1,1,2,2],"right_children":[2,4,6,-1,-1,-1,-1],"split_conditions":[3.730303E0,-7.242857E0,1.7738096E0,1.7473387E-3,-2.42936E-3,2.9024577E-3,-6.0090376E-4],"split_indices":[59,29,29,0,0,0,0],"split_type":[0,0,0,0,0,0,0],"sum_hessian":[8.87831E2,6.00413E2,2.8741797E2,8.941621E1,5.1099686E2,1.53629E2,1.3378897E2],"tree_param":{"num_deleted":"0","num_feature":"61","num_nodes":"7","size_leaf_vector":"0"}},{"base_weights":[8.078342E-2,1.8054761E-1,-1.2752631E-1,-1.7473388E-1,2.42936E-1,-2.9024574E-1,6.0090434E-2],"categories":[],"categories_nodes":[],"categories_segments":[],"categories_sizes":[],"default_left":[1,1,1,0,0,0,0],"id":59,"left_children":[1,3,5,-1,-1,-1,-1],"loss_changes":[1.849458E1,1.3373032E1,8.822521E0,0E0,0E0,0E0,0E0],"parents":[2147483647,0,0,1,1,2,2],"right_children":[2,4,6,-1,-1,-1,-1],"split_conditions":[3.730303E0,-7.242857E0,1.7738096E0,-1.7473387E-3,2.42936E-3,-2.9024573E-3,6.0090434E-4],"split_indices":[59,29,29,0,0,0,0],"split_type":[0,0,0,0,0,0,0],"sum_hessian":[8.87831E2,6.00413E2,2.8741797E2,8.94162E1,5.1099686E2,1.53629E2,1.3378897E2],"tree_param":{"num_deleted":"0","num_feature":"61","num_nodes":"7","size_leaf_vector":"0"}},{"base_weights":[-7.9989545E-2,7.210727E-2,-2.1554264E-1,1.3248503E-1,-2.3480086E-1,1.2120504E-2,-3.389686E-1],"categories":[],"categories_nodes":[],"categories_segments":[],"categories_sizes":[],"default_left":[1,1,1,0,0,0,0],"id":60,"left_children":[1,3,5,-1,-1,-1,-1],"loss_changes":[1.833715E1,7.805046E0,1.3214659E1,0E0,0E0,0E0,0E0],"parents":[2147483647,0,0,1,1,2,2],"right_children":[2,4,6,-1,-1,-1,-1],"split_conditions":[7.707143E0,2.3095455E1,-2.6201923E0,1.3248503E-3,-2.3480086E-3,1.21205034E-4,-3.3896859E-3],"split_indices":[55,23,29,0,0,0,0],"split_type":[0,0,0,0,0,0,0],"sum_hessian":[8.8765686E2,4.185229E2,4.6913394E2,3.5019724E2,6.832567E1,1.6524184E2,3.038921E2],"tree_param":{"num_deleted":"0","num_feature":"61","num_nodes":"7","size_leaf_vector":"0"}},{"base_weights":[7.9989545E-2,-7.210726E-2,2.1554263E-1,-1.3248503E-1,2.3480089E-1,-1.212048E-2,3.3896858E-1],"categories":[],"categories_nodes":[],"categories_segments":[],"categories_sizes":[],"default_left":[1,1,1,0,0,0,0],"id":61,"left_children":[1,3,5,-1,-1,-1,-1],"loss_changes":[1.833715E1,7.805047E0,1.3214655E1,0E0,0E0,0E0,0E0],"parents":[2147483647,0,0,1,1,2,2],"right_children":[2,4,6,-1,-1,-1,-1],"split_conditions":[7.707143E0,2.3095455E1,-2.6201923E0,-1.3248503E-3,2.3480088E-3,-1.21204794E-4,3.3896856E-3],"split_indices":[55,23,29,0,0,0,0],"split_type":[0,0,0,0,0,0,0],"sum_hessian":[8.8765686E2,4.1852292E2,4.6913394E2,3.5019724E2,6.832567E1,1.6524184E2,3.038921E2],"tree_param":{"num_deleted":"0","num_feature":"61","num_nodes":"7","size_leaf_vector":"0"}},{"base_weights":[-7.920977E-2,-2.409567E-1,4.715505E-2,1.8252395E-1,-2.980757E-1,-1.2986425E-1,1.7214416E-1],"categories":[],"categories_nodes":[],"categories_segments":[],"categories_sizes":[],"default_left":[1,1,1,0,0,0,0],"id":62,"left_children":[1,3,5,-1,-1,-1,-1],"loss_changes":[1.8171291E1,9.484453E0,1.1077066E1,0E0,0E0,0E0,0E0],"parents":[2147483647,0,0,1,1,2,2],"right_children":[2,4,6,-1,-1,-1,-1],"split_conditions":[1.4852941E0,-8.035714E0,1.0811539E2,1.8252395E-3,-2.980757E-3,-1.2986425E-3,1.7214415E-3],"split_indices":[38,29,15,0,0,0,0],"split_type":[0,0,0,0,0,0,0],"sum_hessian":[8.874887E2,3.8885175E2,4.9863696E2,4.595389E1,3.4289786E2,2.0634961E2,2.9228735E2],"tree_param":{"num_deleted":"0","num_feature":"61","num_nodes":"7","size_leaf_vector":"0"}},{"base_weights":[7.920977E-2,2.4095671E-1,-4.715506E-2,-1.8252395E-1,2.9807574E-1,1.2986422E-1,-1.7214416E-1],"categories":[],"categories_nodes":[],"categories_segments":[],"categories_sizes":[],"default_left":[1,1,1,0,0,0,0],"id":63,"left_children":[1,3,5,-1,-1,-1,-1],"loss_changes":[1.8171293E1,9.484455E0,1.1077063E1,0E0,0E0,0E0,0E0],"parents":[2147483647,0,0,1,1,2,2],"right_children":[2,4,6,-1,-1,-1,-1],"split_conditions":[1.4852941E0,-8.035714E0,1.0811539E2,-1.8252395E-3,2.9807573E-3,1.2986421E-3,-1.7214415E-3],"split_indices":[38,29,15,0,0,0,0],"split_type":[0,0,0,0,0,0,0],"sum_hessian":[8.874887E2,3.8885175E2,4.9863696E2,4.595389E1,3.4289786E2,2.0634961E2,2.9228735E2],"tree_param":{"num_deleted":"0","num_feature":"61","num_nodes":"7","size_leaf_vector":"0"}},{"base_weights":[-7.8432284E-2,-2.1224186E-1,7.336778E-2,1.0737961E-1,-2.8541848E-1,1.3496919E-1,-2.8584915E-1],"categories":[],"categories_nodes":[],"categories_segments":[],"categories_sizes":[],"default_left":[1,1,1,0,0,0,0],"id":64,"left_children":[1,3,5,-1,-1,-1,-1],"loss_changes":[1.8059702E1,1.107958E1,9.264578E0,0E0,0E0,0E0,0E0],"parents":[2147483647,0,0,1,1,2,2],"right_children":[2,4,6,-1,-1,-1,-1],"split_conditions":[8.8562095E-1,1.5842E4,2.315E1,1.0737961E-3,-2.8541847E-3,1.3496919E-3,-2.8584914E-3],"split_indices":[59,4,23,0,0,0,0],"split_type":[0,0,0,0,0,0,0],"sum_hessian":[8.8733496E2,4.7140234E2,4.159326E2,8.7733185E1,3.8366916E2,3.5557925E2,6.035333E1],"tree_param":{"num_deleted":"0","num_feature":"61","num_nodes":"7","size_leaf_vector":"0"}},{"base_weights":[7.843229E-2,2.1224187E-1,-7.3367774E-2,-1.0737961E-1,2.854185E-1,-1.3496919E-1,2.8584915E-1],"categories":[],"categories_nodes":[],"categories_segments":[],"categories_sizes":[],"default_left":[1,1,1,0,0,0,0],"id":65,"left_children":[1,3,5,-1,-1,-1,-1],"loss_changes":[1.8059702E1,1.1079584E1,9.264578E0,0E0,0E0,0E0,0E0],"parents":[2147483647,0,0,1,1,2,2],"right_children":[2,4,6,-1,-1,-1,-1],"split_conditions":[8.8562095E-1,1.5842E4,2.315E1,-1.0737961E-3,2.854185E-3,-1.3496919E-3,2.8584914E-3],"split_indices":[59,4,23,0,0,0,0],"split_type":[0,0,0,0,0,0,0],"sum_hessian":[8.8733496E2,4.7140237E2,4.159326E2,8.773319E1,3.836692E2,3.5557925E2,6.035333E1],"tree_param":{"num_deleted":"0","num_feature":"61","num_nodes":"7","size_leaf_vector":"0"}},{"base_weights":[-7.766457E-2,-2.925696E-1,1.5788628E-2,-6.166021E-1,-1.9764343E-1,1.3028221E-1,-1.7050956E-1],"categories":[],"categories_nodes":[],"categories_segments":[],"categories_sizes":[],"default_left":[1,1,1,0,0,0,0],"id":66,"left_children":[1,3,5,-1,-1,-1,-1],"loss_changes":[1.784264E1,8.159491E0,1.3245879E1,0E0,0E0,0E0,0E0],"parents":[2147483647,0,0,1,1,2,2],"right_children":[2,4,6,-1,-1,-1,-1],"split_conditions":[1.9129166E1,-9.035714E0,2.5470085E0,-6.166021E-3,-1.9764341E-3,1.302822E-3,-1.7050956E-3],"split_indices":[53,59,29,0,0,0,0],"split_type":[0,0,0,0,0,0,0],"sum_hessian":[8.8719E2,2.6823224E2,6.1895776E2,5.9529938E1,2.0870232E2,3.835435E2,2.3541425E2],"tree_param":{"num_deleted":"0","num_feature":"61","num_nodes":"7","size_leaf_vector":"0"}},{"base_weights":[7.766457E-2,2.925696E-1,-1.578863E-2,6.166022E-1,1.9764344E-1,-1.3028221E-1,1.7050956E-1],"categories":[],"categories_nodes":[],"categories_segments":[],"categories_sizes":[],"default_left":[1,1,1,0,0,0,0],"id":67,"left_children":[1,3,5,-1,-1,-1,-1],"loss_changes":[1.784264E1,8.159491E0,1.3245879E1,0E0,0E0,0E0,0E0],"parents":[2147483647,0,0,1,1,2,2],"right_children":[2,4,6,-1,-1,-1,-1],"split_conditions":[1.9129166E1,-9.035714E0,2.5470085E0,6.166022E-3,1.9764344E-3,-1.302822E-3,1.7050956E-3],"split_indices":[53,59,29,0,0,0,0],"split_type":[0,0,0,0,0,0,0],"sum_hessian":[8.8719E2,2.6823224E2,6.1895776E2,5.9529938E1,2.0870232E2,3.835435E2,2.3541425E2],"tree_param":{"num_deleted":"0","num_feature":"61","num_nodes":"7","size_leaf_vector":"0"}},{"base_weights":[-7.691256E-2,7.2195835E-2,-2.098996E-1,-4.4962883E-1,1.0698817E-1,1.38406055E-2,-3.313531E-1],"categories":[],"categories_nodes":[],"categories_segments":[],"categories_sizes":[],"default_left":[1,1,1,0,0,0,0],"id":68,"left_children":[1,3,5,-1,-1,-1,-1],"loss_changes":[1.7624134E1,7.6621485E0,1.2766611E1,0E0,0E0,0E0,0E0],"parents":[2147483647,0,0,1,1,2,2],"right_children":[2,4,6,-1,-1,-1,-1],"split_conditions":[7.707143E0,2.0714286E-1,-2.6201923E0,-4.496288E-3,1.0698817E-3,1.3840605E-4,-3.313531E-3],"split_indices":[55,48,29,0,0,0,0],"split_type":[0,0,0,0,0,0,0],"sum_hessian":[8.8701996E2,4.1837952E2,4.6864044E2,2.5406271E1,3.9297324E2,1.6519894E2,3.034415E2],"tree_param":{"num_deleted":"0","num_feature":"61","num_nodes":"7","size_leaf_vector":"0"}},{"base_weights":[7.691257E-2,-7.219583E-2,2.098996E-1,4.4962883E-1,-1.0698816E-1,-1.3840621E-2,3.3135313E-1],"categories":[],"categories_nodes":[],"categories_segments":[],"categories_sizes":[],"default_left":[1,1,1,0,0,0,0],"id":69,"left_children":[1,3,5,-1,-1,-1,-1],"loss_changes":[1.762413E1,7.6621494E0,1.2766613E1,0E0,0E0,0E0,0E0],"parents":[2147483647,0,0,1,1,2,2],"right_children":[2,4,6,-1,-1,-1,-1],"split_conditions":[7.707143E0,2.0714286E-1,-2.6201923E0,4.496288E-3,-1.0698816E-3,-1.384062E-4,3.3135312E-3],"split_indices":[55,48,29,0,0,0,0],"split_type":[0,0,0,0,0,0,0],"sum_hessian":[8.8701996E2,4.1837952E2,4.6864044E2,2.5406271E1,3.9297324E2,1.6519894E2,3.034415E2],"tree_param":{"num_deleted":"0","num_feature":"61","num_nodes":"7","size_leaf_vector":"0"}},{"base_weights":[-7.616594E-2,-2.0791665E-1,7.321428E-2,1.0785611E-1,-2.8026828E-1,1.3407592E-1,-2.8177077E-1],"categories":[],"categories_nodes":[],"categories_segments":[],"categories_sizes":[],"default_left":[1,1,1,0,0,0,0],"id":70,"left_children":[1,3,5,-1,-1,-1,-1],"loss_changes":[1.7488916E1,1.0814379E1,9.0432825E0,0E0,0E0,0E0,0E0],"parents":[2147483647,0,0,1,1,2,2],"right_children":[2,4,6,-1,-1,-1,-1],"split_conditions":[8.8562095E-1,1.5842E4,2.315E1,1.0785611E-3,-2.8026828E-3,1.3407592E-3,-2.8177076E-3],"split_indices":[59,4,23,0,0,0,0],"split_type":[0,0,0,0,0,0,0],"sum_hessian":[8.8684814E2,4.7102264E2,4.158255E2,8.771352E1,3.833091E2,3.554982E2,6.0327316E1],"tree_param":{"num_deleted":"0","num_feature":"61","num_nodes":"7","size_leaf_vector":"0"}},{"base_weights":[7.616593E-2,2.0791665E-1,-7.3214285E-2,-1.07856125E-1,2.8026828E-1,-1.3407592E-1,2.8177074E-1],"categories":[],"categories_nodes":[],"categories_segments":[],"categories_sizes":[],"default_left":[1,1,1,0,0,0,0],"id":71,"left_children":[1,3,5,-1,-1,-1,-1],"loss_changes":[1.7488918E1,1.0814379E1,9.0432825E0,0E0,0E0,0E0,0E0],"parents":[2147483647,0,0,1,1,2,2],"right_children":[2,4,6,-1,-1,-1,-1],"split_conditions":[8.8562095E-1,1.5842E4,2.315E1,-1.0785612E-3,2.8026828E-3,-1.3407592E-3,2.8177074E-3],"split_indices":[59,4,23,0,0,0,0],"split_type":[0,0,0,0,0,0,0],"sum_hessian":[8.8684814E2,4.7102264E2,4.158255E2,8.771352E1,3.833091E2,3.554982E2,6.0327316E1],"tree_param":{"num_deleted":"0","num_feature":"61","num_nodes":"7","size_leaf_vector":"0"}},{"base_weights":[-7.542137E-2,-2.3348527E-1,4.7946822E-2,1.8274638E-1,-2.8971234E-1,-1.2641151E-1,1.710275E-1],"categories":[],"categories_nodes":[],"categories_segments":[],"categories_sizes":[],"default_left":[1,1,1,0,0,0,0],"id":72,"left_children":[1,3,5,-1,-1,-1,-1],"loss_changes":[1.7321245E1,9.163872E0,1.0738691E1,0E0,0E0,0E0,0E0],"parents":[2147483647,0,0,1,1,2,2],"right_children":[2,4,6,-1,-1,-1,-1],"split_conditions":[1.4852941E0,-8.035714E0,1.0811539E2,1.8274637E-3,-2.8971233E-3,-1.2641151E-3,1.710275E-3],"split_indices":[38,29,15,0,0,0,0],"split_type":[0,0,0,0,0,0,0],"sum_hessian":[8.866923E2,3.8829797E2,4.9839432E2,4.5943348E1,3.423546E2,2.0622507E2,2.9216928E2],"tree_param":{"num_deleted":"0","num_feature":"61","num_nodes":"7","size_leaf_vector":"0"}},{"base_weights":[7.5421356E-2,2.3348525E-1,-4.7946837E-2,-1.8274638E-1,2.897123E-1,1.2641148E-1,-1.710275E-1],"categories":[],"categories_nodes":[],"categories_segments":[],"categories_sizes":[],"default_left":[1,1,1,0,0,0,0],"id":73,"left_children":[1,3,5,-1,-1,-1,-1],"loss_changes":[1.7321245E1,9.163874E0,1.073869E1,0E0,0E0,0E0,0E0],"parents":[2147483647,0,0,1,1,2,2],"right_children":[2,4,6,-1,-1,-1,-1],"split_conditions":[1.4852941E0,-8.035714E0,1.0811539E2,-1.8274637E-3,2.897123E-3,1.2641147E-3,-1.710275E-3],"split_indices":[38,29,15,0,0,0,0],"split_type":[0,0,0,0,0,0,0],"sum_hessian":[8.866923E2,3.8829797E2,4.9839432E2,4.5943348E1,3.423546E2,2.0622507E2,2.9216928E2],"tree_param":{"num_deleted":"0","num_feature":"61","num_nodes":"7","size_leaf_vector":"0"}},{"base_weights":[-7.4682355E-2,-2.854945E-1,1.6905285E-2,-6.064698E-1,-1.9158457E-1,1.2955654E-1,-1.6647868E-1],"categories":[],"categories_nodes":[],"categories_segments":[],"categories_sizes":[],"default_left":[1,1,1,0,0,0,0],"id":74,"left_children":[1,3,5,-1,-1,-1,-1],"loss_changes":[1.7140926E1,7.987974E0,1.2822841E1,0E0,0E0,0E0,0E0],"parents":[2147483647,0,0,1,1,2,2],"right_children":[2,4,6,-1,-1,-1,-1],"split_conditions":[1.9129166E1,-9.035714E0,2.5470085E0,-6.064698E-3,-1.9158457E-3,1.2955654E-3,-1.6647867E-3],"split_indices":[53,59,29,0,0,0,0],"split_type":[0,0,0,0,0,0,0],"sum_hessian":[8.865227E2,2.6785938E2,6.186633E2,5.939497E1,2.0846442E2,3.834232E2,2.3524014E2],"tree_param":{"num_deleted":"0","num_feature":"61","num_nodes":"7","size_leaf_vector":"0"}},{"base_weights":[7.4682355E-2,2.8549448E-1,-1.6905282E-2,6.0646975E-1,1.9158456E-1,-1.2955652E-1,1.664787E-1],"categories":[],"categories_nodes":[],"categories_segments":[],"categories_sizes":[],"default_left":[1,1,1,0,0,0,0],"id":75,"left_children":[1,3,5,-1,-1,-1,-1],"loss_changes":[1.7140924E1,7.987974E0,1.2822842E1,0E0,0E0,0E0,0E0],"parents":[2147483647,0,0,1,1,2,2],"right_children":[2,4,6,-1,-1,-1,-1],"split_conditions":[1.9129166E1,-9.035714E0,2.5470085E0,6.064697E-3,1.9158456E-3,-1.2955652E-3,1.664787E-3],"split_indices":[53,59,29,0,0,0,0],"split_type":[0,0,0,0,0,0,0],"sum_hessian":[8.865227E2,2.6785938E2,6.186633E2,5.939497E1,2.084644E2,3.834232E2,2.3524014E2],"tree_param":{"num_deleted":"0","num_feature":"61","num_nodes":"7","size_leaf_vector":"0"}},{"base_weights":[-7.3960535E-2,-1.6991927E-1,1.2613139E-1,1.729731E-1,-2.3026302E-1,2.72708E-1,-7.23688E-2],"categories":[],"categories_nodes":[],"categories_segments":[],"categories_sizes":[],"default_left":[1,1,1,0,0,0,0],"id":76,"left_children":[1,3,5,-1,-1,-1,-1],"loss_changes":[1.7058855E1,1.2457836E1,8.404671E0,0E0,0E0,0E0,0E0],"parents":[2147483647,0,0,1,1,2,2],"right_children":[2,4,6,-1,-1,-1,-1],"split_conditions":[3.730303E0,-7.242857E0,1.7120728E-1,1.729731E-3,-2.30263E-3,2.72708E-3,-7.23688E-4],"split_indices":[59,29,3,0,0,0,0],"split_type":[0,0,0,0,0,0,0],"sum_hessian":[8.863395E2,5.9915265E2,2.8718683E2,8.9383095E1,5.0976956E2,1.649848E2,1.2220201E2],"tree_param":{"num_deleted":"0","num_feature":"61","num_nodes":"7","size_leaf_vector":"0"}},{"base_weights":[7.396053E-2,1.6991927E-1,-1.2613139E-1,-1.729731E-1,2.3026302E-1,-2.72708E-1,7.2368786E-2],"categories":[],"categories_nodes":[],"categories_segments":[],"categories_sizes":[],"default_left":[1,1,1,0,0,0,0],"id":77,"left_children":[1,3,5,-1,-1,-1,-1],"loss_changes":[1.7058855E1,1.2457836E1,8.404671E0,0E0,0E0,0E0,0E0],"parents":[2147483647,0,0,1,1,2,2],"right_children":[2,4,6,-1,-1,-1,-1],"split_conditions":[3.730303E0,-7.242857E0,1.7120728E-1,-1.729731E-3,2.30263E-3,-2.72708E-3,7.236878E-4],"split_indices":[59,29,3,0,0,0,0],"split_type":[0,0,0,0,0,0,0],"sum_hessian":[8.863395E2,5.9915265E2,2.8718683E2,8.9383095E1,5.0976956E2,1.649848E2,1.2220201E2],"tree_param":{"num_deleted":"0","num_feature":"61","num_nodes":"7","size_leaf_vector":"0"}},{"base_weights":[-7.323462E-2,7.250636E-2,-2.0334572E-1,-4.4276452E-1,1.0684144E-1,1.5573387E-2,-3.2237497E-1],"categories":[],"categories_nodes":[],"categories_segments":[],"categories_sizes":[],"default_left":[1,1,1,0,0,0,0],"id":78,"left_children":[1,3,5,-1,-1,-1,-1],"loss_changes":[1.6837454E1,7.4634147E0,1.2225447E1,0E0,0E0,0E0,0E0],"parents":[2147483647,0,0,1,1,2,2],"right_children":[2,4,6,-1,-1,-1,-1],"split_conditions":[7.707143E0,2.0714286E-1,-2.6201923E0,-4.427645E-3,1.0684143E-3,1.5573387E-4,-3.2237496E-3],"split_indices":[55,48,29,0,0,0,0],"split_type":[0,0,0,0,0,0,0],"sum_hessian":[8.8615594E2,4.1818185E2,4.6797412E2,2.5381596E1,3.9280026E2,1.6513194E2,3.028422E2],"tree_param":{"num_deleted":"0","num_feature":"61","num_nodes":"7","size_leaf_vector":"0"}},{"base_weights":[7.323462E-2,-7.250635E-2,2.0334572E-1,4.4276452E-1,-1.0684143E-1,-1.5573383E-2,3.2237497E-1],"categories":[],"categories_nodes":[],"categories_segments":[],"categories_sizes":[],"default_left":[1,1,1,0,0,0,0],"id":79,"left_children":[1,3,5,-1,-1,-1,-1],"loss_changes":[1.6837456E1,7.4634147E0,1.2225443E1,0E0,0E0,0E0,0E0],"parents":[2147483647,0,0,1,1,2,2],"right_children":[2,4,6,-1,-1,-1,-1],"split_conditions":[7.707143E0,2.0714286E-1,-2.6201923E0,4.427645E-3,-1.0684143E-3,-1.5573383E-4,3.2237496E-3],"split_indices":[55,48,29,0,0,0,0],"split_type":[0,0,0,0,0,0,0],"sum_hessian":[8.86156E2,4.1818185E2,4.6797412E2,2.5381596E1,3.9280026E2,1.6513194E2,3.028422E2],"tree_param":{"num_deleted":"0","num_feature":"61","num_nodes":"7","size_leaf_vector":"0"}},{"base_weights":[-7.252515E-2,-2.010977E-1,7.310921E-2,1.09506726E-1,-2.723482E-1,1.3315086E-1,-2.7717197E-1],"categories":[],"categories_nodes":[],"categories_segments":[],"categories_sizes":[],"default_left":[1,1,1,0,0,0,0],"id":80,"left_children":[1,3,5,-1,-1,-1,-1],"loss_changes":[1.6622826E1,1.04610405E1,8.799099E0,0E0,0E0,0E0,0E0],"parents":[2147483647,0,0,1,1,2,2],"right_children":[2,4,6,-1,-1,-1,-1],"split_conditions":[8.8562095E-1,1.5842E4,2.315E1,1.0950672E-3,-2.723482E-3,1.3315086E-3,-2.7717196E-3],"split_indices":[59,4,23,0,0,0,0],"split_type":[0,0,0,0,0,0,0],"sum_hessian":[8.85969E2,4.703458E2,4.156232E2,8.766186E1,3.8268393E2,3.553351E2,6.0288074E1],"tree_param":{"num_deleted":"0","num_feature":"61","num_nodes":"7","size_leaf_vector":"0"}},{"base_weights":[7.252514E-2,2.0109768E-1,-7.310921E-2,-1.0950671E-1,2.7234817E-1,-1.3315086E-1,2.7717197E-1],"categories":[],"categories_nodes":[],"categories_segments":[],"categories_sizes":[],"default_left":[1,1,1,0,0,0,0],"id":81,"left_children":[1,3,5,-1,-1,-1,-1],"loss_changes":[1.6622822E1,1.0461044E1,8.799101E0,0E0,0E0,0E0,0E0],"parents":[2147483647,0,0,1,1,2,2],"right_children":[2,4,6,-1,-1,-1,-1],"split_conditions":[8.8562095E-1,1.5842E4,2.315E1,-1.0950671E-3,2.7234815E-3,-1.3315086E-3,2.7717196E-3],"split_indices":[59,4,23,0,0,0,0],"split_type":[0,0,0,0,0,0,0],"sum_hessian":[8.85969E2,4.703458E2,4.156232E2,8.766186E1,3.8268393E2,3.553351E2,6.0288074E1],"tree_param":{"num_deleted":"0","num_feature":"61","num_nodes":"7","size_leaf_vector":"0"}},{"base_weights":[-7.181743E-2,-2.7899858E-1,1.8106932E-2,-5.9704787E-1,-1.8607226E-1,1.2904714E-1,-1.6257776E-1],"categories":[],"categories_nodes":[],"categories_segments":[],"categories_sizes":[],"default_left":[1,1,1,0,0,0,0],"id":82,"left_children":[1,3,5,-1,-1,-1,-1],"loss_changes":[1.6526669E1,7.823473E0,1.2435612E1,0E0,0E0,0E0,0E0],"parents":[2147483647,0,0,1,1,2,2],"right_children":[2,4,6,-1,-1,-1,-1],"split_conditions":[1.9129166E1,-9.035714E0,2.5470085E0,-5.9704785E-3,-1.8607226E-3,1.2904714E-3,-1.6257776E-3],"split_indices":[53,59,29,0,0,0,0],"split_type":[0,0,0,0,0,0,0],"sum_hessian":[8.8579846E2,2.6746655E2,6.183319E2,5.925062E1,2.0821593E2,3.832826E2,2.3504933E2],"tree_param":{"num_deleted":"0","num_feature":"61","num_nodes":"7","size_leaf_vector":"0"}},{"base_weights":[7.181743E-2,2.7899855E-1,-1.8106926E-2,5.9704787E-1,1.8607225E-1,-1.2904714E-1,1.6257776E-1],"categories":[],"categories_nodes":[],"categories_segments":[],"categories_sizes":[],"default_left":[1,1,1,0,0,0,0],"id":83,"left_children":[1,3,5,-1,-1,-1,-1],"loss_changes":[1.6526665E1,7.823473E0,1.2435612E1,0E0,0E0,0E0,0E0],"parents":[2147483647,0,0,1,1,2,2],"right_children":[2,4,6,-1,-1,-1,-1],"split_conditions":[1.9129166E1,-9.035714E0,2.5470085E0,5.9704785E-3,1.8607224E-3,-1.2904714E-3,1.6257776E-3],"split_indices":[53,59,29,0,0,0,0],"split_type":[0,0,0,0,0,0,0],"sum_hessian":[8.8579846E2,2.6746655E2,6.183319E2,5.925062E1,2.0821593E2,3.832826E2,2.3504933E2],"tree_param":{"num_deleted":"0","num_feature":"61","num_nodes":"7","size_leaf_vector":"0"}},{"base_weights":[-7.112442E-2,-2.2494164E-1,4.877568E-2,1.8152873E-1,-2.799576E-1,-1.2235615E-1,1.6954432E-1],"categories":[],"categories_nodes":[],"categories_segments":[],"categories_sizes":[],"default_left":[1,1,1,0,0,0,0],"id":84,"left_children":[1,3,5,-1,-1,-1,-1],"loss_changes":[1.6362339E1,8.739695E0,1.0334883E1,0E0,0E0,0E0,0E0],"parents":[2147483647,0,0,1,1,2,2],"right_children":[2,4,6,-1,-1,-1,-1],"split_conditions":[1.4852941E0,-8.035714E0,1.0811539E2,1.8152873E-3,-2.799576E-3,-1.2235615E-3,1.6954432E-3],"split_indices":[38,29,15,0,0,0,0],"split_type":[0,0,0,0,0,0,0],"sum_hessian":[8.856038E2,3.8754926E2,4.9805453E2,4.592741E1,3.4162183E2,2.0605579E2,2.9199875E2],"tree_param":{"num_deleted":"0","num_feature":"61","num_nodes":"7","size_leaf_vector":"0"}},{"base_weights":[7.112443E-2,2.2494166E-1,-4.877568E-2,-1.8152873E-1,2.799576E-1,1.2235614E-1,-1.6954431E-1],"categories":[],"categories_nodes":[],"categories_segments":[],"categories_sizes":[],"default_left":[1,1,1,0,0,0,0],"id":85,"left_children":[1,3,5,-1,-1,-1,-1],"loss_changes":[1.636234E1,8.7396965E0,1.0334883E1,0E0,0E0,0E0,0E0],"parents":[2147483647,0,0,1,1,2,2],"right_children":[2,4,6,-1,-1,-1,-1],"split_conditions":[1.4852941E0,-8.035714E0,1.0811539E2,-1.8152873E-3,2.799576E-3,1.2235614E-3,-1.6954431E-3],"split_indices":[38,29,15,0,0,0,0],"split_type":[0,0,0,0,0,0,0],"sum_hessian":[8.856038E2,3.8754926E2,4.9805453E2,4.592741E1,3.4162183E2,2.0605579E2,2.9199875E2],"tree_param":{"num_deleted":"0","num_feature":"61","num_nodes":"7","size_leaf_vector":"0"}},{"base_weights":[-7.042887E-2,-1.6407613E-1,1.246697E-1,1.7120719E-1,-2.2315964E-1,2.6884422E-1,-7.055319E-2],"categories":[],"categories_nodes":[],"categories_segments":[],"categories_sizes":[],"default_left":[1,1,1,0,0,0,0],"id":86,"left_children":[1,3,5,-1,-1,-1,-1],"loss_changes":[1.6215687E1,1.1911398E1,8.126602E0,0E0,0E0,0E0,0E0],"parents":[2147483647,0,0,1,1,2,2],"right_children":[2,4,6,-1,-1,-1,-1],"split_conditions":[3.730303E0,-7.242857E0,1.7120728E-1,1.7120718E-3,-2.2315963E-3,2.6884421E-3,-7.055319E-4],"split_indices":[59,29,3,0,0,0,0],"split_type":[0,0,0,0,0,0,0],"sum_hessian":[8.8541675E2,5.983621E2,2.8705466E2,8.936147E1,5.090006E2,1.648982E2,1.2215647E2],"tree_param":{"num_deleted":"0","num_feature":"61","num_nodes":"7","size_leaf_vector":"0"}},{"base_weights":[7.042887E-2,1.6407613E-1,-1.246697E-1,-1.712072E-1,2.2315963E-1,-2.6884422E-1,7.055319E-2],"categories":[],"categories_nodes":[],"categories_segments":[],"categories_sizes":[],"default_left":[1,1,1,0,0,0,0],"id":87,"left_children":[1,3,5,-1,-1,-1,-1],"loss_changes":[1.6215687E1,1.1911396E1,8.126602E0,0E0,0E0,0E0,0E0],"parents":[2147483647,0,0,1,1,2,2],"right_children":[2,4,6,-1,-1,-1,-1],"split_conditions":[3.730303E0,-7.242857E0,1.7120728E-1,-1.7120721E-3,2.2315963E-3,-2.6884421E-3,7.055319E-4],"split_indices":[59,29,3,0,0,0,0],"split_type":[0,0,0,0,0,0,0],"sum_hessian":[8.8541675E2,5.9836206E2,2.8705466E2,8.9361465E1,5.090006E2,1.648982E2,1.2215647E2],"tree_param":{"num_deleted":"0","num_feature":"61","num_nodes":"7","size_leaf_vector":"0"}},{"base_weights":[-6.973875E-2,7.272455E-2,-1.9705722E-1,-4.3616104E-1,1.0661116E-1,1.7165719E-2,-3.1373382E-1],"categories":[],"categories_nodes":[],"categories_segments":[],"categories_sizes":[],"default_left":[1,1,1,0,0,0,0],"id":88,"left_children":[1,3,5,-1,-1,-1,-1],"loss_changes":[1.6088734E1,7.2712913E0,1.1709288E1,0E0,0E0,0E0,0E0],"parents":[2147483647,0,0,1,1,2,2],"right_children":[2,4,6,-1,-1,-1,-1],"split_conditions":[7.707143E0,2.0714286E-1,-2.6201923E0,-4.3616104E-3,1.0661116E-3,1.7165719E-4,-3.137338E-3],"split_indices":[55,48,29,0,0,0,0],"split_type":[0,0,0,0,0,0,0],"sum_hessian":[8.852178E2,4.1796432E2,4.6725342E2,2.5353403E1,3.9261093E2,1.650563E2,3.021971E2],"tree_param":{"num_deleted":"0","num_feature":"61","num_nodes":"7","size_leaf_vector":"0"}},{"base_weights":[6.9738746E-2,-7.2724566E-2,1.9705722E-1,4.3616104E-1,-1.0661118E-1,-1.7165717E-2,3.1373382E-1],"categories":[],"categories_nodes":[],"categories_segments":[],"categories_sizes":[],"default_left":[1,1,1,0,0,0,0],"id":89,"left_children":[1,3,5,-1,-1,-1,-1],"loss_changes":[1.6088736E1,7.2712917E0,1.1709291E1,0E0,0E0,0E0,0E0],"parents":[2147483647,0,0,1,1,2,2],"right_children":[2,4,6,-1,-1,-1,-1],"split_conditions":[7.707143E0,2.0714286E-1,-2.6201923E0,4.3616104E-3,-1.0661117E-3,-1.7165716E-4,3.137338E-3],"split_indices":[55,48,29,0,0,0,0],"split_type":[0,0,0,0,0,0,0],"sum_hessian":[8.852178E2,4.1796432E2,4.6725342E2,2.5353403E1,3.9261093E2,1.650563E2,3.021971E2],"tree_param":{"num_deleted":"0","num_feature":"61","num_nodes":"7","size_leaf_vector":"0"}},{"base_weights":[-6.9064416E-2,-2.7242464E-1,1.9106548E-2,-5.8783126E-1,-1.8041204E-1,1.2820373E-1,-1.5865844E-1],"categories":[],"categories_nodes":[],"categories_segments":[],"categories_sizes":[],"default_left":[1,1,1,0,0,0,0],"id":90,"left_children":[1,3,5,-1,-1,-1,-1],"loss_changes":[1.5891905E1,7.6726475E0,1.2024701E1,0E0,0E0,0E0,0E0],"parents":[2147483647,0,0,1,1,2,2],"right_children":[2,4,6,-1,-1,-1,-1],"split_conditions":[1.9129166E1,-9.035714E0,2.5470085E0,-5.8783125E-3,-1.8041204E-3,1.2820374E-3,-1.5865844E-3],"split_indices":[53,59,29,0,0,0,0],"split_type":[0,0,0,0,0,0,0],"sum_hessian":[8.8501715E2,2.670334E2,6.1798376E2,5.9090527E1,2.0794287E2,3.831298E2,2.3485399E2],"tree_param":{"num_deleted":"0","num_feature":"61","num_nodes":"7","size_leaf_vector":"0"}},{"base_weights":[6.9064416E-2,2.7242467E-1,-1.910656E-2,5.8783126E-1,1.8041205E-1,-1.2820375E-1,1.5865843E-1],"categories":[],"categories_nodes":[],"categories_segments":[],"categories_sizes":[],"default_left":[1,1,1,0,0,0,0],"id":91,"left_children":[1,3,5,-1,-1,-1,-1],"loss_changes":[1.5891911E1,7.6726475E0,1.2024702E1,0E0,0E0,0E0,0E0],"parents":[2147483647,0,0,1,1,2,2],"right_children":[2,4,6,-1,-1,-1,-1],"split_conditions":[1.9129166E1,-9.035714E0,2.5470085E0,5.8783125E-3,1.8041205E-3,-1.2820375E-3,1.5865843E-3],"split_indices":[53,59,29,0,0,0,0],"split_type":[0,0,0,0,0,0,0],"sum_hessian":[8.8501715E2,2.670334E2,6.1798376E2,5.909053E1,2.0794287E2,3.831298E2,2.3485399E2],"tree_param":{"num_deleted":"0","num_feature":"61","num_nodes":"7","size_leaf_vector":"0"}},{"base_weights":[-6.839903E-2,-1.7411724E-1,9.9266276E-2,1.5789326E-1,-2.3418051E-1,3.1467554E-1,-8.4127365E-3],"categories":[],"categories_nodes":[],"categories_segments":[],"categories_sizes":[],"default_left":[1,1,1,0,0,0,0],"id":92,"left_children":[1,3,5,-1,-1,-1,-1],"loss_changes":[1.5718538E1,1.0877821E1,7.962792E0,0E0,0E0,0E0,0E0],"parents":[2147483647,0,0,1,1,2,2],"right_children":[2,4,6,-1,-1,-1,-1],"split_conditions":[2.369318E0,-7.242857E0,-2.05E0,1.5789325E-3,-2.341805E-3,3.1467553E-3,-8.4127365E-5],"split_indices":[59,29,29,0,0,0,0],"split_type":[0,0,0,0,0,0,0],"sum_hessian":[8.8481146E2,5.4262866E2,3.421828E2,8.287783E1,4.597508E2,1.1340216E2,2.2878064E2],"tree_param":{"num_deleted":"0","num_feature":"61","num_nodes":"7","size_leaf_vector":"0"}},{"base_weights":[6.8399034E-2,1.7411725E-1,-9.926627E-2,-1.5789326E-1,2.3418052E-1,-3.1467554E-1,8.412745E-3],"categories":[],"categories_nodes":[],"categories_segments":[],"categories_sizes":[],"default_left":[1,1,1,0,0,0,0],"id":93,"left_children":[1,3,5,-1,-1,-1,-1],"loss_changes":[1.5718534E1,1.0877821E1,7.9627934E0,0E0,0E0,0E0,0E0],"parents":[2147483647,0,0,1,1,2,2],"right_children":[2,4,6,-1,-1,-1,-1],"split_conditions":[2.369318E0,-7.242857E0,-2.05E0,-1.5789325E-3,2.3418053E-3,-3.1467553E-3,8.4127445E-5],"split_indices":[59,29,29,0,0,0,0],"split_type":[0,0,0,0,0,0,0],"sum_hessian":[8.8481146E2,5.4262866E2,3.421828E2,8.287783E1,4.597508E2,1.1340216E2,2.2878065E2],"tree_param":{"num_deleted":"0","num_feature":"61","num_nodes":"7","size_leaf_vector":"0"}},{"base_weights":[-6.7729734E-2,-2.1816842E-1,4.939809E-2,-3.290484E-1,-2.5653929E-2,-1.1876885E-1,1.6804686E-1],"categories":[],"categories_nodes":[],"categories_segments":[],"categories_sizes":[],"default_left":[1,1,1,0,0,0,0],"id":94,"left_children":[1,3,5,-1,-1,-1,-1],"loss_changes":[1.561532E1,8.2706585E0,9.971117E0,0E0,0E0,0E0,0E0],"parents":[2147483647,0,0,1,1,2,2],"right_children":[2,4,6,-1,-1,-1,-1],"split_conditions":[1.4852941E0,8.105556E0,1.0811539E2,-3.290484E-3,-2.565393E-4,-1.1876884E-3,1.6804686E-3],"split_indices":[38,25,15,0,0,0,0],"split_type":[0,0,0,0,0,0,0],"sum_hessian":[8.8458734E2,3.8685242E2,4.9773492E2,2.4502147E2,1.4183093E2,2.0590057E2,2.9183435E2],"tree_param":{"num_deleted":"0","num_feature":"61","num_nodes":"7","size_leaf_vector":"0"}},{"base_weights":[6.7729734E-2,2.1816844E-1,-4.9398106E-2,3.2904842E-1,2.5653932E-2,1.18768826E-1,-1.6804688E-1],"categories":[],"categories_nodes":[],"categories_segments":[],"categories_sizes":[],"default_left":[1,1,1,0,0,0,0],"id":95,"left_children":[1,3,5,-1,-1,-1,-1],"loss_changes":[1.561532E1,8.2706585E0,9.971117E0,0E0,0E0,0E0,0E0],"parents":[2147483647,0,0,1,1,2,2],"right_children":[2,4,6,-1,-1,-1,-1],"split_conditions":[1.4852941E0,8.105556E0,1.0811539E2,3.2904842E-3,2.5653932E-4,1.1876882E-3,-1.6804687E-3],"split_indices":[38,25,15,0,0,0,0],"split_type":[0,0,0,0,0,0,0],"sum_hessian":[8.8458734E2,3.8685242E2,4.9773492E2,2.4502148E2,1.4183093E2,2.0590057E2,2.9183435E2],"tree_param":{"num_deleted":"0","num_feature":"61","num_nodes":"7","size_leaf_vector":"0"}},{"base_weights":[-6.706976E-2,7.258376E-2,-1.9199291E-1,-4.306432E-1,1.0607472E-1,1.8068656E-2,-3.0657837E-1],"categories":[],"categories_nodes":[],"categories_segments":[],"categories_sizes":[],"default_left":[1,1,1,0,0,0,0],"id":96,"left_children":[1,3,5,-1,-1,-1,-1],"loss_changes":[1.546072E1,7.1036444E0,1.1261299E1,0E0,0E0,0E0,0E0],"parents":[2147483647,0,0,1,1,2,2],"right_children":[2,4,6,-1,-1,-1,-1],"split_conditions":[7.707143E0,2.0714286E-1,-2.6201923E0,-4.306432E-3,1.0607472E-3,1.8068656E-4,-3.0657835E-3],"split_indices":[55,48,29,0,0,0,0],"split_type":[0,0,0,0,0,0,0],"sum_hessian":[8.844078E2,4.1778192E2,4.666259E2,2.5329445E1,3.9245248E2,1.6499477E2,3.016311E2],"tree_param":{"num_deleted":"0","num_feature":"61","num_nodes":"7","size_leaf_vector":"0"}},{"base_weights":[6.706976E-2,-7.258376E-2,1.9199292E-1,4.306432E-1,-1.0607472E-1,-1.8068654E-2,3.065784E-1],"categories":[],"categories_nodes":[],"categories_segments":[],"categories_sizes":[],"default_left":[1,1,1,0,0,0,0],"id":97,"left_children":[1,3,5,-1,-1,-1,-1],"loss_changes":[1.5460724E1,7.1036453E0,1.1261297E1,0E0,0E0,0E0,0E0],"parents":[2147483647,0,0,1,1,2,2],"right_children":[2,4,6,-1,-1,-1,-1],"split_conditions":[7.707143E0,2.0714286E-1,-2.6201923E0,4.306432E-3,-1.0607472E-3,-1.8068655E-4,3.065784E-3],"split_indices":[55,48,29,0,0,0,0],"split_type":[0,0,0,0,0,0,0],"sum_hessian":[8.844078E2,4.1778192E2,4.666259E2,2.5329445E1,3.9245248E2,1.6499477E2,3.016311E2],"tree_param":{"num_deleted":"0","num_feature":"61","num_nodes":"7","size_leaf_vector":"0"}},{"base_weights":[-6.642221E-2,-1.8996395E-1,7.325636E-2,1.1353872E-1,-2.5973362E-1,1.3224426E-1,-2.7096468E-1],"categories":[],"categories_nodes":[],"categories_segments":[],"categories_sizes":[],"default_left":[1,1,1,0,0,0,0],"id":98,"left_children":[1,3,5,-1,-1,-1,-1],"loss_changes":[1.5288984E1,9.982088E0,8.486444E0,0E0,0E0,0E0,0E0],"parents":[2147483647,0,0,1,1,2,2],"right_children":[2,4,6,-1,-1,-1,-1],"split_conditions":[8.8562095E-1,1.5842E4,2.315E1,1.1353872E-3,-2.5973362E-3,1.3224425E-3,-2.7096467E-3],"split_indices":[59,4,23,0,0,0,0],"split_type":[0,0,0,0,0,0,0],"sum_hessian":[8.841965E2,4.690102E2,4.1518625E2,8.754712E1,3.8146307E2,3.5497183E2,6.021441E1],"tree_param":{"num_deleted":"0","num_feature":"61","num_nodes":"7","size_leaf_vector":"0"}},{"base_weights":[6.642221E-2,1.8996394E-1,-7.325635E-2,-1.1353872E-1,2.5973362E-1,-1.3224424E-1,2.7096468E-1],"categories":[],"categories_nodes":[],"categories_segments":[],"categories_sizes":[],"default_left":[1,1,1,0,0,0,0],"id":99,"left_children":[1,3,5,-1,-1,-1,-1],"loss_changes":[1.5288982E1,9.982086E0,8.486443E0,0E0,0E0,0E0,0E0],"parents":[2147483647,0,0,1,1,2,2],"right_children":[2,4,6,-1,-1,-1,-1],"split_conditions":[8.8562095E-1,1.5842E4,2.315E1,-1.1353872E-3,2.5973362E-3,-1.3224424E-3,2.7096467E-3],"split_indices":[59,4,23,0,0,0,0],"split_type":[0,0,0,0,0,0,0],"sum_hessian":[8.841965E2,4.690102E2,4.1518625E2,8.754712E1,3.8146307E2,3.5497183E2,6.021441E1],"tree_param":{"num_deleted":"0","num_feature":"61","num_nodes":"7","size_leaf_vector":"0"}},{"base_weights":[-6.577565E-2,-2.6499072E-1,2.0484349E-2,-5.77458E-1,-1.7400633E-1,1.2743556E-1,-1.538882E-1],"categories":[],"categories_nodes":[],"categories_segments":[],"categories_sizes":[],"default_left":[1,1,1,0,0,0,0],"id":100,"left_children":[1,3,5,-1,-1,-1,-1],"loss_changes":[1.5213626E1,7.5041027E0,1.1554576E1,0E0,0E0,0E0,0E0],"parents":[2147483647,0,0,1,1,2,2],"right_children":[2,4,6,-1,-1,-1,-1],"split_conditions":[1.9129166E1,-9.035714E0,2.5470085E0,-5.77458E-3,-1.7400632E-3,1.2743556E-3,-1.5388819E-3],"split_indices":[53,59,29,0,0,0,0],"split_type":[0,0,0,0,0,0,0],"sum_hessian":[8.84006E2,2.6648782E2,6.175182E2,5.8891193E1,2.0759662E2,3.8292233E2,2.3459584E2],"tree_param":{"num_deleted":"0","num_feature":"61","num_nodes":"7","size_leaf_vector":"0"}},{"base_weights":[6.577564E-2,2.649907E-1,-2.0484352E-2,5.77458E-1,1.7400633E-1,-1.2743556E-1,1.5388818E-1],"categories":[],"categories_nodes":[],"categories_segments":[],"categories_sizes":[],"default_left":[1,1,1,0,0,0,0],"id":101,"left_children":[1,3,5,-1,-1,-1,-1],"loss_changes":[1.5213629E1,7.504101E0,1.1554576E1,0E0,0E0,0E0,0E0],"parents":[2147483647,0,0,1,1,2,2],"right_children":[2,4,6,-1,-1,-1,-1],"split_conditions":[1.9129166E1,-9.035714E0,2.5470085E0,5.77458E-3,1.7400632E-3,-1.2743556E-3,1.5388818E-3],"split_indices":[53,59,29,0,0,0,0],"split_type":[0,0,0,0,0,0,0],"sum_hessian":[8.84006E2,2.664878E2,6.175182E2,5.8891193E1,2.0759662E2,3.8292233E2,2.3459584E2],"tree_param":{"num_deleted":"0","num_feature":"61","num_nodes":"7","size_leaf_vector":"0"}},{"base_weights":[-6.5143056E-2,-1.55316E-1,1.2244103E-1,1.6916801E-1,-2.1262804E-1,2.6337248E-1,-6.8330444E-2],"categories":[],"categories_nodes":[],"categories_segments":[],"categories_sizes":[],"default_left":[1,1,1,0,0,0,0],"id":102,"left_children":[1,3,5,-1,-1,-1,-1],"loss_changes":[1.4985225E1,1.1156611E1,7.7557817E0,0E0,0E0,0E0,0E0],"parents":[2147483647,0,0,1,1,2,2],"right_children":[2,4,6,-1,-1,-1,-1],"split_conditions":[3.730303E0,-7.242857E0,1.7120728E-1,1.69168E-3,-2.1262802E-3,2.6337248E-3,-6.8330445E-4],"split_indices":[59,29,3,0,0,0,0],"split_type":[0,0,0,0,0,0,0],"sum_hessian":[8.8378864E2,5.9698566E2,2.86803E2,8.9321526E1,5.076641E2,1.6472943E2,1.22073586E2],"tree_param":{"num_deleted":"0","num_feature":"61","num_nodes":"7","size_leaf_vector":"0"}},{"base_weights":[6.514305E-2,1.55316E-1,-1.2244104E-1,-1.6916803E-1,2.1262802E-1,-2.6337248E-1,6.833043E-2],"categories":[],"categories_nodes":[],"categories_segments":[],"categories_sizes":[],"default_left":[1,1,1,0,0,0,0],"id":103,"left_children":[1,3,5,-1,-1,-1,-1],"loss_changes":[1.4985224E1,1.1156611E1,7.7557817E0,0E0,0E0,0E0,0E0],"parents":[2147483647,0,0,1,1,2,2],"right_children":[2,4,6,-1,-1,-1,-1],"split_conditions":[3.730303E0,-7.242857E0,1.7120728E-1,-1.6916802E-3,2.1262802E-3,-2.6337248E-3,6.833043E-4],"split_indices":[59,29,3,0,0,0,0],"split_type":[0,0,0,0,0,0,0],"sum_hessian":[8.8378864E2,5.9698566E2,2.86803E2,8.9321526E1,5.076641E2,1.6472943E2,1.22073586E2],"tree_param":{"num_deleted":"0","num_feature":"61","num_nodes":"7","size_leaf_vector":"0"}},{"base_weights":[-6.4506054E-2,-2.1157205E-1,4.986025E-2,-3.2094827E-1,-2.1901561E-2,-1.1563334E-1,1.6659476E-1],"categories":[],"categories_nodes":[],"categories_segments":[],"categories_sizes":[],"default_left":[1,1,1,0,0,0,0],"id":104,"left_children":[1,3,5,-1,-1,-1,-1],"loss_changes":[1.488847E1,8.024672E0,9.64804E0,0E0,0E0,0E0,0E0],"parents":[2147483647,0,0,1,1,2,2],"right_children":[2,4,6,-1,-1,-1,-1],"split_conditions":[1.4852941E0,8.105556E0,1.0811539E2,-3.2094826E-3,-2.1901561E-4,-1.1563334E-3,1.6659475E-3],"split_indices":[38,25,15,0,0,0,0],"split_type":[0,0,0,0,0,0,0],"sum_hessian":[8.835694E2,3.861549E2,4.9741452E2,2.4447989E2,1.4167502E2,2.057433E2,2.916712E2],"tree_param":{"num_deleted":"0","num_feature":"61","num_nodes":"7","size_leaf_vector":"0"}},{"base_weights":[6.450606E-2,2.1157205E-1,-4.9860243E-2,3.209483E-1,2.1901563E-2,1.15633346E-1,-1.6659474E-1],"categories":[],"categories_nodes":[],"categories_segments":[],"categories_sizes":[],"default_left":[1,1,1,0,0,0,0],"id":105,"left_children":[1,3,5,-1,-1,-1,-1],"loss_changes":[1.4888471E1,8.024672E0,9.648041E0,0E0,0E0,0E0,0E0],"parents":[2147483647,0,0,1,1,2,2],"right_children":[2,4,6,-1,-1,-1,-1],"split_conditions":[1.4852941E0,8.105556E0,1.0811539E2,3.2094829E-3,2.1901562E-4,1.1563335E-3,-1.6659474E-3],"split_indices":[38,25,15,0,0,0,0],"split_type":[0,0,0,0,0,0,0],"sum_hessian":[8.835694E2,3.861549E2,4.9741452E2,2.4447989E2,1.4167502E2,2.057433E2,2.916712E2],"tree_param":{"num_deleted":"0","num_feature":"61","num_nodes":"7","size_leaf_vector":"0"}},{"base_weights":[-6.387839E-2,7.263253E-2,-1.8612927E-1,-4.2444643E-1,1.0568919E-1,1.9678352E-2,-2.9860878E-1],"categories":[],"categories_nodes":[],"categories_segments":[],"categories_sizes":[],"default_left":[1,1,1,0,0,0,0],"id":106,"left_children":[1,3,5,-1,-1,-1,-1],"loss_changes":[1.4772541E1,6.9222136E0,1.0812782E1,0E0,0E0,0E0,0E0],"parents":[2147483647,0,0,1,1,2,2],"right_children":[2,4,6,-1,-1,-1,-1],"split_conditions":[7.707143E0,2.0714286E-1,-2.6201923E0,-4.2444644E-3,1.0568919E-3,1.9678351E-4,-2.9860877E-3],"split_indices":[55,48,29,0,0,0,0],"split_type":[0,0,0,0,0,0,0],"sum_hessian":[8.833784E2,4.1754004E2,4.6583835E2,2.529747E1,3.9224258E2,1.649142E2,3.0092416E2],"tree_param":{"num_deleted":"0","num_feature":"61","num_nodes":"7","size_leaf_vector":"0"}},{"base_weights":[6.387838E-2,-7.263253E-2,1.8612927E-1,4.2444643E-1,-1.0568919E-1,-1.9678349E-2,2.9860878E-1],"categories":[],"categories_nodes":[],"categories_segments":[],"categories_sizes":[],"default_left":[1,1,1,0,0,0,0],"id":107,"left_children":[1,3,5,-1,-1,-1,-1],"loss_changes":[1.4772541E1,6.9222136E0,1.0812782E1,0E0,0E0,0E0,0E0],"parents":[2147483647,0,0,1,1,2,2],"right_children":[2,4,6,-1,-1,-1,-1],"split_conditions":[7.707143E0,2.0714286E-1,-2.6201923E0,4.2444644E-3,-1.0568919E-3,-1.9678348E-4,2.9860877E-3],"split_indices":[55,48,29,0,0,0,0],"split_type":[0,0,0,0,0,0,0],"sum_hessian":[8.833784E2,4.1754004E2,4.6583835E2,2.529747E1,3.9224258E2,1.649142E2,3.0092416E2],"tree_param":{"num_deleted":"0","num_feature":"61","num_nodes":"7","size_leaf_vector":"0"}},{"base_weights":[-6.326264E-2,-2.5884894E-1,2.13253E-2,-5.6889886E-1,-1.6872658E-1,1.2652357E-1,-1.5027384E-1],"categories":[],"categories_nodes":[],"categories_segments":[],"categories_sizes":[],"default_left":[1,1,1,0,0,0,0],"id":108,"left_children":[1,3,5,-1,-1,-1,-1],"loss_changes":[1.4633215E1,7.365015E0,1.1177685E1,0E0,0E0,0E0,0E0],"parents":[2147483647,0,0,1,1,2,2],"right_children":[2,4,6,-1,-1,-1,-1],"split_conditions":[1.9129166E1,-9.035714E0,2.5470085E0,-5.6889886E-3,-1.6872657E-3,1.2652357E-3,-1.5027385E-3],"split_indices":[53,59,29,0,0,0,0],"split_type":[0,0,0,0,0,0,0],"sum_hessian":[8.831561E2,2.660134E2,6.1714276E2,5.8712166E1,2.0730122E2,3.8275735E2,2.343854E2],"tree_param":{"num_deleted":"0","num_feature":"61","num_nodes":"7","size_leaf_vector":"0"}},{"base_weights":[6.326264E-2,2.5884897E-1,-2.13253E-2,5.6889886E-1,1.6872658E-1,-1.2652355E-1,1.5027384E-1],"categories":[],"categories_nodes":[],"categories_segments":[],"categories_sizes":[],"default_left":[1,1,1,0,0,0,0],"id":109,"left_children":[1,3,5,-1,-1,-1,-1],"loss_changes":[1.4633215E1,7.365015E0,1.1177684E1,0E0,0E0,0E0,0E0],"parents":[2147483647,0,0,1,1,2,2],"right_children":[2,4,6,-1,-1,-1,-1],"split_conditions":[1.9129166E1,-9.035714E0,2.5470085E0,5.6889886E-3,1.6872657E-3,-1.2652355E-3,1.5027385E-3],"split_indices":[53,59,29,0,0,0,0],"split_type":[0,0,0,0,0,0,0],"sum_hessian":[8.831561E2,2.660134E2,6.1714276E2,5.8712166E1,2.0730122E2,3.827574E2,2.343854E2],"tree_param":{"num_deleted":"0","num_feature":"61","num_nodes":"7","size_leaf_vector":"0"}},{"base_weights":[-6.265505E-2,-1.5127487E-1,1.21558376E-1,1.6788517E-1,-2.0771258E-1,2.6048496E-1,-6.647923E-2],"categories":[],"categories_nodes":[],"categories_segments":[],"categories_sizes":[],"default_left":[1,1,1,0,0,0,0],"id":110,"left_children":[1,3,5,-1,-1,-1,-1],"loss_changes":[1.4448509E1,1.0793173E1,7.5321493E0,0E0,0E0,0E0,0E0],"parents":[2147483647,0,0,1,1,2,2],"right_children":[2,4,6,-1,-1,-1,-1],"split_conditions":[3.730303E0,-7.242857E0,1.7120728E-1,1.6788517E-3,-2.0771257E-3,2.6048496E-3,-6.6479226E-4],"split_indices":[59,29,3,0,0,0,0],"split_type":[0,0,0,0,0,0,0],"sum_hessian":[8.829298E2,5.9626337E2,2.8666647E2,8.929843E1,5.069649E2,1.6464076E2,1.22025734E2],"tree_param":{"num_deleted":"0","num_feature":"61","num_nodes":"7","size_leaf_vector":"0"}},{"base_weights":[6.2655054E-2,1.5127487E-1,-1.2155838E-1,-1.6788517E-1,2.0771259E-1,-2.6048496E-1,6.647922E-2],"categories":[],"categories_nodes":[],"categories_segments":[],"categories_sizes":[],"default_left":[1,1,1,0,0,0,0],"id":111,"left_children":[1,3,5,-1,-1,-1,-1],"loss_changes":[1.444851E1,1.0793175E1,7.5321493E0,0E0,0E0,0E0,0E0],"parents":[2147483647,0,0,1,1,2,2],"right_children":[2,4,6,-1,-1,-1,-1],"split_conditions":[3.730303E0,-7.242857E0,1.7120728E-1,-1.6788517E-3,2.077126E-3,-2.6048496E-3,6.647922E-4],"split_indices":[59,29,3,0,0,0,0],"split_type":[0,0,0,0,0,0,0],"sum_hessian":[8.829298E2,5.9626337E2,2.8666647E2,8.929843E1,5.069649E2,1.6464076E2,1.2202573E2],"tree_param":{"num_deleted":"0","num_feature":"61","num_nodes":"7","size_leaf_vector":"0"}},{"base_weights":[-6.2042933E-2,7.223687E-2,-1.8239398E-1,1.287484E-1,-2.1524271E-1,2.0149939E-2,-2.932372E-1],"categories":[],"categories_nodes":[],"categories_segments":[],"categories_sizes":[],"default_left":[1,1,1,0,0,0,0],"id":112,"left_children":[1,3,5,-1,-1,-1,-1],"loss_changes":[1.4294428E1,6.824955E0,1.0474735E1,0E0,0E0,0E0,0E0],"parents":[2147483647,0,0,1,1,2,2],"right_children":[2,4,6,-1,-1,-1,-1],"split_conditions":[7.707143E0,2.3095455E1,-2.6201923E0,1.287484E-3,-2.152427E-3,2.0149938E-4,-2.932372E-3],"split_indices":[55,23,29,0,0,0,0],"split_type":[0,0,0,0,0,0,0],"sum_hessian":[8.8270166E2,4.1739713E2,4.6530453E2,3.4928775E2,6.8109375E1,1.6486493E2,3.0043964E2],"tree_param":{"num_deleted":"0","num_feature":"61","num_nodes":"7","size_leaf_vector":"0"}},{"base_weights":[6.204293E-2,-7.223688E-2,1.8239398E-1,-1.2874842E-1,2.152427E-1,-2.0149931E-2,2.932372E-1],"categories":[],"categories_nodes":[],"categories_segments":[],"categories_sizes":[],"default_left":[1,1,1,0,0,0,0],"id":113,"left_children":[1,3,5,-1,-1,-1,-1],"loss_changes":[1.4294428E1,6.8249555E0,1.0474737E1,0E0,0E0,0E0,0E0],"parents":[2147483647,0,0,1,1,2,2],"right_children":[2,4,6,-1,-1,-1,-1],"split_conditions":[7.707143E0,2.3095455E1,-2.6201923E0,-1.2874842E-3,2.1524269E-3,-2.0149931E-4,2.932372E-3],"split_indices":[55,23,29,0,0,0,0],"split_type":[0,0,0,0,0,0,0],"sum_hessian":[8.8270166E2,4.1739713E2,4.6530453E2,3.4928775E2,6.8109375E1,1.6486493E2,3.004396E2],"tree_param":{"num_deleted":"0","num_feature":"61","num_nodes":"7","size_leaf_vector":"0"}},{"base_weights":[-6.1443523E-2,-2.542133E-1,2.1847691E-2,-5.6201875E-1,-1.6488715E-1,1.2548544E-1,-1.4727527E-1],"categories":[],"categories_nodes":[],"categories_segments":[],"categories_sizes":[],"default_left":[1,1,1,0,0,0,0],"id":114,"left_children":[1,3,5,-1,-1,-1,-1],"loss_changes":[1.4190468E1,7.238388E0,1.084754E1,0E0,0E0,0E0,0E0],"parents":[2147483647,0,0,1,1,2,2],"right_children":[2,4,6,-1,-1,-1,-1],"split_conditions":[1.9129166E1,-9.035714E0,2.5470085E0,-5.6201876E-3,-1.6488715E-3,1.2548544E-3,-1.4727527E-3],"split_indices":[53,59,29,0,0,0,0],"split_type":[0,0,0,0,0,0,0],"sum_hessian":[8.824633E2,2.6563156E2,6.168317E2,5.85578E1,2.0707378E2,3.8262125E2,2.3421048E2],"tree_param":{"num_deleted":"0","num_feature":"61","num_nodes":"7","size_leaf_vector":"0"}},{"base_weights":[6.144352E-2,2.542133E-1,-2.1847691E-2,5.6201875E-1,1.6488715E-1,-1.2548544E-1,1.4727527E-1],"categories":[],"categories_nodes":[],"categories_segments":[],"categories_sizes":[],"default_left":[1,1,1,0,0,0,0],"id":115,"left_children":[1,3,5,-1,-1,-1,-1],"loss_changes":[1.4190468E1,7.238388E0,1.084754E1,0E0,0E0,0E0,0E0],"parents":[2147483647,0,0,1,1,2,2],"right_children":[2,4,6,-1,-1,-1,-1],"split_conditions":[1.9129166E1,-9.035714E0,2.5470085E0,5.6201876E-3,1.6488715E-3,-1.2548544E-3,1.4727527E-3],"split_indices":[53,59,29,0,0,0,0],"split_type":[0,0,0,0,0,0,0],"sum_hessian":[8.824633E2,2.6563156E2,6.168317E2,5.85578E1,2.0707378E2,3.8262125E2,2.3421048E2],"tree_param":{"num_deleted":"0","num_feature":"61","num_nodes":"7","size_leaf_vector":"0"}},{"base_weights":[-6.085403E-2,-1.7972267E-1,7.327597E-2,1.17276594E-1,-2.4815392E-1,1.308807E-1,-2.6303375E-1],"categories":[],"categories_nodes":[],"categories_segments":[],"categories_sizes":[],"default_left":[1,1,1,0,0,0,0],"id":116,"left_children":[1,3,5,-1,-1,-1,-1],"loss_changes":[1.4095259E1,9.551798E0,8.087531E0,0E0,0E0,0E0,0E0],"parents":[2147483647,0,0,1,1,2,2],"right_children":[2,4,6,-1,-1,-1,-1],"split_conditions":[8.8562095E-1,1.5842E4,2.315E1,1.1727659E-3,-2.4815393E-3,1.3088069E-3,-2.6303374E-3],"split_indices":[59,4,23,0,0,0,0],"split_type":[0,0,0,0,0,0,0],"sum_hessian":[8.8223004E2,4.675437E2,4.146863E2,8.74195E1,3.801242E2,3.545655E2,6.0120834E1],"tree_param":{"num_deleted":"0","num_feature":"61","num_nodes":"7","size_leaf_vector":"0"}},{"base_weights":[6.0854025E-2,1.7972267E-1,-7.3275976E-2,-1.17276594E-1,2.4815391E-1,-1.3088071E-1,2.6303375E-1],"categories":[],"categories_nodes":[],"categories_segments":[],"categories_sizes":[],"default_left":[1,1,1,0,0,0,0],"id":117,"left_children":[1,3,5,-1,-1,-1,-1],"loss_changes":[1.4095257E1,9.551799E0,8.08753E0,0E0,0E0,0E0,0E0],"parents":[2147483647,0,0,1,1,2,2],"right_children":[2,4,6,-1,-1,-1,-1],"split_conditions":[8.8562095E-1,1.5842E4,2.315E1,-1.1727659E-3,2.481539E-3,-1.308807E-3,2.6303374E-3],"split_indices":[59,4,23,0,0,0,0],"split_type":[0,0,0,0,0,0,0],"sum_hessian":[8.8223004E2,4.675437E2,4.146863E2,8.74195E1,3.8012418E2,3.545655E2,6.0120834E1],"tree_param":{"num_deleted":"0","num_feature":"61","num_nodes":"7","size_leaf_vector":"0"}},{"base_weights":[-6.0262892E-2,-2.029129E-1,5.0475467E-2,-3.1055254E-1,-1.6580405E-2,-1.1178006E-1,1.6488905E-1],"categories":[],"categories_nodes":[],"categories_segments":[],"categories_sizes":[],"default_left":[1,1,1,0,0,0,0],"id":118,"left_children":[1,3,5,-1,-1,-1,-1],"loss_changes":[1.39592E1,7.738904E0,9.261862E0,0E0,0E0,0E0,0E0],"parents":[2147483647,0,0,1,1,2,2],"right_children":[2,4,6,-1,-1,-1,-1],"split_conditions":[1.4852941E0,8.105556E0,1.0811539E2,-3.1055254E-3,-1.6580404E-4,-1.1178006E-3,1.6488904E-3],"split_indices":[38,25,15,0,0,0,0],"split_type":[0,0,0,0,0,0,0],"sum_hessian":[8.820228E2,3.851068E2,4.96916E2,2.436751E2,1.4143172E2,2.0550388E2,2.914121E2],"tree_param":{"num_deleted":"0","num_feature":"61","num_nodes":"7","size_leaf_vector":"0"}},{"base_weights":[6.0262896E-2,2.029129E-1,-5.0475467E-2,3.1055257E-1,1.6580394E-2,1.1178008E-1,-1.6488907E-1],"categories":[],"categories_nodes":[],"categories_segments":[],"categories_sizes":[],"default_left":[1,1,1,0,0,0,0],"id":119,"left_children":[1,3,5,-1,-1,-1,-1],"loss_changes":[1.39592E1,7.738906E0,9.261864E0,0E0,0E0,0E0,0E0],"parents":[2147483647,0,0,1,1,2,2],"right_children":[2,4,6,-1,-1,-1,-1],"split_conditions":[1.4852941E0,8.105556E0,1.0811539E2,3.1055256E-3,1.6580393E-4,1.1178007E-3,-1.6488907E-3],"split_indices":[38,25,15,0,0,0,0],"split_type":[0,0,0,0,0,0,0],"sum_hessian":[8.8202277E2,3.851068E2,4.96916E2,2.436751E2,1.4143172E2,2.0550388E2,2.914121E2],"tree_param":{"num_deleted":"0","num_feature":"61","num_nodes":"7","size_leaf_vector":"0"}},{"base_weights":[-5.9677456E-2,-1.7716265E-1,7.282395E-2,1.1635008E-1,-2.4484642E-1,1.2981038E-1,-2.5998643E-1],"categories":[],"categories_nodes":[],"categories_segments":[],"categories_sizes":[],"default_left":[1,1,1,0,0,0,0],"id":120,"left_children":[1,3,5,-1,-1,-1,-1],"loss_changes":[1.37557E1,9.330075E0,7.9159484E0,0E0,0E0,0E0,0E0],"parents":[2147483647,0,0,1,1,2,2],"right_children":[2,4,6,-1,-1,-1,-1],"split_conditions":[8.8562095E-1,1.5842E4,2.315E1,1.1635007E-3,-2.448464E-3,1.2981037E-3,-2.5998643E-3],"split_indices":[59,4,23,0,0,0,0],"split_type":[0,0,0,0,0,0,0],"sum_hessian":[8.8181866E2,4.6721524E2,4.1460342E2,8.741564E1,3.797996E2,3.5451117E2,6.009226E1],"tree_param":{"num_deleted":"0","num_feature":"61","num_nodes":"7","size_leaf_vector":"0"}},{"base_weights":[5.967746E-2,1.7716266E-1,-7.282395E-2,-1.1635008E-1,2.4484643E-1,-1.2981038E-1,2.5998643E-1],"categories":[],"categories_nodes":[],"categories_segments":[],"categories_sizes":[],"default_left":[1,1,1,0,0,0,0],"id":121,"left_children":[1,3,5,-1,-1,-1,-1],"loss_changes":[1.3755699E1,9.330074E0,7.9159484E0,0E0,0E0,0E0,0E0],"parents":[2147483647,0,0,1,1,2,2],"right_children":[2,4,6,-1,-1,-1,-1],"split_conditions":[8.8562095E-1,1.5842E4,2.315E1,-1.1635007E-3,2.4484643E-3,-1.2981037E-3,2.5998643E-3],"split_indices":[59,4,23,0,0,0,0],"split_type":[0,0,0,0,0,0,0],"sum_hessian":[8.8181866E2,4.6721524E2,4.1460342E2,8.741564E1,3.797996E2,3.5451117E2,6.0092255E1],"tree_param":{"num_deleted":"0","num_feature":"61","num_nodes":"7","size_leaf_vector":"0"}},{"base_weights":[-5.9098158E-2,-2.4856827E-1,2.2669174E-2,-5.5365485E-1,-1.602155E-1,1.2467924E-1,-1.438853E-1],"categories":[],"categories_nodes":[],"categories_segments":[],"categories_sizes":[],"default_left":[1,1,1,0,0,0,0],"id":122,"left_children":[1,3,5,-1,-1,-1,-1],"loss_changes":[1.3679375E1,7.0855465E0,1.0508587E1,0E0,0E0,0E0,0E0],"parents":[2147483647,0,0,1,1,2,2],"right_children":[2,4,6,-1,-1,-1,-1],"split_conditions":[1.9129166E1,-9.035714E0,2.5470085E0,-5.5365483E-3,-1.6021549E-3,1.2467924E-3,-1.438853E-3],"split_indices":[53,59,29,0,0,0,0],"split_type":[0,0,0,0,0,0,0],"sum_hessian":[8.816059E2,2.6515424E2,6.1645166E2,5.836175E1,2.0679248E2,3.8245798E2,2.3399365E2],"tree_param":{"num_deleted":"0","num_feature":"61","num_nodes":"7","size_leaf_vector":"0"}},{"base_weights":[5.9098154E-2,2.4856827E-1,-2.2669174E-2,5.536548E-1,1.602155E-1,-1.2467924E-1,1.438853E-1],"categories":[],"categories_nodes":[],"categories_segments":[],"categories_sizes":[],"default_left":[1,1,1,0,0,0,0],"id":123,"left_children":[1,3,5,-1,-1,-1,-1],"loss_changes":[1.3679375E1,7.0855465E0,1.0508587E1,0E0,0E0,0E0,0E0],"parents":[2147483647,0,0,1,1,2,2],"right_children":[2,4,6,-1,-1,-1,-1],"split_conditions":[1.9129166E1,-9.035714E0,2.5470085E0,5.536548E-3,1.6021549E-3,-1.2467924E-3,1.438853E-3],"split_indices":[53,59,29,0,0,0,0],"split_type":[0,0,0,0,0,0,0],"sum_hessian":[8.8160583E2,2.6515424E2,6.164516E2,5.836175E1,2.0679248E2,3.8245798E2,2.3399364E2],"tree_param":{"num_deleted":"0","num_feature":"61","num_nodes":"7","size_leaf_vector":"0"}},{"base_weights":[-5.8531854E-2,7.235106E-2,-1.7599994E-1,-4.1778854E-1,1.0491462E-1,2.261593E-2,-2.8494552E-1],"categories":[],"categories_nodes":[],"categories_segments":[],"categories_sizes":[],"default_left":[1,1,1,0,0,0,0],"id":124,"left_children":[1,3,5,-1,-1,-1,-1],"loss_changes":[1.35787115E1,6.716367E0,1.0074857E1,0E0,0E0,0E0,0E0],"parents":[2147483647,0,0,1,1,2,2],"right_children":[2,4,6,-1,-1,-1,-1],"split_conditions":[7.707143E0,2.0714286E-1,-2.6201923E0,-4.177885E-3,1.0491462E-3,2.2615929E-4,-2.8494552E-3],"split_indices":[55,48,29,0,0,0,0],"split_type":[0,0,0,0,0,0,0],"sum_hessian":[8.813651E2,4.1706046E2,4.6430463E2,2.5245205E1,3.9181525E2,1.6474844E2,2.9955618E2],"tree_param":{"num_deleted":"0","num_feature":"61","num_nodes":"7","size_leaf_vector":"0"}},{"base_weights":[5.8531854E-2,-7.235105E-2,1.7599992E-1,4.1778854E-1,-1.0491461E-1,-2.2615945E-2,2.8494552E-1],"categories":[],"categories_nodes":[],"categories_segments":[],"categories_sizes":[],"default_left":[1,1,1,0,0,0,0],"id":125,"left_children":[1,3,5,-1,-1,-1,-1],"loss_changes":[1.3578711E1,6.716365E0,1.0074858E1,0E0,0E0,0E0,0E0],"parents":[2147483647,0,0,1,1,2,2],"right_children":[2,4,6,-1,-1,-1,-1],"split_conditions":[7.707143E0,2.0714286E-1,-2.6201923E0,4.177885E-3,-1.049146E-3,-2.2615945E-4,2.8494552E-3],"split_indices":[55,48,29,0,0,0,0],"split_type":[0,0,0,0,0,0,0],"sum_hessian":[8.813651E2,4.1706046E2,4.6430463E2,2.5245205E1,3.9181525E2,1.6474844E2,2.9955618E2],"tree_param":{"num_deleted":"0","num_feature":"61","num_nodes":"7","size_leaf_vector":"0"}},{"base_weights":[-5.796909E-2,-1.4349523E-1,1.19527966E-1,1.6770098E-1,-1.9866115E-1,2.5549856E-1,-6.445379E-2],"categories":[],"categories_nodes":[],"categories_segments":[],"categories_sizes":[],"default_left":[1,1,1,0,0,0,0],"id":126,"left_children":[1,3,5,-1,-1,-1,-1],"loss_changes":[1.3408405E1,1.0260705E1,7.2056737E0,0E0,0E0,0E0,0E0],"parents":[2147483647,0,0,1,1,2,2],"right_children":[2,4,6,-1,-1,-1,-1],